svm_type c_svc
kernel_type rbf
gamma 1
nr_class 2
total_sv 205
rho 1.5585
label 1 -1
nr_sv 72 133
SV
0.6882391780696276 1:0.576923 2:0.038462 3:0 4:0.038462 5:0 6:0.038462 7:0.038462 8:0 9:0 10:0 11:0 12:0 13:0 14:0 15:0 16:0.038462 17:0 18:0 19:0 20:0 21:0 22:0 23:0 24:0 25:0 26:0 27:0 28:0 29:0 30:0 31:0 32:0 33:0 34:0 35:0 36:0 37:0 38:0 39:0 40:0 41:0.038462 42:0 43:0 44:0.038462 45:0 46:0 47:0 48:0 49:0 50:0 51:0.038462 52:0 53:0 54:0 55:0.038462 56:0 57:0.038462 58:0 59:0.038462 60:0.423077 61:0.076923 62:0.038462 63:0.076923 64:0 65:0.038462 66:0.038462 67:0 68:0 69:0 70:0 71:0 72:0 73:0 74:0 75:0.038462 76:0 77:0 78:0 79:0 80:0 81:0 82:0 83:0 84:0 85:0 86:0 87:0 88:0 89:0 90:0 91:0 92:0.038462 93:0 94:0 95:0 96:0 97:0 98:0 99:0 100:0.038462 101:0 102:0.038462 103:0 104:0 105:0 106:0 107:0 108:0 109:0 110:0.038462 111:0.038462 112:0 113:0 114:0 115:0 116:0 117:0 118:0.076923 119:0.461538 120:0.230769 121:0.038462 122:0 123:0 124:0.038462 125:0 126:0 127:0 128:0 129:0 130:0 131:0 132:0 133:0 134:0 135:0 136:0 137:0 138:0 139:0 140:0 141:0 142:0 143:0 144:0 145:0 146:0 147:0 148:0 149:0 150:0 151:0.038462 152:0 153:0 154:0 155:0 156:0 157:0 158:0 159:0 160:0 161:0.038462 162:0 163:0 164:0 165:0 166:0.038462 167:0 168:0 169:0 170:0.038462 171:0 172:0 173:0 174:0 175:0 176:0 177:0.076923 178:0.346154 179:0.038462 180:0.038462 181:0 182:0.076923 183:0.038462 184:0.038462 185:0.192308 186:0 187:0 188:0 189:0.076923 190:0 191:0 192:0 193:0 194:0 195:0 196:0 197:0 198:0 199:0 200:0 201:0 202:0 203:0 204:0 205:0 206:0 207:0 208:0 209:0.038462 210:0 211:0 212:0 213:0 214:0 215:0 216:0 217:0 218:0 219:0 220:0 221:0 222:0.038462 223:0 224:0 225:0.038462 226:0 227:0 228:0 229:0 230:0 231:0 232:0 233:0 234:0 235:0 236:0.038462 237:0.115385 238:0.038462 239:0 240:0 241:0.076923 242:0 243:0 244:0.192308 245:0 246:0 247:0.038462 248:0.115385 249:0.038462 250:0 251:0 252:0 253:0 254:0 255:0 256:0 257:0 258:0 259:0 260:0 261:0 262:0.076923 263:0 264:0 265:0 266:0 267:0 268:0.038462 269:0 270:0 271:0 272:0 273:0 274:0 275:0 276:0 277:0 278:0 279:0 280:0.038462 281:0.038462 282:0 283:0 284:0.038462 285:0.153846 286:0 287:0 288:0 289:0 290:0 291:0 292:0 293:0 294:0 295:0 296:0.384615 297:0.115385 298:0.038462 299:0 300:0 301:0 302:0 303:0 304:0.038462 305:0 306:0.038462 307:0.038462 308:0.038462 309:0 310:0 311:0 312:0 313:0 314:0 315:0 316:0 317:0 318:0 319:0 320:0 321:0.076923 322:0 323:0 324:0 325:0 326:0 327:0 328:0 329:0 330:0 331:0 332:0.038462 333:0 334:0 335:0 336:0 337:0 338:0 339:0 340:0 341:0 342:0 343:0 344:0.153846 345:0 346:0 347:0 348:0 349:0 350:0.038462 351:0 352:0 353:0 354:0 355:0.423077 356:0.076923 357:0.076923 358:0.076923 359:0 360:0.076923 361:0.038462 362:0.038462 363:0 364:0 365:0 366:0 367:0 368:0 369:0 370:0 371:0 372:0.076923 373:0 374:0 375:0 376:0 377:0 378:0 379:0 380:0 381:0 382:0 383:0 384:0 385:0.076923 386:0 387:0 388:0 389:0 390:0.038462 391:0 392:0 393:0 394:0 395:0 396:0 397:0 398:0 399:0 400:0 401:0 402:0 403:0 404:0 405:0 406:0 407:0 408:0 409:0 410:0 411:0 412:0 413:0 414:0.115385 415:0.384615 416:0.076923 417:0.076923 418:0 419:0.076923 420:0.038462 421:0.038462 422:0 423:0 424:0 425:0 426:0.038462 427:0 428:0 429:0 430:0 431:0 432:0 433:0 434:0 435:0 436:0 437:0 438:0 439:0 440:0 441:0 442:0 443:0.038462 444:0.076923 445:0 446:0 447:0 448:0 449:0.038462 450:0 451:0 452:0 453:0 454:0 455:0 456:0 457:0 458:0 459:0 460:0 461:0 462:0 463:0 464:0 465:0 466:0 467:0 468:0 469:0 470:0 471:0 472:0 473:0.269231 474:0.384615 475:0 476:0 477:0 478:0 479:0 480:0 481:0 482:0 483:0 484:0 485:0.038462 486:0 487:0 488:0 489:0 490:0.038462 491:0 492:0 493:0 494:0 495:0 496:0.076923 497:0 498:0 499:0 500:0 501:0 502:0.038462 503:0.076923 504:0 505:0 506:0 507:0 508:0 509:0.038462 510:0 511:0 512:0 513:0 514:0 515:0 516:0 517:0 518:0 519:0 520:0 521:0 522:0 523:0 524:0 525:0 526:0 527:0.038462 528:0 529:0 530:0 531:0 532:0.509434 533:0.132075 534:0.018868 535:0.037736 536:0 537:0.037736 538:0.018868 539:0 540:0 541:0 542:0 543:0 544:0 545:0 546:0 547:0.018868 548:0 549:0 550:0 551:0 552:0 553:0 554:0 555:0 556:0 557:0 558:0 559:0 560:0 561:0 562:0 563:0 564:0.018868 565:0 566:0 567:0 568:0 569:0 570:0 571:0 572:0.018868 573:0 574:0.018868 575:0.018868 576:0 577:0 578:0 579:0.018868 580:0 581:0 582:0.018868 583:0.018868 584:0 585:0 586:0.018868 587:0 588:0.018868 589:0 590:0.056604 
4.098246682224407 1:0.526316 2:0.157895 3:0.052632 4:0.052632 5:0 6:0.052632 7:0.052632 8:0 9:0 10:0 11:0 12:0 13:0 14:0 15:0 16:0 17:0 18:0 19:0 20:0 21:0 22:0 23:0 24:0 25:0 26:0 27:0 28:0 29:0 30:0 31:0.052632 32:0 33:0 34:0 35:0 36:0 37:0.052632 38:0 39:0 40:0 41:0 42:0 43:0 44:0 45:0 46:0 47:0 48:0 49:0 50:0 51:0 52:0 53:0 54:0 55:0 56:0 57:0 58:0 59:0 60:0.421053 61:0.157895 62:0 63:0 64:0 65:0.052632 66:0.052632 67:0 68:0 69:0.052632 70:0 71:0 72:0 73:0 74:0 75:0 76:0.052632 77:0 78:0 79:0 80:0 81:0 82:0 83:0 84:0 85:0 86:0 87:0 88:0 89:0 90:0.052632 91:0 92:0 93:0 94:0 95:0 96:0.052632 97:0 98:0 99:0 100:0 101:0 102:0 103:0 104:0 105:0 106:0 107:0.052632 108:0 109:0 110:0 111:0.052632 112:0 113:0 114:0 115:0 116:0 117:0 118:0 119:0.473684 120:0.210526 121:0 122:0.052632 123:0 124:0 125:0 126:0 127:0 128:0.052632 129:0 130:0 131:0 132:0 133:0 134:0 135:0.052632 136:0 137:0 138:0 139:0 140:0 141:0.052632 142:0 143:0 144:0 145:0 146:0 147:0 148:0 149:0 150:0 151:0 152:0 153:0 154:0 155:0 156:0 157:0 158:0 159:0 160:0 161:0 162:0 163:0 164:0 165:0 166:0.052632 167:0 168:0 169:0 170:0.052632 171:0 172:0 173:0 174:0 175:0 176:0 177:0 178:0.421053 179:0.210526 180:0 181:0 182:0 183:0 184:0 185:0 186:0 187:0 188:0 189:0.105263 190:0.052632 191:0 192:0 193:0 194:0 195:0 196:0 197:0.052632 198:0 199:0 200:0 201:0 202:0 203:0 204:0 205:0 206:0 207:0 208:0.052632 209:0 210:0 211:0 212:0 213:0.052632 214:0 215:0 216:0 217:0 218:0 219:0 220:0 221:0 222:0 223:0 224:0 225:0 226:0 227:0 228:0 229:0 230:0 231:0 232:0 233:0 234:0 235:0.052632 236:0 237:0.473684 238:0.157895 239:0.052632 240:0.052632 241:0 242:0 243:0 244:0 245:0 246:0 247:0 248:0 249:0 250:0 251:0 252:0 253:0 254:0 255:0 256:0.052632 257:0 258:0.052632 259:0 260:0 261:0 262:0 263:0 264:0 265:0 266:0 267:0.052632 268:0 269:0 270:0 271:0 272:0 273:0 274:0 275:0 276:0 277:0 278:0 279:0 280:0 281:0 282:0 283:0 284:0 285:0 286:0 287:0 288:0 289:0 290:0 291:0 292:0 293:0 294:0.052632 295:0.052632 296:0.263158 297:0.368421 298:0.052632 299:0 300:0 301:0.052632 302:0 303:0 304:0.052632 305:0 306:0 307:0 308:0 309:0 310:0 311:0 312:0 313:0 314:0 315:0 316:0 317:0.052632 318:0 319:0.052632 320:0 321:0 322:0 323:0 324:0 325:0 326:0 327:0 328:0 329:0 330:0 331:0 332:0 333:0 334:0 335:0 336:0 337:0 338:0 339:0 340:0 341:0 342:0 343:0 344:0 345:0 346:0 347:0 348:0 349:0 350:0 351:0 352:0.052632 353:0 354:0.052632 355:0.631579 356:0.052632 357:0 358:0 359:0 360:0 361:0 362:0 363:0 364:0 365:0 366:0 367:0 368:0 369:0 370:0 371:0 372:0.052632 373:0 374:0 375:0 376:0 377:0 378:0.105263 379:0 380:0 381:0 382:0 383:0 384:0 385:0 386:0 387:0 388:0 389:0 390:0 391:0.052632 392:0 393:0 394:0 395:0 396:0 397:0 398:0.105263 399:0 400:0 401:0 402:0 403:0 404:0 405:0 406:0 407:0 408:0 409:0 410:0 411:0 412:0 413:0 414:0.736842 415:0.157895 416:0 417:0 418:0 419:0.052632 420:0 421:0 422:0 423:0 424:0 425:0 426:0 427:0 428:0 429:0 430:0 431:0 432:0 433:0 434:0 435:0 436:0 437:0.052632 438:0 439:0 440:0 441:0 442:0 443:0 444:0 445:0 446:0 447:0 448:0 449:0 450:0 451:0 452:0 453:0 454:0 455:0 456:0 457:0 458:0 459:0 460:0 461:0 462:0 463:0 464:0 465:0 466:0 467:0 468:0 469:0 470:0 471:0 472:0 473:0.578947 474:0.157895 475:0.052632 476:0.052632 477:0 478:0.052632 479:0.052632 480:0 481:0 482:0 483:0 484:0 485:0 486:0 487:0 488:0 489:0 490:0 491:0 492:0 493:0 494:0 495:0 496:0 497:0 498:0 499:0 500:0 501:0 502:0 503:0 504:0 505:0 506:0 507:0 508:0 509:0 510:0 511:0 512:0 513:0 514:0 515:0 516:0 517:0 518:0 519:0 520:0 521:0 522:0 523:0 524:0 525:0 526:0 527:0 528:0 529:0.052632 530:0 531:0 532:0.512821 533:0.179487 534:0.025641 535:0.051282 536:0 537:0.025641 538:0.025641 539:0 540:0 541:0.025641 542:0 543:0 544:0 545:0 546:0 547:0 548:0.025641 549:0 550:0 551:0 552:0 553:0 554:0.025641 555:0 556:0 557:0 558:0 559:0 560:0 561:0 562:0.025641 563:0 564:0 565:0 566:0 567:0 568:0.025641 569:0 570:0 571:0 572:0 573:0 574:0 575:0 576:0 577:0 578:0 579:0.025641 580:0 581:0 582:0 583:0.025641 584:0 585:0 586:0 587:0 588:0 589:0 590:0 
1.869007181816595 1:0.428571 2:0.142857 3:0 4:0 5:0 6:0.071429 7:0.071429 8:0.142857 9:0 10:0 11:0 12:0 13:0 14:0 15:0 16:0 17:0 18:0 19:0 20:0 21:0 22:0 23:0 24:0 25:0.071429 26:0 27:0 28:0 29:0 30:0 31:0 32:0 33:0 34:0 35:0 36:0 37:0 38:0 39:0 40:0 41:0 42:0 43:0 44:0.071429 45:0 46:0 47:0 48:0 49:0 50:0 51:0 52:0 53:0 54:0 55:0 56:0 57:0 58:0 59:0 60:0.428571 61:0.142857 62:0 63:0 64:0 65:0 66:0 67:0.071429 68:0 69:0 70:0 71:0 72:0 73:0 74:0 75:0 76:0 77:0 78:0 79:0 80:0 81:0 82:0 83:0 84:0.214286 85:0 86:0 87:0 88:0 89:0 90:0 91:0 92:0 93:0 94:0 95:0 96:0 97:0 98:0 99:0 100:0 101:0 102:0 103:0.142857 104:0 105:0 106:0 107:0 108:0 109:0 110:0 111:0 112:0 113:0 114:0 115:0 116:0 117:0 118:0 119:0.357143 120:0.214286 121:0 122:0 123:0.071429 124:0 125:0 126:0.071429 127:0.071429 128:0 129:0 130:0 131:0 132:0 133:0 134:0 135:0 136:0 137:0 138:0 139:0 140:0 141:0 142:0 143:0.071429 144:0 145:0 146:0 147:0 148:0 149:0 150:0 151:0 152:0 153:0 154:0 155:0 156:0.071429 157:0 158:0 159:0 160:0 161:0 162:0.071429 163:0 164:0 165:0 166:0 167:0 168:0 169:0 170:0 171:0 172:0 173:0 174:0 175:0 176:0 177:0 178:0.642857 179:0 180:0.071429 181:0 182:0 183:0.071429 184:0 185:0.071429 186:0 187:0 188:0 189:0 190:0 191:0 192:0 193:0 194:0 195:0 196:0 197:0 198:0 199:0 200:0 201:0 202:0 203:0 204:0 205:0 206:0 207:0 208:0.142857 209:0 210:0 211:0 212:0 213:0 214:0 215:0 216:0 217:0 218:0 219:0 220:0 221:0 222:0 223:0 224:0 225:0 226:0 227:0 228:0 229:0 230:0 231:0 232:0 233:0 234:0 235:0 236:0 237:0.571429 238:0 239:0 240:0 241:0 242:0.071429 243:0 244:0.142857 245:0 246:0 247:0 248:0 249:0 250:0 251:0 252:0 253:0 254:0 255:0 256:0 257:0 258:0 259:0 260:0 261:0 262:0 263:0 264:0 265:0 266:0 267:0 268:0 269:0 270:0.071429 271:0 272:0 273:0 274:0 275:0 276:0 277:0 278:0 279:0 280:0.071429 281:0 282:0 283:0 284:0 285:0.071429 286:0 287:0 288:0 289:0 290:0 291:0 292:0 293:0 294:0 295:0 296:0.571429 297:0 298:0 299:0.071429 300:0 301:0 302:0 303:0 304:0 305:0 306:0 307:0 308:0 309:0 310:0 311:0 312:0 313:0 314:0 315:0 316:0 317:0 318:0 319:0 320:0.071429 321:0 322:0 323:0.071429 324:0 325:0 326:0 327:0 328:0 329:0.071429 330:0 331:0 332:0 333:0 334:0 335:0 336:0 337:0 338:0 339:0.071429 340:0 341:0 342:0 343:0 344:0.071429 345:0 346:0 347:0 348:0 349:0 350:0 351:0 352:0 353:0 354:0 355:0.428571 356:0.357143 357:0 358:0.071429 359:0 360:0 361:0 362:0 363:0 364:0 365:0 366:0 367:0.071429 368:0 369:0 370:0 371:0 372:0 373:0 374:0 375:0 376:0 377:0 378:0 379:0 380:0 381:0 382:0 383:0 384:0 385:0.071429 386:0 387:0 388:0 389:0 390:0 391:0 392:0 393:0 394:0 395:0 396:0 397:0 398:0 399:0 400:0 401:0 402:0 403:0 404:0 405:0 406:0 407:0 408:0 409:0 410:0 411:0 412:0 413:0 414:0.071429 415:0.571429 416:0 417:0 418:0 419:0 420:0 421:0 422:0 423:0 424:0 425:0 426:0.071429 427:0 428:0 429:0 430:0 431:0 432:0 433:0 434:0 435:0 436:0 437:0 438:0 439:0 440:0 441:0 442:0 443:0 444:0.142857 445:0 446:0 447:0 448:0 449:0 450:0 451:0.071429 452:0 453:0 454:0 455:0 456:0 457:0.071429 458:0 459:0 460:0 461:0 462:0 463:0 464:0 465:0 466:0 467:0 468:0 469:0 470:0 471:0 472:0 473:0 474:0.785714 475:0 476:0 477:0 478:0 479:0.071429 480:0 481:0 482:0 483:0 484:0 485:0 486:0 487:0 488:0 489:0 490:0 491:0 492:0 493:0 494:0 495:0 496:0 497:0 498:0 499:0 500:0 501:0 502:0 503:0.071429 504:0 505:0 506:0 507:0 508:0 509:0 510:0 511:0 512:0 513:0 514:0 515:0 516:0.071429 517:0 518:0 519:0 520:0 521:0 522:0 523:0 524:0 525:0 526:0 527:0 528:0 529:0 530:0 531:0 532:0.37931 533:0.172414 534:0 535:0 536:0.034483 537:0.034483 538:0.034483 539:0.103448 540:0.034483 541:0 542:0 543:0 544:0 545:0 546:0 547:0 548:0 549:0 550:0 551:0 552:0 553:0 554:0 555:0 556:0.103448 557:0 558:0 559:0 560:0 561:0 562:0 563:0 564:0 565:0 566:0 567:0 568:0 569:0.034483 570:0 571:0 572:0 573:0 574:0 575:0.068966 576:0 577:0 578:0 579:0 580:0 581:0 582:0 583:0 584:0 585:0 586:0 587:0 588:0 589:0 590:0 
2.173539157779844 1:0.411765 2:0.117647 3:0 4:0 5:0.058824 6:0 7:0.058824 8:0 9:0 10:0 11:0 12:0 13:0 14:0 15:0 16:0 17:0 18:0 19:0 20:0 21:0 22:0 23:0 24:0.058824 25:0 26:0 27:0 28:0 29:0 30:0 31:0 32:0 33:0 34:0 35:0 36:0.058824 37:0 38:0.058824 39:0 40:0 41:0 42:0 43:0 44:0 45:0 46:0 47:0 48:0 49:0 50:0 51:0 52:0 53:0 54:0 55:0 56:0 57:0 58:0.117647 59:0.058824 60:0.647059 61:0.117647 62:0 63:0 64:0.058824 65:0 66:0.058824 67:0 68:0 69:0 70:0 71:0 72:0 73:0 74:0 75:0 76:0 77:0 78:0 79:0 80:0 81:0 82:0 83:0 84:0 85:0 86:0 87:0 88:0 89:0 90:0.058824 91:0 92:0 93:0 94:0 95:0 96:0 97:0 98:0 99:0 100:0 101:0 102:0 103:0 104:0 105:0 106:0 107:0 108:0 109:0 110:0 111:0 112:0 113:0 114:0 115:0 116:0 117:0 118:0.058824 119:0.764706 120:0.117647 121:0 122:0 123:0 124:0 125:0 126:0 127:0 128:0 129:0 130:0 131:0 132:0 133:0 134:0 135:0 136:0 137:0 138:0 139:0 140:0 141:0 142:0 143:0 144:0 145:0 146:0 147:0 148:0 149:0.058824 150:0 151:0 152:0 153:0 154:0.058824 155:0 156:0 157:0 158:0 159:0 160:0 161:0 162:0 163:0 164:0 165:0 166:0 167:0 168:0 169:0 170:0 171:0 172:0 173:0 174:0 175:0 176:0 177:0 178:0.411765 179:0 180:0 181:0.058824 182:0 183:0 184:0 185:0 186:0 187:0 188:0 189:0 190:0 191:0 192:0 193:0 194:0 195:0 196:0 197:0 198:0 199:0 200:0 201:0.058824 202:0 203:0 204:0 205:0 206:0 207:0 208:0 209:0 210:0 211:0 212:0 213:0 214:0 215:0 216:0 217:0 218:0 219:0 220:0.058824 221:0 222:0 223:0 224:0.058824 225:0.058824 226:0 227:0 228:0 229:0.117647 230:0 231:0 232:0 233:0 234:0.058824 235:0 236:0.117647 237:0.352941 238:0 239:0 240:0 241:0 242:0 243:0 244:0 245:0 246:0 247:0 248:0 249:0 250:0 251:0 252:0 253:0 254:0 255:0 256:0 257:0 258:0 259:0 260:0 261:0 262:0 263:0 264:0 265:0 266:0 267:0 268:0 269:0 270:0.117647 271:0 272:0 273:0 274:0 275:0 276:0 277:0 278:0 279:0.058824 280:0 281:0 282:0 283:0.058824 284:0.176471 285:0 286:0 287:0 288:0.176471 289:0 290:0 291:0 292:0 293:0 294:0 295:0.058824 296:0.411765 297:0 298:0.058824 299:0 300:0 301:0 302:0.058824 303:0 304:0 305:0 306:0 307:0 308:0 309:0 310:0 311:0 312:0 313:0 314:0 315:0 316:0 317:0 318:0 319:0 320:0.058824 321:0 322:0 323:0 324:0 325:0 326:0 327:0 328:0 329:0.117647 330:0 331:0.058824 332:0 333:0 334:0.058824 335:0 336:0 337:0 338:0 339:0 340:0 341:0 342:0 343:0.117647 344:0 345:0 346:0 347:0.058824 348:0 349:0 350:0 351:0 352:0 353:0 354:0 355:0.647059 356:0.058824 357:0 358:0.058824 359:0 360:0 361:0 362:0 363:0 364:0 365:0 366:0 367:0 368:0 369:0 370:0 371:0.058824 372:0 373:0 374:0 375:0 376:0 377:0 378:0 379:0.058824 380:0 381:0 382:0 383:0 384:0 385:0 386:0 387:0 388:0 389:0 390:0 391:0.058824 392:0 393:0 394:0 395:0 396:0 397:0 398:0 399:0 400:0 401:0 402:0 403:0 404:0 405:0 406:0 407:0 408:0.058824 409:0 410:0 411:0 412:0 413:0 414:0.588235 415:0.058824 416:0 417:0 418:0 419:0 420:0 421:0 422:0 423:0 424:0 425:0 426:0 427:0 428:0 429:0 430:0.058824 431:0 432:0 433:0 434:0 435:0 436:0 437:0 438:0.058824 439:0 440:0 441:0 442:0 443:0 444:0 445:0 446:0 447:0.058824 448:0 449:0 450:0.058824 451:0 452:0 453:0 454:0 455:0 456:0 457:0 458:0 459:0 460:0 461:0 462:0 463:0 464:0 465:0 466:0 467:0.058824 468:0 469:0 470:0 471:0 472:0.058824 473:0.647059 474:0.117647 475:0 476:0.058824 477:0 478:0 479:0 480:0 481:0 482:0 483:0 484:0 485:0 486:0 487:0 488:0 489:0 490:0 491:0 492:0 493:0 494:0 495:0 496:0 497:0 498:0 499:0 500:0 501:0 502:0 503:0 504:0.058824 505:0 506:0.058824 507:0 508:0 509:0 510:0 511:0 512:0 513:0 514:0 515:0 516:0 517:0 518:0 519:0 520:0 521:0 522:0 523:0 524:0 525:0 526:0 527:0 528:0 529:0 530:0 531:0.058824 532:0.588235 533:0.117647 534:0 535:0 536:0.029412 537:0 538:0.029412 539:0 540:0 541:0 542:0 543:0 544:0 545:0 546:0 547:0 548:0 549:0 550:0 551:0 552:0 553:0 554:0 555:0.029412 556:0 557:0 558:0 559:0 560:0 561:0 562:0.029412 563:0 564:0 565:0 566:0 567:0.058824 568:0 569:0.029412 570:0 571:0 572:0 573:0 574:0 575:0 576:0 577:0 578:0 579:0 580:0 581:0 582:0 583:0 584:0 585:0 586:0 587:0 588:0 589:0.058824 590:0.029412 
1.342878572199985 1:0.3 2:0.2 3:0 4:0 5:0 6:0 7:0 8:0.1 9:0.1 10:0 11:0 12:0 13:0 14:0 15:0 16:0 17:0 18:0 19:0.1 20:0 21:0 22:0 23:0.1 24:0 25:0 26:0 27:0 28:0 29:0 30:0 31:0 32:0 33:0 34:0 35:0 36:0.1 37:0 38:0 39:0 40:0 41:0 42:0 43:0 44:0 45:0 46:0 47:0 48:0 49:0 50:0 51:0 52:0 53:0 54:0 55:0 56:0 57:0 58:0 59:0 60:0.5 61:0.1 62:0 63:0 64:0 65:0 66:0 67:0.1 68:0.1 69:0 70:0 71:0 72:0 73:0 74:0 75:0 76:0 77:0 78:0.1 79:0 80:0 81:0 82:0 83:0 84:0 85:0 86:0 87:0 88:0 89:0 90:0 91:0 92:0 93:0 94:0 95:0.1 96:0 97:0 98:0 99:0 100:0 101:0 102:0 103:0 104:0 105:0 106:0 107:0 108:0 109:0 110:0 111:0 112:0 113:0 114:0 115:0 116:0 117:0 118:0 119:0.8 120:0 121:0.1 122:0 123:0 124:0 125:0 126:0 127:0 128:0 129:0 130:0 131:0 132:0 133:0 134:0 135:0 136:0 137:0 138:0 139:0 140:0 141:0 142:0 143:0 144:0 145:0 146:0 147:0 148:0 149:0 150:0 151:0 152:0 153:0 154:0 155:0 156:0 157:0 158:0 159:0 160:0 161:0 162:0 163:0.1 164:0 165:0 166:0 167:0 168:0 169:0 170:0 171:0 172:0 173:0 174:0 175:0 176:0 177:0 178:0.4 179:0.1 180:0 181:0 182:0 183:0 184:0 185:0 186:0 187:0 188:0 189:0 190:0 191:0 192:0 193:0 194:0 195:0 196:0 197:0 198:0 199:0 200:0 201:0 202:0 203:0 204:0 205:0 206:0 207:0 208:0 209:0 210:0 211:0 212:0 213:0 214:0 215:0 216:0 217:0 218:0 219:0 220:0 221:0 222:0 223:0 224:0 225:0 226:0 227:0 228:0 229:0.4 230:0 231:0 232:0 233:0 234:0 235:0 236:0.1 237:0.2 238:0 239:0 240:0 241:0 242:0 243:0 244:0.1 245:0 246:0 247:0 248:0 249:0 250:0 251:0 252:0 253:0 254:0 255:0 256:0 257:0 258:0 259:0 260:0 261:0 262:0 263:0 264:0 265:0 266:0 267:0 268:0 269:0 270:0.1 271:0 272:0 273:0 274:0 275:0 276:0 277:0 278:0 279:0 280:0 281:0 282:0 283:0 284:0.1 285:0 286:0 287:0 288:0.5 289:0 290:0 291:0 292:0 293:0 294:0 295:0 296:0.2 297:0.3 298:0 299:0 300:0 301:0 302:0 303:0.1 304:0.1 305:0 306:0 307:0 308:0 309:0 310:0 311:0 312:0 313:0 314:0 315:0 316:0 317:0 318:0 319:0 320:0 321:0 322:0 323:0 324:0 325:0 326:0 327:0 328:0 329:0.1 330:0 331:0 332:0 333:0 334:0 335:0 336:0 337:0 338:0 339:0 340:0 341:0 342:0 343:0.1 344:0 345:0 346:0 347:0.1 348:0 349:0 350:0 351:0 352:0 353:0 354:0 355:0.6 356:0 357:0 358:0 359:0 360:0 361:0 362:0 363:0 364:0 365:0 366:0 367:0 368:0 369:0 370:0 371:0 372:0 373:0 374:0 375:0 376:0 377:0 378:0 379:0 380:0 381:0 382:0 383:0 384:0 385:0 386:0 387:0 388:0 389:0 390:0 391:0 392:0 393:0.1 394:0 395:0 396:0 397:0 398:0.1 399:0 400:0 401:0 402:0 403:0.2 404:0 405:0 406:0 407:0 408:0 409:0 410:0 411:0 412:0 413:0 414:0.4 415:0 416:0 417:0 418:0 419:0 420:0 421:0 422:0 423:0 424:0 425:0 426:0 427:0 428:0 429:0 430:0 431:0 432:0 433:0 434:0 435:0 436:0 437:0 438:0 439:0 440:0 441:0 442:0 443:0 444:0 445:0 446:0 447:0 448:0 449:0 450:0 451:0 452:0 453:0 454:0 455:0 456:0 457:0.1 458:0 459:0 460:0 461:0 462:0.4 463:0 464:0 465:0 466:0.1 467:0 468:0 469:0 470:0 471:0 472:0 473:0.4 474:0.1 475:0 476:0 477:0 478:0 479:0 480:0 481:0 482:0 483:0 484:0 485:0 486:0 487:0 488:0 489:0 490:0 491:0 492:0 493:0 494:0 495:0 496:0 497:0 498:0 499:0 500:0 501:0 502:0.1 503:0 504:0 505:0 506:0 507:0 508:0 509:0 510:0 511:0 512:0 513:0 514:0 515:0 516:0 517:0 518:0 519:0 520:0 521:0.2 522:0 523:0 524:0 525:0.1 526:0 527:0 528:0 529:0.1 530:0 531:0 532:0.55 533:0.1 534:0.05 535:0 536:0 537:0 538:0 539:0.05 540:0.05 541:0 542:0 543:0 544:0 545:0 546:0 547:0 548:0 549:0 550:0.05 551:0 552:0 553:0 554:0.05 555:0 556:0 557:0 558:0 559:0 560:0 561:0 562:0 563:0 564:0 565:0 566:0 567:0.05 568:0 569:0 570:0 571:0 572:0 573:0 574:0 575:0 576:0.05 577:0 578:0 579:0 580:0 581:0 582:0 583:0 584:0 585:0 586:0 587:0 588:0 589:0 590:0 
1.471951079071814 1:0.333333 2:0 3:0 4:0.066667 5:0 6:0 7:0 8:0 9:0 10:0 11:0 12:0 13:0 14:0 15:0 16:0 17:0.066667 18:0.066667 19:0 20:0 21:0 22:0 23:0 24:0 25:0.066667 26:0 27:0 28:0 29:0 30:0 31:0 32:0 33:0 34:0.066667 35:0 36:0 37:0 38:0 39:0 40:0 41:0 42:0 43:0 44:0 45:0 46:0 47:0.066667 48:0.066667 49:0 50:0 51:0 52:0 53:0 54:0.066667 55:0 56:0 57:0 58:0 59:0.133333 60:0.066667 61:0 62:0 63:0.066667 64:0 65:0 66:0 67:0 68:0 69:0 70:0 71:0 72:0 73:0 74:0 75:0 76:0.066667 77:0 78:0 79:0 80:0 81:0 82:0 83:0 84:0 85:0 86:0 87:0 88:0 89:0 90:0 91:0 92:0 93:0.066667 94:0 95:0 96:0 97:0 98:0 99:0 100:0 101:0 102:0 103:0 104:0 105:0.066667 106:0.266667 107:0.133333 108:0 109:0 110:0 111:0.066667 112:0 113:0 114:0 115:0 116:0 117:0 118:0.2 119:0.266667 120:0.2 121:0 122:0 123:0 124:0 125:0 126:0 127:0 128:0 129:0 130:0 131:0 132:0 133:0 134:0 135:0 136:0 137:0 138:0 139:0 140:0 141:0 142:0 143:0 144:0 145:0 146:0 147:0 148:0 149:0 150:0 151:0 152:0 153:0 154:0 155:0 156:0 157:0 158:0 159:0 160:0 161:0 162:0 163:0 164:0.066667 165:0.2 166:0.066667 167:0 168:0 169:0 170:0.066667 171:0 172:0 173:0 174:0 175:0 176:0 177:0.133333 178:0.333333 179:0.2 180:0 181:0 182:0 183:0 184:0 185:0.333333 186:0 187:0 188:0 189:0 190:0.066667 191:0 192:0 193:0 194:0 195:0 196:0 197:0 198:0 199:0 200:0 201:0.066667 202:0 203:0 204:0 205:0 206:0 207:0 208:0 209:0 210:0 211:0 212:0 213:0 214:0 215:0 216:0 217:0 218:0 219:0 220:0 221:0 222:0 223:0 224:0 225:0 226:0 227:0 228:0 229:0 230:0 231:0 232:0 233:0 234:0 235:0 236:0 237:0.133333 238:0 239:0 240:0 241:0 242:0 243:0 244:0.6 245:0 246:0 247:0 248:0.133333 249:0 250:0 251:0 252:0 253:0.066667 254:0 255:0 256:0 257:0 258:0 259:0 260:0 261:0 262:0 263:0 264:0 265:0 266:0 267:0 268:0 269:0 270:0 271:0 272:0 273:0 274:0 275:0 276:0 277:0 278:0 279:0 280:0 281:0 282:0 283:0 284:0.066667 285:0 286:0 287:0 288:0 289:0 290:0 291:0 292:0 293:0 294:0 295:0 296:0.2 297:0 298:0 299:0 300:0 301:0 302:0 303:0.333333 304:0 305:0 306:0 307:0.133333 308:0 309:0 310:0 311:0 312:0 313:0 314:0 315:0 316:0 317:0 318:0 319:0.066667 320:0 321:0 322:0 323:0 324:0 325:0 326:0 327:0 328:0 329:0 330:0 331:0 332:0 333:0 334:0 335:0 336:0 337:0 338:0 339:0 340:0 341:0 342:0 343:0.066667 344:0 345:0 346:0 347:0.133333 348:0 349:0 350:0 351:0 352:0.066667 353:0 354:0 355:0.533333 356:0.133333 357:0 358:0 359:0.066667 360:0 361:0 362:0 363:0 364:0 365:0 366:0 367:0.066667 368:0 369:0 370:0 371:0 372:0 373:0 374:0 375:0 376:0 377:0 378:0.066667 379:0 380:0 381:0 382:0 383:0 384:0 385:0 386:0 387:0 388:0 389:0 390:0 391:0 392:0 393:0 394:0 395:0 396:0 397:0.066667 398:0 399:0 400:0 401:0 402:0 403:0 404:0 405:0 406:0 407:0 408:0 409:0 410:0 411:0 412:0 413:0.066667 414:0.6 415:0.133333 416:0 417:0 418:0 419:0.066667 420:0 421:0 422:0 423:0 424:0 425:0 426:0 427:0 428:0 429:0 430:0 431:0 432:0 433:0 434:0 435:0 436:0 437:0.066667 438:0.066667 439:0 440:0 441:0 442:0 443:0 444:0 445:0 446:0 447:0 448:0 449:0 450:0 451:0.066667 452:0 453:0 454:0 455:0 456:0 457:0 458:0 459:0 460:0 461:0 462:0 463:0 464:0 465:0 466:0 467:0 468:0 469:0 470:0 471:0 472:0 473:0.4 474:0.2 475:0 476:0 477:0 478:0.066667 479:0 480:0 481:0 482:0 483:0 484:0 485:0 486:0 487:0 488:0 489:0 490:0 491:0 492:0 493:0 494:0 495:0 496:0 497:0.066667 498:0 499:0 500:0 501:0 502:0 503:0 504:0 505:0 506:0 507:0 508:0.066667 509:0 510:0.133333 511:0 512:0 513:0 514:0 515:0 516:0 517:0 518:0 519:0 520:0 521:0 522:0 523:0 524:0 525:0 526:0 527:0.066667 528:0 529:0 530:0 531:0 532:0.290323 533:0.096774 534:0 535:0.032258 536:0 537:0 538:0 539:0 540:0 541:0 542:0 543:0 544:0 545:0 546:0 547:0 548:0.032258 549:0.032258 550:0 551:0 552:0 553:0 554:0 555:0 556:0.032258 557:0 558:0 559:0 560:0 561:0 562:0 563:0 564:0 565:0.032258 566:0 567:0 568:0 569:0 570:0 571:0 572:0 573:0 574:0 575:0 576:0 577:0.032258 578:0.129032 579:0.064516 580:0 581:0 582:0 583:0.064516 584:0 585:0.032258 586:0 587:0 588:0 589:0 590:0.129032 
0.64818299517973 1:0.5 2:0 3:0 4:0 5:0 6:0 7:0 8:0 9:0 10:0 11:0 12:0 13:0 14:0 15:0 16:0 17:0 18:0 19:0 20:0 21:0 22:0 23:0 24:0.071429 25:0 26:0 27:0 28:0 29:0 30:0 31:0 32:0 33:0 34:0 35:0 36:0 37:0 38:0 39:0 40:0 41:0 42:0 43:0.071429 44:0.071429 45:0.071429 46:0 47:0 48:0.071429 49:0.071429 50:0 51:0 52:0 53:0 54:0 55:0.071429 56:0 57:0 58:0 59:0 60:0.214286 61:0 62:0 63:0 64:0 65:0 66:0 67:0 68:0 69:0 70:0 71:0 72:0 73:0 74:0 75:0 76:0 77:0 78:0 79:0 80:0 81:0 82:0 83:0 84:0 85:0 86:0 87:0 88:0 89:0 90:0 91:0 92:0 93:0 94:0 95:0 96:0 97:0 98:0 99:0 100:0 101:0 102:0.071429 103:0.285714 104:0.071429 105:0 106:0 107:0 108:0.142857 109:0 110:0 111:0.071429 112:0 113:0 114:0.071429 115:0 116:0 117:0 118:0.071429 119:0.285714 120:0.071429 121:0.071429 122:0 123:0 124:0 125:0 126:0 127:0.071429 128:0 129:0 130:0 131:0 132:0 133:0 134:0 135:0 136:0 137:0 138:0 139:0 140:0 141:0 142:0 143:0 144:0 145:0 146:0 147:0 148:0 149:0 150:0 151:0 152:0 153:0 154:0 155:0 156:0 157:0 158:0 159:0 160:0 161:0 162:0.214286 163:0 164:0 165:0 166:0 167:0.071429 168:0 169:0 170:0.071429 171:0 172:0 173:0 174:0 175:0.071429 176:0 177:0.071429 178:0.285714 179:0.142857 180:0 181:0 182:0 183:0 184:0 185:0 186:0 187:0 188:0 189:0 190:0 191:0 192:0 193:0 194:0 195:0 196:0 197:0 198:0 199:0 200:0 201:0 202:0 203:0 204:0 205:0 206:0 207:0 208:0 209:0 210:0 211:0 212:0 213:0 214:0 215:0 216:0 217:0 218:0 219:0 220:0 221:0 222:0 223:0 224:0.142857 225:0.214286 226:0 227:0 228:0 229:0.142857 230:0 231:0.071429 232:0 233:0 234:0 235:0 236:0 237:0.142857 238:0 239:0 240:0 241:0 242:0 243:0 244:0 245:0 246:0 247:0 248:0 249:0 250:0 251:0 252:0 253:0 254:0 255:0 256:0 257:0 258:0 259:0 260:0 261:0 262:0 263:0 264:0 265:0 266:0 267:0 268:0 269:0 270:0 271:0 272:0 273:0 274:0 275:0 276:0 277:0 278:0 279:0 280:0 281:0 282:0 283:0.214286 284:0.214286 285:0.071429 286:0.071429 287:0.071429 288:0.142857 289:0 290:0 291:0 292:0 293:0 294:0 295:0.071429 296:0.428571 297:0 298:0 299:0.071429 300:0 301:0 302:0 303:0.071429 304:0 305:0 306:0 307:0 308:0 309:0 310:0 311:0 312:0 313:0 314:0 315:0 316:0 317:0 318:0 319:0 320:0 321:0 322:0 323:0 324:0 325:0 326:0 327:0 328:0 329:0 330:0 331:0 332:0 333:0 334:0 335:0 336:0 337:0 338:0 339:0 340:0 341:0 342:0.071429 343:0 344:0.071429 345:0.071429 346:0.071429 347:0 348:0 349:0 350:0 351:0 352:0 353:0 354:0.142857 355:0.428571 356:0.142857 357:0 358:0 359:0 360:0 361:0 362:0 363:0 364:0 365:0 366:0 367:0 368:0 369:0 370:0 371:0 372:0 373:0.071429 374:0 375:0 376:0 377:0 378:0 379:0 380:0 381:0 382:0 383:0 384:0 385:0.071429 386:0 387:0 388:0 389:0 390:0 391:0 392:0 393:0 394:0 395:0 396:0 397:0 398:0 399:0 400:0 401:0 402:0.142857 403:0 404:0 405:0 406:0 407:0 408:0 409:0 410:0 411:0.071429 412:0 413:0.071429 414:0.285714 415:0 416:0 417:0 418:0 419:0 420:0 421:0 422:0 423:0 424:0 425:0 426:0 427:0 428:0 429:0 430:0 431:0 432:0 433:0 434:0 435:0 436:0 437:0 438:0 439:0 440:0 441:0 442:0 443:0 444:0.071429 445:0 446:0 447:0 448:0 449:0 450:0 451:0 452:0 453:0 454:0 455:0 456:0 457:0 458:0 459:0 460:0.071429 461:0.142857 462:0.142857 463:0 464:0 465:0.071429 466:0 467:0 468:0.071429 469:0 470:0 471:0 472:0.142857 473:0.428571 474:0 475:0 476:0.071429 477:0 478:0 479:0 480:0 481:0 482:0 483:0 484:0 485:0 486:0 487:0 488:0 489:0 490:0 491:0 492:0 493:0 494:0 495:0 496:0.071429 497:0 498:0 499:0 500:0 501:0 502:0 503:0 504:0 505:0 506:0 507:0 508:0 509:0 510:0 511:0 512:0 513:0 514:0 515:0 516:0 517:0 518:0 519:0.071429 520:0 521:0.142857 522:0 523:0 524:0.071429 525:0 526:0 527:0.071429 528:0 529:0 530:0 531:0.071429 532:0.392857 533:0.035714 534:0.035714 535:0 536:0 537:0 538:0 539:0 540:0.035714 541:0 542:0 543:0 544:0 545:0 546:0 547:0 548:0 549:0 550:0 551:0 552:0 553:0 554:0 555:0.035714 556:0 557:0 558:0 559:0 560:0 561:0 562:0 563:0 564:0 565:0 566:0 567:0 568:0 569:0 570:0 571:0 572:0 573:0 574:0.035714 575:0.142857 576:0.035714 577:0 578:0 579:0.035714 580:0.071429 581:0 582:0 583:0.035714 584:0 585:0 586:0.035714 587:0 588:0.035714 589:0 590:0.035714 
0.5990714116773898 1:0.4 2:0.2 3:0 4:0 5:0 6:0 7:0.066667 8:0 9:0.066667 10:0 11:0 12:0 13:0.066667 14:0 15:0 16:0 17:0 18:0 19:0 20:0 21:0 22:0 23:0.066667 24:0 25:0 26:0 27:0 28:0 29:0 30:0 31:0 32:0 33:0 34:0 35:0 36:0 37:0 38:0 39:0 40:0 41:0 42:0 43:0 44:0 45:0 46:0 47:0 48:0 49:0 50:0 51:0 52:0.066667 53:0 54:0 55:0 56:0 57:0 58:0 59:0.066667 60:0.466667 61:0 62:0 63:0 64:0 65:0 66:0.066667 67:0 68:0 69:0 70:0 71:0 72:0 73:0 74:0 75:0 76:0 77:0 78:0 79:0 80:0 81:0 82:0.066667 83:0 84:0 85:0 86:0 87:0 88:0 89:0 90:0 91:0 92:0 93:0 94:0 95:0 96:0.066667 97:0 98:0 99:0 100:0 101:0 102:0 103:0 104:0 105:0 106:0 107:0.066667 108:0 109:0 110:0 111:0.133333 112:0 113:0 114:0 115:0 116:0 117:0 118:0.133333 119:0.466667 120:0.066667 121:0 122:0 123:0 124:0 125:0 126:0 127:0 128:0 129:0 130:0 131:0 132:0 133:0 134:0 135:0 136:0.066667 137:0 138:0 139:0 140:0 141:0 142:0.066667 143:0 144:0 145:0 146:0 147:0 148:0 149:0.066667 150:0 151:0 152:0 153:0 154:0 155:0.066667 156:0 157:0 158:0 159:0 160:0 161:0 162:0 163:0 164:0 165:0 166:0 167:0.066667 168:0 169:0 170:0.066667 171:0 172:0 173:0 174:0 175:0 176:0 177:0.066667 178:0.066667 179:0.266667 180:0.066667 181:0 182:0 183:0 184:0 185:0 186:0.066667 187:0 188:0.066667 189:0.133333 190:0.333333 191:0 192:0 193:0 194:0 195:0 196:0 197:0 198:0 199:0 200:0 201:0 202:0 203:0 204:0 205:0 206:0 207:0 208:0 209:0 210:0 211:0 212:0 213:0 214:0 215:0 216:0 217:0 218:0 219:0 220:0 221:0 222:0 223:0 224:0 225:0 226:0 227:0 228:0 229:0 230:0 231:0 232:0 233:0 234:0 235:0 236:0 237:0.133333 238:0.2 239:0 240:0 241:0 242:0 243:0 244:0 245:0.066667 246:0 247:0.066667 248:0.066667 249:0.2 250:0 251:0 252:0 253:0 254:0 255:0 256:0 257:0 258:0 259:0 260:0 261:0 262:0 263:0 264:0 265:0 266:0 267:0 268:0 269:0 270:0 271:0.066667 272:0 273:0 274:0 275:0 276:0 277:0 278:0 279:0 280:0 281:0 282:0 283:0 284:0 285:0 286:0 287:0 288:0.066667 289:0 290:0 291:0 292:0 293:0 294:0 295:0.133333 296:0.466667 297:0.066667 298:0 299:0 300:0 301:0.066667 302:0.066667 303:0 304:0 305:0 306:0 307:0.066667 308:0 309:0 310:0 311:0 312:0 313:0 314:0 315:0 316:0 317:0 318:0 319:0 320:0 321:0 322:0 323:0 324:0 325:0 326:0 327:0 328:0 329:0 330:0.066667 331:0 332:0 333:0 334:0 335:0 336:0 337:0 338:0 339:0 340:0 341:0 342:0 343:0 344:0 345:0 346:0 347:0.066667 348:0 349:0 350:0 351:0 352:0 353:0 354:0.133333 355:0.4 356:0.066667 357:0 358:0 359:0 360:0 361:0 362:0 363:0 364:0 365:0 366:0 367:0 368:0 369:0 370:0 371:0 372:0 373:0 374:0 375:0 376:0 377:0 378:0.133333 379:0 380:0 381:0 382:0 383:0 384:0 385:0 386:0 387:0 388:0 389:0 390:0 391:0 392:0 393:0 394:0 395:0 396:0 397:0 398:0 399:0 400:0 401:0 402:0.066667 403:0 404:0 405:0 406:0.066667 407:0 408:0 409:0 410:0 411:0.066667 412:0 413:0.2 414:0.4 415:0.133333 416:0 417:0 418:0 419:0 420:0 421:0 422:0 423:0 424:0 425:0 426:0 427:0 428:0 429:0 430:0 431:0 432:0 433:0 434:0 435:0 436:0 437:0.133333 438:0 439:0 440:0 441:0 442:0 443:0 444:0.066667 445:0 446:0 447:0 448:0 449:0.066667 450:0 451:0 452:0 453:0 454:0 455:0 456:0 457:0 458:0 459:0 460:0 461:0.066667 462:0 463:0 464:0 465:0.066667 466:0 467:0 468:0 469:0 470:0 471:0 472:0.066667 473:0.466667 474:0.133333 475:0 476:0 477:0 478:0.133333 479:0 480:0 481:0 482:0 483:0 484:0 485:0 486:0 487:0 488:0 489:0 490:0 491:0 492:0 493:0 494:0 495:0 496:0.066667 497:0 498:0 499:0 500:0 501:0 502:0 503:0.066667 504:0 505:0 506:0 507:0 508:0.066667 509:0 510:0 511:0 512:0 513:0 514:0 515:0 516:0 517:0 518:0 519:0 520:0 521:0 522:0 523:0 524:0 525:0 526:0 527:0 528:0 529:0 530:0 531:0.066667 532:0.419355 533:0.129032 534:0 535:0 536:0 537:0 538:0.032258 539:0 540:0.032258 541:0 542:0 543:0 544:0.032258 545:0 546:0 547:0 548:0 549:0.032258 550:0 551:0 552:0 553:0 554:0.032258 555:0.032258 556:0 557:0 558:0 559:0 560:0 561:0 562:0.032258 563:0 564:0 565:0 566:0 567:0 568:0.032258 569:0 570:0 571:0 572:0 573:0 574:0 575:0 576:0 577:0 578:0 579:0.032258 580:0.032258 581:0 582:0 583:0.064516 584:0 585:0 586:0 587:0 588:0 589:0 590:0.064516 
4.047015778850887 1:0.653846 2:0.192308 3:0.038462 4:0 5:0 6:0 7:0 8:0 9:0 10:0 11:0 12:0 13:0 14:0 15:0 16:0 17:0 18:0 19:0 20:0 21:0 22:0 23:0 24:0 25:0.038462 26:0 27:0 28:0 29:0 30:0 31:0 32:0 33:0 34:0 35:0 36:0 37:0.038462 38:0.038462 39:0 40:0 41:0 42:0 43:0 44:0 45:0 46:0 47:0 48:0 49:0 50:0 51:0 52:0 53:0 54:0 55:0 56:0 57:0 58:0 59:0 60:0.576923 61:0.192308 62:0 63:0 64:0 65:0 66:0 67:0.038462 68:0 69:0 70:0 71:0.038462 72:0.038462 73:0 74:0 75:0 76:0.038462 77:0 78:0 79:0 80:0 81:0 82:0 83:0 84:0 85:0 86:0 87:0 88:0 89:0.038462 90:0.038462 91:0 92:0 93:0 94:0 95:0 96:0 97:0 98:0 99:0 100:0 101:0 102:0 103:0 104:0 105:0 106:0 107:0 108:0 109:0 110:0 111:0 112:0 113:0 114:0 115:0 116:0 117:0 118:0 119:0.346154 120:0.192308 121:0.115385 122:0.038462 123:0 124:0 125:0 126:0.038462 127:0.038462 128:0 129:0 130:0.038462 131:0.038462 132:0 133:0 134:0 135:0.038462 136:0 137:0 138:0 139:0 140:0 141:0 142:0 143:0 144:0 145:0 146:0 147:0 148:0.038462 149:0.076923 150:0 151:0 152:0 153:0 154:0 155:0 156:0 157:0 158:0 159:0 160:0 161:0 162:0 163:0 164:0 165:0 166:0 167:0 168:0 169:0 170:0 171:0 172:0 173:0 174:0 175:0 176:0 177:0 178:0.384615 179:0.115385 180:0.038462 181:0 182:0.038462 183:0.038462 184:0 185:0 186:0 187:0 188:0 189:0.153846 190:0 191:0 192:0 193:0 194:0 195:0 196:0 197:0 198:0 199:0 200:0 201:0 202:0 203:0 204:0 205:0 206:0 207:0 208:0 209:0 210:0 211:0 212:0 213:0 214:0 215:0 216:0 217:0 218:0 219:0 220:0 221:0 222:0 223:0 224:0 225:0 226:0.115385 227:0 228:0 229:0 230:0.038462 231:0 232:0 233:0 234:0 235:0.038462 236:0.038462 237:0.461538 238:0.076923 239:0.038462 240:0 241:0.076923 242:0.038462 243:0.115385 244:0 245:0 246:0 247:0 248:0.038462 249:0 250:0 251:0 252:0 253:0 254:0 255:0 256:0 257:0 258:0 259:0 260:0 261:0 262:0 263:0 264:0 265:0 266:0 267:0 268:0 269:0 270:0 271:0 272:0 273:0 274:0 275:0.038462 276:0 277:0 278:0 279:0 280:0 281:0 282:0 283:0 284:0 285:0 286:0 287:0 288:0 289:0 290:0 291:0 292:0 293:0 294:0.038462 295:0.076923 296:0.576923 297:0 298:0.038462 299:0.038462 300:0.038462 301:0 302:0.115385 303:0 304:0 305:0 306:0 307:0 308:0 309:0 310:0 311:0 312:0 313:0 314:0 315:0 316:0 317:0 318:0 319:0 320:0.076923 321:0 322:0 323:0 324:0 325:0 326:0 327:0 328:0 329:0 330:0 331:0 332:0 333:0.038462 334:0.038462 335:0 336:0 337:0 338:0 339:0 340:0 341:0 342:0 343:0 344:0 345:0 346:0 347:0 348:0 349:0 350:0 351:0 352:0 353:0 354:0.038462 355:0.538462 356:0.038462 357:0.038462 358:0 359:0 360:0.038462 361:0 362:0 363:0 364:0 365:0 366:0 367:0 368:0 369:0 370:0 371:0 372:0 373:0 374:0 375:0 376:0 377:0 378:0.115385 379:0 380:0 381:0 382:0 383:0 384:0 385:0.038462 386:0 387:0 388:0 389:0 390:0 391:0 392:0 393:0.038462 394:0 395:0 396:0 397:0 398:0.076923 399:0 400:0 401:0 402:0 403:0 404:0 405:0 406:0 407:0 408:0 409:0 410:0.076923 411:0 412:0 413:0 414:0.615385 415:0.115385 416:0 417:0 418:0 419:0.038462 420:0 421:0 422:0 423:0 424:0 425:0 426:0.038462 427:0 428:0 429:0 430:0 431:0 432:0 433:0 434:0 435:0 436:0 437:0.076923 438:0 439:0 440:0 441:0 442:0 443:0 444:0.038462 445:0 446:0 447:0 448:0 449:0 450:0 451:0 452:0 453:0 454:0 455:0 456:0 457:0 458:0 459:0 460:0 461:0 462:0 463:0 464:0 465:0 466:0 467:0 468:0 469:0.038462 470:0 471:0 472:0.038462 473:0.653846 474:0.230769 475:0 476:0.038462 477:0 478:0 479:0 480:0 481:0 482:0 483:0 484:0 485:0.038462 486:0 487:0 488:0 489:0 490:0 491:0 492:0 493:0 494:0 495:0 496:0 497:0 498:0 499:0 500:0 501:0 502:0 503:0 504:0 505:0 506:0 507:0 508:0 509:0 510:0 511:0 512:0 513:0 514:0 515:0 516:0 517:0 518:0 519:0 520:0 521:0 522:0 523:0 524:0 525:0 526:0 527:0 528:0 529:0 530:0 531:0.038462 532:0.5 533:0.192308 534:0.076923 535:0.019231 536:0 537:0 538:0 539:0.019231 540:0.019231 541:0 542:0 543:0.019231 544:0.019231 545:0 546:0 547:0 548:0.019231 549:0 550:0 551:0 552:0 553:0 554:0 555:0 556:0.019231 557:0 558:0 559:0 560:0 561:0.019231 562:0.038462 563:0 564:0 565:0 566:0 567:0 568:0.019231 569:0.019231 570:0 571:0 572:0 573:0 574:0 575:0 576:0 577:0 578:0 579:0 580:0 581:0 582:0 583:0 584:0 585:0 586:0 587:0 588:0 589:0 590:0 
2.822374607989757 1:0.684211 2:0.157895 3:0 4:0 5:0 6:0 7:0 8:0 9:0 10:0 11:0.052632 12:0 13:0 14:0 15:0 16:0 17:0 18:0 19:0 20:0 21:0 22:0 23:0 24:0 25:0 26:0 27:0 28:0.052632 29:0 30:0 31:0 32:0 33:0 34:0 35:0 36:0 37:0 38:0 39:0 40:0 41:0 42:0 43:0 44:0 45:0 46:0 47:0 48:0 49:0 50:0 51:0 52:0 53:0 54:0 55:0 56:0 57:0 58:0 59:0.052632 60:0.736842 61:0.105263 62:0 63:0 64:0 65:0 66:0 67:0 68:0 69:0 70:0.052632 71:0 72:0 73:0 74:0 75:0 76:0 77:0 78:0 79:0 80:0 81:0 82:0.052632 83:0.052632 84:0 85:0 86:0 87:0 88:0 89:0 90:0 91:0 92:0 93:0 94:0 95:0 96:0 97:0 98:0 99:0 100:0 101:0 102:0 103:0 104:0 105:0 106:0 107:0 108:0 109:0 110:0 111:0 112:0 113:0 114:0 115:0 116:0 117:0 118:0 119:0.578947 120:0.105263 121:0 122:0 123:0 124:0 125:0.052632 126:0 127:0 128:0 129:0 130:0 131:0 132:0 133:0 134:0 135:0 136:0 137:0 138:0 139:0 140:0 141:0.052632 142:0.105263 143:0 144:0 145:0 146:0 147:0 148:0 149:0 150:0 151:0 152:0 153:0 154:0 155:0 156:0 157:0 158:0 159:0 160:0 161:0 162:0 163:0 164:0 165:0 166:0 167:0 168:0 169:0 170:0 171:0 172:0 173:0.052632 174:0 175:0 176:0 177:0.052632 178:0.473684 179:0.105263 180:0 181:0.052632 182:0 183:0 184:0 185:0 186:0 187:0 188:0 189:0 190:0 191:0 192:0 193:0 194:0 195:0 196:0 197:0 198:0 199:0 200:0 201:0 202:0.052632 203:0 204:0 205:0 206:0 207:0 208:0.052632 209:0 210:0 211:0 212:0 213:0 214:0.052632 215:0 216:0 217:0 218:0 219:0 220:0.052632 221:0 222:0 223:0 224:0 225:0.052632 226:0 227:0 228:0 229:0 230:0 231:0 232:0 233:0 234:0 235:0 236:0.105263 237:0.421053 238:0.052632 239:0 240:0.105263 241:0 242:0 243:0 244:0 245:0 246:0 247:0 248:0.105263 249:0 250:0 251:0 252:0 253:0.052632 254:0 255:0 256:0 257:0 258:0 259:0 260:0 261:0 262:0 263:0 264:0 265:0 266:0 267:0.052632 268:0 269:0 270:0 271:0 272:0 273:0.052632 274:0 275:0 276:0 277:0 278:0 279:0.052632 280:0 281:0 282:0 283:0 284:0.052632 285:0 286:0 287:0 288:0 289:0 290:0 291:0 292:0 293:0 294:0 295:0.052632 296:0.473684 297:0.157895 298:0 299:0.052632 300:0 301:0 302:0 303:0 304:0.052632 305:0 306:0 307:0.105263 308:0.052632 309:0 310:0 311:0 312:0.052632 313:0 314:0 315:0 316:0 317:0 318:0 319:0 320:0 321:0 322:0 323:0 324:0 325:0 326:0 327:0 328:0 329:0 330:0 331:0 332:0 333:0 334:0 335:0 336:0 337:0 338:0 339:0 340:0 341:0 342:0 343:0 344:0 345:0 346:0 347:0 348:0 349:0 350:0 351:0 352:0 353:0.052632 354:0 355:0.368421 356:0.157895 357:0 358:0 359:0.052632 360:0 361:0 362:0.052632 363:0 364:0 365:0 366:0.105263 367:0 368:0 369:0 370:0 371:0 372:0 373:0 374:0 375:0 376:0 377:0 378:0.052632 379:0 380:0 381:0 382:0 383:0 384:0 385:0 386:0 387:0 388:0.052632 389:0 390:0 391:0 392:0 393:0 394:0 395:0.052632 396:0 397:0 398:0 399:0 400:0 401:0 402:0 403:0 404:0 405:0 406:0.052632 407:0 408:0 409:0 410:0 411:0.052632 412:0 413:0 414:0.368421 415:0 416:0 417:0 418:0.052632 419:0 420:0 421:0 422:0 423:0 424:0 425:0 426:0 427:0 428:0 429:0 430:0 431:0 432:0 433:0 434:0 435:0 436:0 437:0.052632 438:0 439:0 440:0 441:0 442:0 443:0 444:0.105263 445:0 446:0 447:0.052632 448:0 449:0 450:0 451:0 452:0 453:0 454:0.052632 455:0 456:0 457:0 458:0 459:0 460:0.052632 461:0 462:0 463:0 464:0 465:0.210526 466:0 467:0 468:0 469:0 470:0.052632 471:0 472:0 473:0.578947 474:0.052632 475:0 476:0 477:0 478:0 479:0 480:0 481:0 482:0 483:0 484:0 485:0 486:0 487:0 488:0 489:0 490:0 491:0 492:0 493:0 494:0 495:0 496:0.052632 497:0 498:0 499:0 500:0 501:0 502:0 503:0.105263 504:0 505:0 506:0 507:0 508:0 509:0 510:0 511:0 512:0 513:0 514:0 515:0 516:0 517:0 518:0 519:0.052632 520:0 521:0 522:0 523:0 524:0.157895 525:0 526:0 527:0 528:0 529:0 530:0 531:0 532:0.631579 533:0.131579 534:0 535:0 536:0 537:0 538:0.026316 539:0 540:0 541:0 542:0.026316 543:0 544:0 545:0 546:0 547:0 548:0 549:0 550:0 551:0 552:0 553:0 554:0.026316 555:0.052632 556:0 557:0 558:0 559:0.026316 560:0 561:0 562:0 563:0 564:0 565:0 566:0 567:0 568:0 569:0 570:0 571:0 572:0 573:0 574:0 575:0 576:0 577:0 578:0 579:0 580:0 581:0 582:0 583:0 584:0 585:0 586:0.026316 587:0 588:0 589:0 590:0.052632 
3.034117641658777 1:0.421053 2:0.263158 3:0 4:0 5:0 6:0.052632 7:0 8:0 9:0 10:0 11:0 12:0 13:0 14:0 15:0 16:0 17:0 18:0 19:0 20:0 21:0 22:0 23:0 24:0 25:0.052632 26:0 27:0 28:0 29:0 30:0 31:0.105263 32:0 33:0 34:0 35:0 36:0 37:0 38:0 39:0 40:0 41:0 42:0 43:0 44:0 45:0 46:0 47:0 48:0 49:0 50:0 51:0 52:0 53:0 54:0 55:0 56:0 57:0 58:0.052632 59:0.052632 60:0.315789 61:0.315789 62:0 63:0 64:0 65:0.052632 66:0 67:0 68:0.052632 69:0 70:0 71:0 72:0 73:0 74:0 75:0 76:0 77:0 78:0 79:0 80:0 81:0 82:0 83:0 84:0.052632 85:0 86:0 87:0 88:0 89:0 90:0.052632 91:0 92:0 93:0 94:0 95:0 96:0 97:0.052632 98:0 99:0 100:0 101:0 102:0 103:0.052632 104:0 105:0 106:0 107:0 108:0 109:0 110:0 111:0 112:0 113:0 114:0 115:0 116:0 117:0 118:0.052632 119:0.368421 120:0.157895 121:0 122:0 123:0 124:0 125:0 126:0 127:0.052632 128:0 129:0 130:0 131:0 132:0 133:0 134:0 135:0 136:0.105263 137:0 138:0 139:0 140:0 141:0 142:0.052632 143:0.105263 144:0 145:0 146:0 147:0 148:0 149:0.052632 150:0 151:0 152:0 153:0 154:0 155:0 156:0.052632 157:0 158:0 159:0 160:0 161:0 162:0.052632 163:0 164:0 165:0 166:0 167:0 168:0 169:0 170:0 171:0 172:0 173:0 174:0 175:0 176:0 177:0 178:0.263158 179:0.157895 180:0.105263 181:0 182:0.052632 183:0 184:0 185:0.052632 186:0 187:0 188:0 189:0.105263 190:0 191:0 192:0 193:0 194:0 195:0.052632 196:0 197:0 198:0 199:0 200:0 201:0.052632 202:0.052632 203:0 204:0 205:0 206:0 207:0 208:0.052632 209:0 210:0 211:0 212:0 213:0 214:0 215:0 216:0.052632 217:0 218:0 219:0 220:0 221:0 222:0 223:0 224:0 225:0 226:0 227:0 228:0 229:0 230:0 231:0 232:0 233:0 234:0 235:0 236:0 237:0.631579 238:0.105263 239:0.052632 240:0 241:0 242:0 243:0 244:0.052632 245:0 246:0 247:0 248:0.105263 249:0 250:0 251:0 252:0 253:0 254:0 255:0 256:0 257:0 258:0 259:0 260:0 261:0 262:0 263:0 264:0 265:0 266:0 267:0 268:0 269:0 270:0 271:0 272:0 273:0 274:0 275:0 276:0 277:0.052632 278:0 279:0 280:0 281:0 282:0 283:0 284:0 285:0 286:0 287:0 288:0 289:0 290:0 291:0 292:0 293:0 294:0 295:0 296:0.631579 297:0.105263 298:0 299:0 300:0 301:0 302:0 303:0 304:0 305:0 306:0 307:0 308:0.052632 309:0 310:0 311:0 312:0 313:0.052632 314:0 315:0 316:0 317:0 318:0 319:0.052632 320:0 321:0 322:0 323:0 324:0 325:0 326:0 327:0 328:0 329:0 330:0 331:0 332:0 333:0 334:0 335:0 336:0.052632 337:0 338:0 339:0 340:0 341:0 342:0 343:0 344:0 345:0 346:0 347:0 348:0 349:0 350:0 351:0.052632 352:0 353:0 354:0 355:0.105263 356:0.105263 357:0 358:0 359:0.105263 360:0.052632 361:0.105263 362:0.052632 363:0 364:0 365:0 366:0 367:0 368:0 369:0 370:0 371:0 372:0.052632 373:0 374:0 375:0 376:0 377:0 378:0 379:0 380:0 381:0 382:0 383:0 384:0 385:0 386:0 387:0 388:0 389:0 390:0 391:0 392:0 393:0 394:0 395:0 396:0 397:0 398:0.052632 399:0 400:0 401:0.052632 402:0.105263 403:0 404:0.052632 405:0 406:0.105263 407:0 408:0 409:0 410:0 411:0 412:0 413:0.052632 414:0.210526 415:0 416:0 417:0 418:0 419:0 420:0 421:0 422:0 423:0 424:0 425:0 426:0 427:0 428:0 429:0 430:0 431:0 432:0 433:0 434:0 435:0 436:0 437:0 438:0.052632 439:0 440:0 441:0 442:0 443:0 444:0 445:0 446:0.052632 447:0 448:0 449:0 450:0 451:0 452:0 453:0 454:0 455:0 456:0 457:0.157895 458:0 459:0 460:0.052632 461:0.105263 462:0.210526 463:0.052632 464:0 465:0.105263 466:0 467:0 468:0 469:0 470:0 471:0 472:0 473:0.526316 474:0 475:0 476:0 477:0 478:0.052632 479:0.052632 480:0 481:0 482:0 483:0 484:0 485:0 486:0 487:0 488:0 489:0 490:0 491:0 492:0 493:0 494:0 495:0 496:0 497:0.052632 498:0 499:0 500:0 501:0 502:0 503:0 504:0 505:0.052632 506:0 507:0 508:0 509:0 510:0 511:0 512:0 513:0 514:0 515:0 516:0.105263 517:0 518:0 519:0 520:0 521:0.157895 522:0 523:0 524:0 525:0 526:0 527:0 528:0 529:0 530:0 531:0 532:0.384615 533:0.230769 534:0 535:0 536:0 537:0.025641 538:0 539:0 540:0.025641 541:0 542:0 543:0 544:0 545:0 546:0 547:0 548:0 549:0.051282 550:0 551:0 552:0 553:0 554:0 555:0.025641 556:0.076923 557:0 558:0 559:0 560:0 561:0 562:0.076923 563:0 564:0 565:0 566:0 567:0 568:0 569:0.025641 570:0 571:0 572:0 573:0 574:0 575:0.025641 576:0 577:0 578:0 579:0 580:0 581:0 582:0 583:0 584:0 585:0 586:0 587:0 588:0 589:0.025641 590:0.025641 
2.668476881879774 1:0.461538 2:0.230769 3:0 4:0 5:0.038462 6:0 7:0.038462 8:0 9:0.038462 10:0 11:0 12:0 13:0 14:0 15:0 16:0 17:0 18:0 19:0 20:0 21:0 22:0 23:0 24:0 25:0 26:0.038462 27:0 28:0 29:0 30:0 31:0 32:0 33:0.038462 34:0 35:0 36:0 37:0 38:0 39:0 40:0 41:0 42:0 43:0 44:0 45:0 46:0 47:0 48:0 49:0.076923 50:0 51:0 52:0 53:0 54:0.038462 55:0 56:0 57:0 58:0 59:0 60:0.346154 61:0.269231 62:0.076923 63:0 64:0.076923 65:0 66:0.038462 67:0.076923 68:0.038462 69:0 70:0 71:0.038462 72:0 73:0 74:0 75:0 76:0.038462 77:0 78:0 79:0 80:0 81:0 82:0 83:0 84:0 85:0 86:0 87:0 88:0 89:0 90:0 91:0 92:0 93:0 94:0 95:0 96:0 97:0 98:0 99:0 100:0 101:0 102:0 103:0 104:0 105:0 106:0 107:0 108:0 109:0 110:0 111:0 112:0 113:0 114:0 115:0 116:0 117:0 118:0 119:0.346154 120:0.153846 121:0.115385 122:0 123:0.115385 124:0 125:0 126:0.076923 127:0 128:0 129:0 130:0.038462 131:0 132:0 133:0 134:0 135:0.038462 136:0 137:0 138:0 139:0 140:0 141:0 142:0 143:0 144:0 145:0 146:0 147:0 148:0 149:0 150:0 151:0 152:0 153:0 154:0 155:0.038462 156:0 157:0 158:0 159:0 160:0 161:0 162:0 163:0 164:0 165:0 166:0 167:0 168:0 169:0 170:0 171:0 172:0.038462 173:0 174:0 175:0 176:0 177:0.038462 178:0.653846 179:0.115385 180:0 181:0 182:0.038462 183:0.038462 184:0.038462 185:0 186:0 187:0 188:0 189:0 190:0 191:0 192:0 193:0 194:0 195:0.038462 196:0 197:0 198:0 199:0 200:0 201:0.038462 202:0 203:0 204:0 205:0 206:0 207:0 208:0 209:0 210:0 211:0 212:0 213:0 214:0 215:0 216:0 217:0 218:0 219:0 220:0 221:0 222:0 223:0 224:0 225:0 226:0 227:0 228:0 229:0 230:0 231:0 232:0 233:0 234:0 235:0 236:0.038462 237:0.5 238:0.269231 239:0 240:0 241:0 242:0.038462 243:0 244:0 245:0 246:0 247:0 248:0 249:0 250:0 251:0 252:0 253:0 254:0.038462 255:0 256:0 257:0 258:0 259:0 260:0.038462 261:0 262:0 263:0 264:0 265:0 266:0 267:0.038462 268:0 269:0 270:0 271:0 272:0 273:0 274:0.038462 275:0 276:0 277:0 278:0 279:0 280:0.038462 281:0 282:0 283:0 284:0 285:0 286:0 287:0 288:0 289:0 290:0 291:0 292:0 293:0 294:0 295:0 296:0.423077 297:0.423077 298:0 299:0 300:0 301:0 302:0 303:0 304:0 305:0 306:0 307:0 308:0 309:0 310:0 311:0 312:0 313:0 314:0 315:0 316:0 317:0 318:0 319:0 320:0.038462 321:0 322:0 323:0 324:0 325:0 326:0.038462 327:0 328:0 329:0 330:0 331:0 332:0 333:0.038462 334:0 335:0 336:0 337:0 338:0 339:0.038462 340:0 341:0 342:0 343:0 344:0 345:0 346:0 347:0 348:0 349:0 350:0 351:0 352:0 353:0 354:0 355:0.615385 356:0.153846 357:0 358:0.038462 359:0 360:0 361:0 362:0 363:0 364:0 365:0 366:0 367:0 368:0 369:0.038462 370:0 371:0 372:0 373:0 374:0 375:0 376:0 377:0 378:0.038462 379:0 380:0 381:0 382:0 383:0 384:0 385:0 386:0 387:0 388:0 389:0 390:0 391:0.038462 392:0 393:0 394:0 395:0 396:0 397:0 398:0 399:0 400:0 401:0 402:0 403:0 404:0 405:0 406:0 407:0 408:0 409:0 410:0.038462 411:0.038462 412:0 413:0 414:0.615385 415:0.038462 416:0 417:0.038462 418:0 419:0 420:0 421:0 422:0 423:0 424:0 425:0 426:0 427:0 428:0.038462 429:0 430:0 431:0 432:0 433:0 434:0 435:0 436:0 437:0.038462 438:0 439:0 440:0 441:0 442:0 443:0 444:0.153846 445:0 446:0 447:0 448:0 449:0 450:0 451:0.038462 452:0 453:0 454:0 455:0 456:0 457:0 458:0 459:0 460:0 461:0 462:0 463:0 464:0 465:0 466:0 467:0 468:0 469:0 470:0.038462 471:0 472:0 473:0.5 474:0.038462 475:0 476:0 477:0 478:0.038462 479:0 480:0 481:0 482:0 483:0 484:0 485:0 486:0 487:0 488:0 489:0 490:0 491:0 492:0 493:0 494:0 495:0 496:0.038462 497:0 498:0 499:0 500:0.038462 501:0 502:0 503:0.192308 504:0 505:0 506:0 507:0 508:0 509:0.038462 510:0.038462 511:0 512:0 513:0 514:0 515:0 516:0 517:0 518:0 519:0 520:0.038462 521:0 522:0 523:0 524:0 525:0 526:0 527:0 528:0 529:0 530:0 531:0.038462 532:0.403846 533:0.192308 534:0.057692 535:0 536:0.076923 537:0 538:0.019231 539:0.038462 540:0.019231 541:0 542:0 543:0.019231 544:0 545:0 546:0 547:0 548:0.019231 549:0 550:0 551:0 552:0 553:0 554:0 555:0 556:0 557:0.019231 558:0 559:0 560:0 561:0 562:0 563:0 564:0.019231 565:0 566:0 567:0 568:0.019231 569:0 570:0 571:0 572:0 573:0 574:0 575:0 576:0 577:0 578:0 579:0 580:0.038462 581:0 582:0 583:0 584:0 585:0.038462 586:0 587:0 588:0 589:0 590:0.019231 
2.263482418972029 1:0.473684 2:0.105263 3:0 4:0 5:0 6:0 7:0 8:0 9:0 10:0 11:0 12:0 13:0 14:0 15:0 16:0 17:0 18:0 19:0 20:0 21:0 22:0 23:0 24:0.157895 25:0 26:0 27:0 28:0 29:0 30:0 31:0.052632 32:0 33:0 34:0 35:0 36:0 37:0 38:0.052632 39:0 40:0 41:0 42:0 43:0 44:0.052632 45:0.052632 46:0 47:0 48:0 49:0 50:0 51:0 52:0 53:0 54:0 55:0 56:0 57:0.052632 58:0 59:0 60:0.526316 61:0.105263 62:0 63:0 64:0 65:0 66:0 67:0 68:0 69:0 70:0 71:0 72:0.052632 73:0 74:0 75:0 76:0 77:0 78:0 79:0 80:0 81:0 82:0 83:0.105263 84:0 85:0 86:0 87:0 88:0 89:0 90:0.052632 91:0 92:0 93:0 94:0 95:0 96:0 97:0.052632 98:0 99:0 100:0 101:0 102:0 103:0 104:0 105:0 106:0 107:0 108:0 109:0 110:0 111:0 112:0 113:0.052632 114:0 115:0 116:0.052632 117:0 118:0 119:0.368421 120:0.263158 121:0 122:0 123:0 124:0 125:0 126:0 127:0.052632 128:0 129:0 130:0 131:0.052632 132:0 133:0 134:0 135:0 136:0 137:0 138:0 139:0 140:0 141:0.052632 142:0.105263 143:0 144:0 145:0 146:0 147:0 148:0 149:0.052632 150:0 151:0 152:0 153:0 154:0 155:0 156:0 157:0 158:0 159:0 160:0 161:0 162:0 163:0 164:0 165:0 166:0 167:0 168:0 169:0 170:0 171:0 172:0.052632 173:0 174:0 175:0 176:0 177:0 178:0.421053 179:0.157895 180:0 181:0 182:0 183:0 184:0 185:0 186:0.105263 187:0 188:0 189:0 190:0 191:0 192:0 193:0 194:0 195:0 196:0 197:0 198:0 199:0 200:0 201:0 202:0 203:0 204:0 205:0 206:0 207:0 208:0 209:0 210:0 211:0 212:0 213:0 214:0 215:0 216:0 217:0 218:0 219:0.105263 220:0 221:0 222:0 223:0 224:0 225:0 226:0 227:0 228:0 229:0 230:0 231:0 232:0 233:0 234:0 235:0 236:0.210526 237:0.578947 238:0.157895 239:0 240:0 241:0 242:0 243:0 244:0.105263 245:0 246:0 247:0 248:0.052632 249:0 250:0 251:0 252:0 253:0 254:0 255:0 256:0 257:0 258:0 259:0 260:0 261:0 262:0 263:0 264:0 265:0 266:0 267:0 268:0 269:0 270:0 271:0 272:0 273:0 274:0 275:0 276:0 277:0 278:0 279:0 280:0 281:0 282:0 283:0 284:0 285:0 286:0 287:0 288:0 289:0 290:0 291:0 292:0 293:0 294:0 295:0.105263 296:0.421053 297:0.105263 298:0 299:0 300:0.052632 301:0 302:0 303:0.157895 304:0 305:0 306:0 307:0.105263 308:0 309:0 310:0 311:0 312:0 313:0 314:0 315:0 316:0 317:0 318:0 319:0 320:0 321:0 322:0 323:0 324:0 325:0 326:0 327:0 328:0 329:0 330:0 331:0 332:0 333:0 334:0.052632 335:0.052632 336:0 337:0 338:0 339:0 340:0 341:0 342:0 343:0 344:0 345:0 346:0 347:0 348:0 349:0 350:0 351:0 352:0 353:0 354:0.052632 355:0.631579 356:0 357:0 358:0 359:0 360:0 361:0 362:0 363:0 364:0 365:0 366:0 367:0.052632 368:0 369:0 370:0 371:0 372:0.052632 373:0 374:0 375:0 376:0 377:0 378:0 379:0.052632 380:0 381:0 382:0 383:0 384:0.052632 385:0 386:0 387:0 388:0 389:0 390:0 391:0 392:0 393:0 394:0 395:0 396:0 397:0 398:0 399:0 400:0 401:0 402:0 403:0 404:0 405:0 406:0 407:0 408:0 409:0 410:0.052632 411:0 412:0.052632 413:0.052632 414:0.421053 415:0.157895 416:0 417:0 418:0 419:0 420:0 421:0 422:0.157895 423:0 424:0 425:0 426:0.157895 427:0 428:0 429:0 430:0 431:0 432:0 433:0 434:0 435:0 436:0 437:0 438:0 439:0 440:0 441:0 442:0 443:0.052632 444:0 445:0 446:0 447:0 448:0 449:0 450:0 451:0 452:0 453:0 454:0 455:0 456:0 457:0 458:0 459:0 460:0 461:0 462:0 463:0 464:0 465:0 466:0 467:0 468:0 469:0 470:0 471:0.052632 472:0 473:0.210526 474:0.210526 475:0 476:0.105263 477:0 478:0.052632 479:0.052632 480:0.052632 481:0.157895 482:0 483:0 484:0 485:0.105263 486:0 487:0 488:0 489:0 490:0 491:0 492:0 493:0 494:0 495:0 496:0 497:0 498:0 499:0 500:0 501:0 502:0 503:0 504:0 505:0 506:0 507:0 508:0.052632 509:0 510:0 511:0 512:0 513:0 514:0 515:0 516:0 517:0 518:0 519:0 520:0 521:0 522:0 523:0 524:0 525:0 526:0 527:0 528:0 529:0 530:0 531:0 532:0.421053 533:0.184211 534:0 535:0 536:0 537:0 538:0 539:0 540:0.026316 541:0 542:0 543:0 544:0.026316 545:0 546:0 547:0 548:0 549:0 550:0 551:0 552:0 553:0 554:0.026316 555:0.131579 556:0 557:0 558:0 559:0 560:0 561:0 562:0.052632 563:0 564:0 565:0 566:0 567:0 568:0 569:0.026316 570:0 571:0 572:0 573:0 574:0 575:0.026316 576:0.026316 577:0 578:0 579:0 580:0 581:0 582:0 583:0 584:0 585:0.026316 586:0 587:0 588:0.026316 589:0 590:0 
1.630375755148473 1:0.368421 2:0.421053 3:0.052632 4:0.052632 5:0 6:0 7:0 8:0.052632 9:0 10:0 11:0 12:0 13:0 14:0 15:0 16:0 17:0 18:0 19:0 20:0 21:0 22:0 23:0 24:0 25:0 26:0 27:0 28:0 29:0 30:0 31:0 32:0 33:0 34:0.052632 35:0 36:0 37:0 38:0 39:0 40:0 41:0 42:0 43:0 44:0 45:0 46:0 47:0 48:0 49:0 50:0 51:0 52:0 53:0 54:0 55:0 56:0 57:0 58:0 59:0 60:0.578947 61:0.210526 62:0 63:0 64:0 65:0 66:0 67:0.052632 68:0 69:0 70:0 71:0 72:0 73:0 74:0 75:0 76:0 77:0 78:0 79:0 80:0 81:0 82:0 83:0 84:0 85:0.052632 86:0 87:0 88:0 89:0 90:0 91:0 92:0 93:0.052632 94:0 95:0 96:0 97:0 98:0 99:0 100:0 101:0 102:0 103:0.052632 104:0 105:0 106:0 107:0 108:0 109:0 110:0 111:0 112:0 113:0 114:0 115:0 116:0 117:0 118:0 119:0.578947 120:0.210526 121:0 122:0 123:0 124:0 125:0 126:0 127:0 128:0 129:0 130:0 131:0 132:0 133:0 134:0 135:0 136:0 137:0 138:0 139:0 140:0 141:0 142:0.052632 143:0 144:0.052632 145:0 146:0 147:0 148:0 149:0.052632 150:0 151:0 152:0 153:0 154:0 155:0 156:0 157:0 158:0 159:0 160:0 161:0 162:0.052632 163:0 164:0 165:0 166:0 167:0 168:0 169:0 170:0 171:0 172:0 173:0 174:0 175:0 176:0 177:0 178:0.263158 179:0 180:0.052632 181:0 182:0 183:0 184:0.052632 185:0.105263 186:0 187:0 188:0 189:0 190:0 191:0 192:0 193:0 194:0 195:0 196:0 197:0 198:0 199:0 200:0 201:0 202:0 203:0 204:0 205:0 206:0 207:0 208:0 209:0 210:0 211:0 212:0 213:0 214:0 215:0.052632 216:0 217:0 218:0 219:0 220:0 221:0 222:0 223:0 224:0.157895 225:0.157895 226:0 227:0 228:0 229:0.052632 230:0 231:0 232:0 233:0 234:0 235:0 236:0.105263 237:0.105263 238:0.052632 239:0 240:0 241:0 242:0 243:0 244:0 245:0 246:0 247:0 248:0 249:0.052632 250:0 251:0 252:0 253:0 254:0 255:0 256:0 257:0 258:0 259:0 260:0 261:0 262:0 263:0 264:0 265:0 266:0 267:0 268:0 269:0 270:0 271:0 272:0 273:0 274:0 275:0 276:0 277:0 278:0 279:0 280:0 281:0 282:0 283:0.210526 284:0.157895 285:0.157895 286:0.052632 287:0 288:0.105263 289:0 290:0 291:0 292:0 293:0 294:0 295:0.105263 296:0.263158 297:0.210526 298:0 299:0 300:0 301:0.052632 302:0 303:0 304:0.105263 305:0 306:0 307:0 308:0.052632 309:0 310:0 311:0 312:0 313:0 314:0 315:0 316:0 317:0 318:0 319:0 320:0 321:0 322:0 323:0 324:0 325:0 326:0 327:0 328:0 329:0 330:0 331:0 332:0 333:0 334:0 335:0 336:0 337:0 338:0 339:0 340:0 341:0 342:0.052632 343:0 344:0.157895 345:0.052632 346:0 347:0.052632 348:0 349:0 350:0 351:0 352:0 353:0 354:0 355:0.315789 356:0.315789 357:0.105263 358:0.052632 359:0 360:0.105263 361:0 362:0 363:0 364:0 365:0 366:0 367:0 368:0 369:0 370:0 371:0 372:0 373:0 374:0 375:0 376:0 377:0 378:0 379:0.052632 380:0 381:0 382:0 383:0 384:0.052632 385:0 386:0 387:0 388:0 389:0 390:0 391:0 392:0 393:0 394:0 395:0 396:0 397:0 398:0 399:0 400:0 401:0 402:0 403:0 404:0 405:0 406:0 407:0 408:0 409:0 410:0 411:0 412:0 413:0 414:0.263158 415:0.526316 416:0.105263 417:0 418:0 419:0.052632 420:0 421:0 422:0 423:0 424:0 425:0 426:0 427:0 428:0 429:0 430:0 431:0 432:0 433:0 434:0 435:0 436:0 437:0 438:0 439:0 440:0 441:0 442:0 443:0 444:0.052632 445:0 446:0 447:0 448:0 449:0 450:0 451:0 452:0 453:0 454:0 455:0 456:0 457:0 458:0 459:0 460:0 461:0 462:0 463:0 464:0 465:0 466:0 467:0 468:0 469:0 470:0 471:0 472:0 473:0.157895 474:0.631579 475:0 476:0 477:0 478:0 479:0 480:0 481:0 482:0 483:0 484:0 485:0 486:0 487:0 488:0 489:0 490:0.052632 491:0 492:0 493:0 494:0 495:0 496:0 497:0 498:0 499:0 500:0 501:0 502:0 503:0.157895 504:0 505:0 506:0 507:0 508:0 509:0 510:0 511:0 512:0 513:0 514:0 515:0 516:0 517:0 518:0 519:0 520:0 521:0 522:0 523:0 524:0 525:0 526:0 527:0 528:0 529:0 530:0 531:0 532:0.473684 533:0.315789 534:0.026316 535:0.026316 536:0 537:0 538:0 539:0.026316 540:0 541:0 542:0 543:0 544:0 545:0 546:0 547:0 548:0 549:0 550:0 551:0 552:0 553:0 554:0 555:0.026316 556:0 557:0.026316 558:0 559:0 560:0 561:0 562:0.026316 563:0 564:0 565:0.026316 566:0 567:0 568:0 569:0 570:0 571:0 572:0 573:0 574:0 575:0.026316 576:0 577:0 578:0 579:0 580:0 581:0 582:0 583:0 584:0 585:0 586:0 587:0 588:0 589:0 590:0 
0.3103749619137688 1:0.423077 2:0.115385 3:0.038462 4:0 5:0.038462 6:0 7:0.038462 8:0 9:0.038462 10:0 11:0 12:0 13:0 14:0 15:0 16:0 17:0 18:0.038462 19:0 20:0 21:0 22:0 23:0 24:0 25:0 26:0 27:0 28:0 29:0 30:0.038462 31:0 32:0.038462 33:0 34:0.038462 35:0 36:0 37:0 38:0.038462 39:0 40:0 41:0 42:0 43:0 44:0 45:0 46:0 47:0 48:0 49:0 50:0 51:0 52:0 53:0 54:0 55:0 56:0.038462 57:0 58:0.038462 59:0.038462 60:0.384615 61:0.230769 62:0 63:0 64:0.038462 65:0 66:0 67:0 68:0.038462 69:0 70:0 71:0 72:0.115385 73:0 74:0 75:0 76:0 77:0.038462 78:0 79:0 80:0 81:0 82:0 83:0 84:0 85:0 86:0 87:0 88:0 89:0.038462 90:0 91:0.038462 92:0 93:0 94:0 95:0 96:0 97:0 98:0 99:0 100:0 101:0 102:0 103:0 104:0 105:0 106:0 107:0 108:0 109:0 110:0 111:0 112:0 113:0 114:0 115:0.038462 116:0 117:0.038462 118:0 119:0.307692 120:0.346154 121:0.038462 122:0 123:0 124:0 125:0 126:0 127:0 128:0 129:0 130:0 131:0.192308 132:0 133:0 134:0 135:0 136:0 137:0 138:0 139:0 140:0 141:0 142:0 143:0.038462 144:0 145:0 146:0 147:0 148:0 149:0.038462 150:0 151:0 152:0 153:0 154:0 155:0 156:0.038462 157:0 158:0 159:0 160:0 161:0 162:0 163:0 164:0 165:0 166:0 167:0 168:0 169:0 170:0 171:0 172:0 173:0 174:0 175:0 176:0 177:0 178:0.538462 179:0.192308 180:0 181:0 182:0.038462 183:0 184:0 185:0.076923 186:0 187:0 188:0 189:0.038462 190:0 191:0 192:0 193:0 194:0 195:0 196:0 197:0 198:0 199:0 200:0.076923 201:0 202:0 203:0 204:0 205:0 206:0 207:0 208:0.038462 209:0 210:0 211:0 212:0 213:0 214:0 215:0 216:0 217:0 218:0 219:0 220:0 221:0 222:0 223:0 224:0 225:0 226:0 227:0 228:0 229:0 230:0 231:0 232:0 233:0 234:0 235:0 236:0 237:0.423077 238:0.038462 239:0 240:0 241:0.038462 242:0 243:0 244:0.230769 245:0 246:0 247:0 248:0.230769 249:0 250:0 251:0 252:0 253:0 254:0 255:0 256:0 257:0 258:0 259:0.038462 260:0 261:0 262:0 263:0 264:0 265:0 266:0 267:0 268:0 269:0 270:0 271:0 272:0 273:0 274:0 275:0 276:0 277:0 278:0 279:0 280:0 281:0 282:0 283:0 284:0 285:0 286:0 287:0 288:0 289:0 290:0 291:0 292:0 293:0 294:0 295:0 296:0.307692 297:0.038462 298:0 299:0 300:0.038462 301:0 302:0 303:0.230769 304:0 305:0 306:0 307:0.230769 308:0 309:0 310:0 311:0 312:0 313:0 314:0 315:0 316:0 317:0 318:0 319:0.038462 320:0 321:0 322:0 323:0 324:0 325:0 326:0.038462 327:0 328:0 329:0 330:0 331:0 332:0 333:0.038462 334:0 335:0 336:0 337:0.038462 338:0 339:0 340:0 341:0 342:0 343:0 344:0 345:0 346:0 347:0 348:0 349:0 350:0 351:0 352:0 353:0 354:0 355:0.538462 356:0.192308 357:0 358:0 359:0 360:0 361:0 362:0 363:0 364:0 365:0 366:0 367:0.076923 368:0 369:0 370:0 371:0 372:0 373:0 374:0 375:0 376:0 377:0 378:0.038462 379:0.038462 380:0 381:0 382:0 383:0 384:0 385:0.038462 386:0 387:0 388:0 389:0 390:0 391:0 392:0 393:0 394:0 395:0 396:0 397:0 398:0 399:0 400:0 401:0 402:0 403:0 404:0 405:0 406:0 407:0 408:0 409:0 410:0 411:0.076923 412:0 413:0 414:0.538462 415:0.269231 416:0 417:0 418:0 419:0.038462 420:0 421:0 422:0.038462 423:0 424:0 425:0 426:0 427:0 428:0 429:0 430:0 431:0 432:0 433:0 434:0 435:0 436:0 437:0.038462 438:0 439:0 440:0 441:0 442:0 443:0 444:0 445:0 446:0 447:0 448:0 449:0 450:0 451:0 452:0 453:0 454:0 455:0 456:0 457:0 458:0 459:0 460:0 461:0 462:0 463:0 464:0 465:0 466:0 467:0 468:0 469:0 470:0.076923 471:0 472:0 473:0.423077 474:0.269231 475:0 476:0.038462 477:0 478:0.038462 479:0.076923 480:0 481:0.038462 482:0 483:0 484:0 485:0 486:0 487:0 488:0 489:0 490:0 491:0 492:0 493:0 494:0 495:0 496:0 497:0 498:0 499:0 500:0 501:0 502:0 503:0 504:0 505:0 506:0 507:0 508:0 509:0.038462 510:0 511:0 512:0 513:0 514:0 515:0 516:0 517:0 518:0 519:0 520:0 521:0 522:0 523:0 524:0 525:0 526:0 527:0 528:0.076923 529:0 530:0 531:0 532:0.365385 533:0.230769 534:0.038462 535:0 536:0.019231 537:0 538:0.019231 539:0 540:0.019231 541:0 542:0 543:0 544:0.096154 545:0 546:0 547:0 548:0 549:0.019231 550:0 551:0 552:0 553:0 554:0 555:0 556:0.019231 557:0 558:0 559:0 560:0 561:0.019231 562:0.019231 563:0.019231 564:0 565:0.019231 566:0 567:0 568:0 569:0.038462 570:0 571:0 572:0 573:0 574:0 575:0 576:0 577:0 578:0 579:0 580:0 581:0 582:0 583:0 584:0 585:0 586:0 587:0.019231 588:0 589:0.019231 590:0.019231 
1.036828694492914 1:0.315789 2:0.210526 3:0.052632 4:0 5:0 6:0 7:0 8:0 9:0.052632 10:0 11:0 12:0 13:0.052632 14:0 15:0 16:0 17:0 18:0 19:0 20:0 21:0 22:0.052632 23:0 24:0 25:0 26:0 27:0 28:0 29:0 30:0 31:0.052632 32:0 33:0 34:0 35:0 36:0 37:0.052632 38:0 39:0 40:0 41:0 42:0 43:0 44:0.052632 45:0 46:0 47:0 48:0 49:0.105263 50:0 51:0 52:0 53:0 54:0 55:0 56:0 57:0 58:0 59:0 60:0.210526 61:0.105263 62:0.052632 63:0 64:0 65:0 66:0 67:0 68:0 69:0 70:0 71:0 72:0 73:0 74:0 75:0 76:0 77:0 78:0.052632 79:0 80:0 81:0 82:0 83:0 84:0 85:0 86:0 87:0 88:0 89:0 90:0.052632 91:0 92:0 93:0 94:0 95:0 96:0.052632 97:0.052632 98:0 99:0 100:0 101:0 102:0 103:0.105263 104:0 105:0 106:0 107:0.052632 108:0.157895 109:0 110:0 111:0 112:0 113:0 114:0 115:0 116:0 117:0.052632 118:0.052632 119:0.210526 120:0.210526 121:0 122:0 123:0 124:0.052632 125:0 126:0 127:0.052632 128:0 129:0 130:0 131:0 132:0 133:0 134:0 135:0 136:0.052632 137:0.052632 138:0 139:0 140:0 141:0 142:0 143:0 144:0 145:0 146:0 147:0 148:0 149:0 150:0 151:0 152:0 153:0 154:0 155:0 156:0.052632 157:0 158:0 159:0 160:0 161:0 162:0.052632 163:0 164:0 165:0 166:0.052632 167:0.052632 168:0 169:0 170:0 171:0 172:0.052632 173:0 174:0 175:0 176:0.052632 177:0.052632 178:0.263158 179:0.210526 180:0 181:0.052632 182:0 183:0 184:0.052632 185:0.105263 186:0 187:0.052632 188:0 189:0.157895 190:0 191:0 192:0 193:0 194:0 195:0 196:0 197:0 198:0 199:0 200:0 201:0 202:0 203:0 204:0 205:0 206:0 207:0 208:0 209:0 210:0 211:0 212:0 213:0 214:0 215:0 216:0 217:0 218:0 219:0 220:0 221:0 222:0 223:0 224:0 225:0.052632 226:0 227:0 228:0 229:0.052632 230:0 231:0 232:0 233:0 234:0 235:0 236:0 237:0.368421 238:0.157895 239:0 240:0 241:0 242:0 243:0.052632 244:0.052632 245:0 246:0 247:0 248:0 249:0 250:0 251:0 252:0 253:0 254:0 255:0.052632 256:0 257:0 258:0 259:0 260:0 261:0 262:0 263:0 264:0 265:0 266:0 267:0 268:0 269:0 270:0 271:0 272:0 273:0 274:0.052632 275:0 276:0 277:0 278:0 279:0 280:0 281:0 282:0 283:0 284:0.052632 285:0 286:0 287:0 288:0.105263 289:0.052632 290:0 291:0 292:0 293:0 294:0 295:0.052632 296:0.368421 297:0.105263 298:0 299:0.052632 300:0 301:0 302:0 303:0 304:0 305:0 306:0 307:0.052632 308:0 309:0 310:0 311:0 312:0 313:0 314:0.052632 315:0 316:0 317:0 318:0 319:0 320:0 321:0 322:0 323:0 324:0 325:0.052632 326:0 327:0 328:0 329:0 330:0 331:0.052632 332:0 333:0.105263 334:0 335:0 336:0 337:0 338:0 339:0 340:0 341:0 342:0 343:0 344:0 345:0 346:0 347:0.052632 348:0.052632 349:0 350:0 351:0 352:0 353:0 354:0.052632 355:0.578947 356:0.105263 357:0.105263 358:0.052632 359:0 360:0 361:0 362:0.052632 363:0 364:0 365:0 366:0 367:0 368:0 369:0 370:0 371:0 372:0 373:0 374:0 375:0 376:0 377:0 378:0 379:0 380:0 381:0 382:0 383:0 384:0 385:0.105263 386:0 387:0 388:0 389:0 390:0 391:0 392:0 393:0 394:0 395:0 396:0 397:0 398:0 399:0 400:0 401:0 402:0 403:0 404:0 405:0 406:0 407:0 408:0 409:0 410:0 411:0 412:0 413:0 414:0.473684 415:0.210526 416:0.052632 417:0 418:0 419:0 420:0 421:0 422:0 423:0 424:0 425:0 426:0 427:0 428:0 429:0 430:0 431:0 432:0 433:0 434:0 435:0 436:0 437:0 438:0 439:0 440:0 441:0 442:0 443:0 444:0.105263 445:0 446:0 447:0 448:0 449:0 450:0 451:0.052632 452:0 453:0 454:0 455:0 456:0 457:0 458:0 459:0 460:0 461:0 462:0.052632 463:0 464:0 465:0 466:0 467:0 468:0 469:0 470:0.052632 471:0 472:0 473:0.315789 474:0.368421 475:0 476:0 477:0 478:0 479:0 480:0 481:0.052632 482:0 483:0 484:0 485:0 486:0 487:0 488:0 489:0 490:0 491:0 492:0 493:0 494:0 495:0 496:0 497:0 498:0 499:0 500:0 501:0 502:0 503:0.105263 504:0 505:0 506:0 507:0 508:0 509:0 510:0.052632 511:0 512:0 513:0 514:0 515:0 516:0 517:0 518:0 519:0 520:0 521:0.052632 522:0 523:0 524:0 525:0 526:0 527:0 528:0 529:0.052632 530:0 531:0 532:0.263158 533:0.210526 534:0.026316 535:0 536:0 537:0.026316 538:0 539:0 540:0.052632 541:0 542:0 543:0 544:0.026316 545:0 546:0 547:0 548:0 549:0.026316 550:0.026316 551:0 552:0 553:0.026316 554:0 555:0 556:0 557:0 558:0 559:0 560:0 561:0 562:0.026316 563:0 564:0 565:0 566:0 567:0 568:0.026316 569:0.026316 570:0 571:0 572:0 573:0 574:0 575:0.052632 576:0 577:0 578:0 579:0.026316 580:0.078947 581:0 582:0 583:0 584:0 585:0.026316 586:0 587:0 588:0 589:0.026316 590:0.026316 
0.4946160290430806 1:0.473684 2:0.263158 3:0 4:0 5:0 6:0 7:0 8:0 9:0.105263 10:0 11:0 12:0 13:0 14:0 15:0 16:0 17:0 18:0 19:0 20:0 21:0 22:0 23:0 24:0 25:0 26:0 27:0 28:0 29:0 30:0 31:0 32:0 33:0 34:0 35:0 36:0 37:0 38:0 39:0 40:0 41:0 42:0 43:0 44:0 45:0 46:0 47:0 48:0 49:0 50:0 51:0 52:0 53:0.052632 54:0 55:0.052632 56:0 57:0 58:0 59:0.052632 60:0.473684 61:0.105263 62:0 63:0 64:0 65:0.052632 66:0 67:0 68:0.105263 69:0 70:0 71:0 72:0.052632 73:0 74:0 75:0 76:0 77:0 78:0 79:0 80:0 81:0 82:0 83:0 84:0 85:0 86:0 87:0 88:0 89:0.052632 90:0.052632 91:0 92:0 93:0 94:0 95:0 96:0 97:0 98:0 99:0 100:0 101:0 102:0 103:0 104:0 105:0 106:0 107:0 108:0 109:0 110:0 111:0.052632 112:0 113:0 114:0.052632 115:0 116:0 117:0 118:0 119:0.421053 120:0.052632 121:0 122:0.052632 123:0 124:0.052632 125:0 126:0 127:0 128:0 129:0 130:0 131:0.052632 132:0 133:0 134:0 135:0 136:0 137:0 138:0 139:0 140:0 141:0 142:0 143:0 144:0 145:0 146:0 147:0 148:0.052632 149:0.052632 150:0.052632 151:0 152:0 153:0 154:0 155:0 156:0 157:0 158:0 159:0 160:0 161:0 162:0.052632 163:0 164:0 165:0 166:0 167:0 168:0 169:0 170:0.052632 171:0 172:0 173:0.052632 174:0 175:0 176:0 177:0.052632 178:0.526316 179:0.157895 180:0 181:0 182:0.052632 183:0 184:0 185:0.052632 186:0 187:0 188:0 189:0 190:0 191:0 192:0 193:0 194:0 195:0 196:0 197:0 198:0 199:0 200:0 201:0 202:0 203:0 204:0 205:0 206:0 207:0 208:0 209:0 210:0 211:0 212:0 213:0 214:0 215:0 216:0 217:0 218:0 219:0 220:0 221:0 222:0 223:0 224:0 225:0.052632 226:0 227:0 228:0 229:0.052632 230:0 231:0 232:0 233:0.105263 234:0 235:0 236:0 237:0.473684 238:0.052632 239:0 240:0 241:0 242:0 243:0 244:0.157895 245:0 246:0 247:0 248:0.157895 249:0 250:0 251:0 252:0 253:0 254:0 255:0 256:0 257:0 258:0 259:0 260:0 261:0 262:0 263:0 264:0 265:0 266:0 267:0 268:0 269:0 270:0 271:0 272:0 273:0 274:0 275:0 276:0 277:0 278:0 279:0 280:0 281:0 282:0 283:0 284:0.052632 285:0 286:0 287:0 288:0.052632 289:0 290:0 291:0 292:0.052632 293:0 294:0 295:0 296:0.368421 297:0 298:0 299:0 300:0 301:0 302:0 303:0.157895 304:0 305:0 306:0 307:0.315789 308:0 309:0 310:0 311:0 312:0 313:0 314:0 315:0 316:0 317:0 318:0 319:0 320:0.052632 321:0 322:0 323:0 324:0 325:0 326:0 327:0 328:0 329:0 330:0.052632 331:0 332:0 333:0 334:0 335:0 336:0 337:0 338:0 339:0 340:0 341:0 342:0 343:0 344:0 345:0 346:0 347:0.052632 348:0 349:0 350:0 351:0 352:0 353:0 354:0 355:0.473684 356:0.052632 357:0.052632 358:0 359:0 360:0 361:0.052632 362:0.105263 363:0 364:0 365:0 366:0 367:0.052632 368:0 369:0 370:0 371:0 372:0 373:0 374:0 375:0 376:0 377:0.052632 378:0.052632 379:0 380:0 381:0 382:0 383:0 384:0.052632 385:0 386:0 387:0 388:0 389:0 390:0 391:0 392:0 393:0 394:0 395:0 396:0 397:0 398:0 399:0 400:0 401:0 402:0 403:0 404:0 405:0 406:0 407:0 408:0 409:0 410:0.052632 411:0 412:0 413:0 414:0.684211 415:0.052632 416:0 417:0.052632 418:0 419:0 420:0 421:0 422:0 423:0 424:0 425:0 426:0.105263 427:0 428:0 429:0 430:0 431:0 432:0 433:0 434:0 435:0 436:0.052632 437:0.052632 438:0 439:0 440:0 441:0 442:0 443:0 444:0 445:0 446:0 447:0 448:0 449:0 450:0 451:0 452:0 453:0 454:0 455:0 456:0 457:0 458:0 459:0 460:0 461:0 462:0 463:0 464:0 465:0 466:0 467:0 468:0 469:0 470:0 471:0 472:0 473:0.736842 474:0.052632 475:0 476:0.052632 477:0 478:0 479:0 480:0 481:0 482:0 483:0 484:0 485:0.052632 486:0 487:0 488:0 489:0 490:0 491:0 492:0 493:0 494:0 495:0 496:0.052632 497:0 498:0 499:0 500:0 501:0 502:0 503:0 504:0 505:0 506:0 507:0 508:0 509:0.052632 510:0 511:0 512:0 513:0 514:0 515:0 516:0 517:0 518:0 519:0 520:0 521:0 522:0 523:0 524:0 525:0 526:0 527:0 528:0 529:0 530:0 531:0 532:0.447368 533:0.157895 534:0 535:0.026316 536:0 537:0.026316 538:0 539:0 540:0.052632 541:0 542:0 543:0 544:0.026316 545:0 546:0 547:0 548:0 549:0 550:0 551:0 552:0 553:0 554:0 555:0 556:0 557:0 558:0 559:0 560:0 561:0.026316 562:0.026316 563:0.026316 564:0 565:0 566:0 567:0 568:0 569:0 570:0 571:0 572:0 573:0 574:0 575:0.026316 576:0 577:0 578:0 579:0 580:0 581:0 582:0 583:0.026316 584:0.026316 585:0 586:0.052632 587:0 588:0 589:0 590:0.052632 
4.478181332118349 1:0.576923 2:0.076923 3:0 4:0 5:0 6:0 7:0 8:0 9:0.038462 10:0 11:0 12:0.076923 13:0 14:0 15:0 16:0 17:0 18:0.038462 19:0 20:0 21:0 22:0 23:0 24:0 25:0.038462 26:0 27:0 28:0 29:0 30:0.038462 31:0 32:0 33:0 34:0 35:0 36:0 37:0 38:0 39:0 40:0 41:0 42:0 43:0 44:0.038462 45:0 46:0 47:0 48:0 49:0.038462 50:0 51:0 52:0 53:0 54:0 55:0 56:0 57:0.038462 58:0 59:0 60:0.384615 61:0.230769 62:0.038462 63:0 64:0 65:0 66:0 67:0 68:0.115385 69:0 70:0 71:0.076923 72:0.076923 73:0 74:0 75:0 76:0 77:0 78:0 79:0 80:0 81:0 82:0 83:0 84:0 85:0 86:0 87:0 88:0 89:0.038462 90:0 91:0 92:0 93:0 94:0 95:0 96:0 97:0 98:0 99:0 100:0 101:0 102:0 103:0 104:0 105:0 106:0 107:0 108:0 109:0 110:0 111:0 112:0 113:0 114:0 115:0 116:0 117:0 118:0.038462 119:0.384615 120:0.192308 121:0.076923 122:0 123:0.038462 124:0 125:0 126:0 127:0.076923 128:0 129:0 130:0 131:0.076923 132:0 133:0 134:0 135:0 136:0 137:0 138:0 139:0 140:0 141:0 142:0.038462 143:0 144:0 145:0 146:0 147:0 148:0 149:0.038462 150:0 151:0 152:0 153:0 154:0 155:0 156:0 157:0 158:0 159:0 160:0 161:0 162:0 163:0 164:0 165:0 166:0 167:0 168:0 169:0 170:0 171:0 172:0 173:0 174:0 175:0.038462 176:0 177:0.038462 178:0.615385 179:0.076923 180:0.038462 181:0 182:0.038462 183:0 184:0.038462 185:0 186:0 187:0 188:0 189:0 190:0 191:0 192:0 193:0 194:0 195:0 196:0 197:0 198:0 199:0 200:0 201:0.076923 202:0 203:0 204:0 205:0 206:0 207:0 208:0.038462 209:0 210:0 211:0 212:0 213:0 214:0 215:0 216:0 217:0 218:0 219:0 220:0 221:0 222:0 223:0 224:0 225:0 226:0 227:0 228:0 229:0.038462 230:0 231:0 232:0 233:0 234:0 235:0 236:0.038462 237:0.576923 238:0.115385 239:0 240:0 241:0 242:0 243:0 244:0 245:0 246:0 247:0 248:0 249:0.038462 250:0 251:0 252:0 253:0 254:0.115385 255:0 256:0 257:0 258:0 259:0 260:0.115385 261:0 262:0 263:0 264:0 265:0 266:0 267:0.038462 268:0 269:0 270:0 271:0 272:0 273:0 274:0 275:0 276:0 277:0 278:0 279:0 280:0 281:0 282:0 283:0 284:0 285:0 286:0 287:0 288:0 289:0 290:0 291:0 292:0 293:0 294:0 295:0 296:0.461538 297:0.153846 298:0.038462 299:0 300:0 301:0.076923 302:0 303:0 304:0 305:0 306:0 307:0 308:0.038462 309:0 310:0 311:0 312:0 313:0.153846 314:0 315:0 316:0 317:0 318:0 319:0.076923 320:0 321:0 322:0 323:0 324:0 325:0 326:0 327:0 328:0 329:0 330:0 331:0 332:0 333:0 334:0 335:0 336:0 337:0 338:0 339:0 340:0 341:0 342:0 343:0 344:0 345:0 346:0 347:0 348:0 349:0 350:0 351:0 352:0 353:0 354:0 355:0.423077 356:0.192308 357:0.038462 358:0.038462 359:0.038462 360:0.038462 361:0.038462 362:0 363:0 364:0 365:0 366:0 367:0 368:0 369:0 370:0 371:0 372:0.076923 373:0 374:0 375:0 376:0 377:0 378:0 379:0 380:0 381:0 382:0 383:0 384:0 385:0 386:0 387:0 388:0 389:0 390:0 391:0.038462 392:0.038462 393:0 394:0 395:0 396:0 397:0 398:0 399:0 400:0 401:0 402:0 403:0 404:0 405:0 406:0 407:0 408:0 409:0 410:0.038462 411:0 412:0 413:0 414:0.538462 415:0.115385 416:0.076923 417:0.038462 418:0.038462 419:0 420:0.076923 421:0.038462 422:0 423:0 424:0 425:0 426:0 427:0 428:0 429:0 430:0 431:0 432:0 433:0 434:0 435:0 436:0 437:0 438:0 439:0 440:0 441:0 442:0 443:0 444:0.038462 445:0 446:0 447:0 448:0 449:0 450:0.038462 451:0 452:0 453:0 454:0 455:0 456:0 457:0 458:0 459:0 460:0 461:0 462:0 463:0 464:0 465:0 466:0 467:0 468:0 469:0 470:0 471:0 472:0 473:0.423077 474:0.192308 475:0.038462 476:0 477:0 478:0 479:0.038462 480:0.038462 481:0 482:0 483:0 484:0 485:0 486:0 487:0 488:0.038462 489:0 490:0 491:0 492:0 493:0.038462 494:0 495:0 496:0.076923 497:0 498:0 499:0 500:0 501:0 502:0 503:0.038462 504:0 505:0 506:0 507:0 508:0 509:0 510:0 511:0 512:0 513:0 514:0 515:0 516:0 517:0 518:0 519:0 520:0 521:0 522:0 523:0 524:0 525:0 526:0.038462 527:0 528:0 529:0.038462 530:0 531:0 532:0.480769 533:0.134615 534:0.038462 535:0 536:0.019231 537:0 538:0 539:0 540:0.057692 541:0 542:0 543:0.038462 544:0.038462 545:0 546:0 547:0 548:0 549:0.019231 550:0 551:0 552:0 553:0 554:0 555:0.019231 556:0.019231 557:0 558:0 559:0 560:0 561:0.019231 562:0.019231 563:0 564:0 565:0 566:0 567:0 568:0 569:0 570:0 571:0 572:0 573:0 574:0 575:0.019231 576:0 577:0 578:0 579:0 580:0.019231 581:0 582:0 583:0 584:0 585:0 586:0 587:0 588:0.038462 589:0 590:0.019231 
3.560500020946205 1:0.210526 2:0.052632 3:0.052632 4:0.052632 5:0 6:0.052632 7:0 8:0 9:0 10:0 11:0 12:0 13:0.052632 14:0 15:0 16:0 17:0 18:0.105263 19:0 20:0 21:0.052632 22:0.052632 23:0 24:0.052632 25:0.052632 26:0 27:0 28:0 29:0 30:0 31:0.105263 32:0 33:0 34:0 35:0 36:0 37:0 38:0 39:0 40:0 41:0 42:0 43:0 44:0 45:0 46:0 47:0 48:0 49:0 50:0 51:0 52:0.052632 53:0 54:0 55:0 56:0 57:0 58:0 59:0.052632 60:0.473684 61:0 62:0.052632 63:0.052632 64:0.052632 65:0.052632 66:0 67:0 68:0 69:0 70:0 71:0 72:0 73:0 74:0 75:0 76:0 77:0.052632 78:0 79:0 80:0.052632 81:0.052632 82:0 83:0.052632 84:0 85:0 86:0 87:0 88:0 89:0 90:0 91:0 92:0 93:0 94:0 95:0.052632 96:0 97:0 98:0 99:0 100:0 101:0 102:0 103:0 104:0 105:0 106:0 107:0 108:0 109:0 110:0 111:0 112:0 113:0 114:0 115:0 116:0 117:0 118:0.052632 119:0.631579 120:0.052632 121:0 122:0 123:0.052632 124:0 125:0.052632 126:0.052632 127:0 128:0 129:0 130:0.052632 131:0 132:0 133:0 134:0 135:0 136:0 137:0 138:0 139:0 140:0 141:0 142:0 143:0 144:0 145:0 146:0 147:0 148:0 149:0 150:0 151:0 152:0 153:0 154:0.052632 155:0 156:0 157:0 158:0 159:0 160:0 161:0 162:0 163:0 164:0 165:0 166:0 167:0 168:0 169:0 170:0 171:0 172:0 173:0 174:0 175:0 176:0 177:0.052632 178:0.526316 179:0.157895 180:0 181:0 182:0 183:0 184:0.105263 185:0.052632 186:0 187:0 188:0 189:0 190:0 191:0 192:0 193:0 194:0 195:0 196:0 197:0 198:0 199:0 200:0.052632 201:0 202:0 203:0 204:0 205:0 206:0 207:0.052632 208:0 209:0 210:0 211:0 212:0 213:0 214:0 215:0 216:0 217:0 218:0 219:0 220:0 221:0 222:0 223:0 224:0 225:0 226:0 227:0 228:0 229:0 230:0 231:0 232:0 233:0.052632 234:0 235:0 236:0 237:0.631579 238:0.052632 239:0.052632 240:0 241:0 242:0 243:0.052632 244:0.105263 245:0 246:0 247:0 248:0.052632 249:0 250:0 251:0 252:0 253:0 254:0 255:0 256:0 257:0 258:0 259:0.052632 260:0 261:0 262:0 263:0 264:0 265:0 266:0 267:0 268:0 269:0 270:0 271:0 272:0 273:0 274:0 275:0 276:0 277:0 278:0 279:0 280:0 281:0 282:0 283:0 284:0 285:0 286:0 287:0 288:0 289:0 290:0 291:0 292:0 293:0 294:0 295:0 296:0.526316 297:0 298:0.052632 299:0.105263 300:0.052632 301:0 302:0 303:0.105263 304:0 305:0 306:0 307:0.052632 308:0 309:0 310:0 311:0 312:0 313:0 314:0 315:0 316:0 317:0 318:0 319:0 320:0 321:0 322:0 323:0 324:0 325:0 326:0 327:0 328:0 329:0 330:0 331:0 332:0 333:0 334:0 335:0.052632 336:0 337:0 338:0 339:0 340:0 341:0 342:0 343:0 344:0 345:0 346:0 347:0 348:0 349:0 350:0 351:0 352:0 353:0 354:0.052632 355:0.473684 356:0.210526 357:0 358:0.052632 359:0 360:0.052632 361:0 362:0 363:0 364:0 365:0 366:0 367:0 368:0 369:0 370:0 371:0 372:0.052632 373:0 374:0 375:0 376:0 377:0.052632 378:0 379:0 380:0 381:0 382:0 383:0 384:0 385:0 386:0 387:0 388:0 389:0 390:0 391:0 392:0 393:0 394:0 395:0 396:0 397:0 398:0 399:0 400:0 401:0 402:0 403:0 404:0 405:0 406:0 407:0 408:0 409:0 410:0.052632 411:0 412:0 413:0.052632 414:0.368421 415:0.263158 416:0 417:0 418:0 419:0 420:0 421:0 422:0.052632 423:0 424:0 425:0 426:0.105263 427:0.105263 428:0 429:0 430:0 431:0 432:0 433:0 434:0 435:0 436:0.052632 437:0 438:0 439:0 440:0 441:0 442:0 443:0 444:0 445:0 446:0 447:0 448:0 449:0 450:0 451:0 452:0 453:0 454:0 455:0 456:0 457:0 458:0 459:0 460:0 461:0 462:0 463:0 464:0 465:0 466:0 467:0 468:0 469:0.052632 470:0 471:0 472:0 473:0.157895 474:0.315789 475:0 476:0 477:0.052632 478:0 479:0 480:0 481:0.052632 482:0.052632 483:0 484:0 485:0.105263 486:0.105263 487:0 488:0.052632 489:0 490:0 491:0 492:0 493:0 494:0 495:0 496:0 497:0 498:0 499:0 500:0 501:0 502:0 503:0 504:0 505:0 506:0 507:0 508:0 509:0 510:0 511:0 512:0 513:0 514:0.052632 515:0 516:0 517:0 518:0 519:0 520:0 521:0 522:0 523:0 524:0 525:0 526:0 527:0 528:0 529:0 530:0 531:0.052632 532:0.421053 533:0.052632 534:0.026316 535:0.026316 536:0.026316 537:0.026316 538:0.026316 539:0.026316 540:0 541:0 542:0 543:0.026316 544:0.026316 545:0 546:0 547:0 548:0 549:0.052632 550:0 551:0 552:0.026316 553:0.026316 554:0 555:0.026316 556:0.026316 557:0 558:0 559:0 560:0 561:0 562:0.052632 563:0 564:0 565:0 566:0 567:0.026316 568:0 569:0 570:0 571:0 572:0 573:0 574:0 575:0 576:0 577:0 578:0 579:0 580:0 581:0 582:0 583:0.026316 584:0 585:0 586:0 587:0 588:0 589:0 590:0.052632 
2.539886549899063 1:0.421053 2:0.157895 3:0 4:0.052632 5:0 6:0.052632 7:0 8:0 9:0 10:0 11:0 12:0 13:0.105263 14:0 15:0 16:0 17:0 18:0.105263 19:0 20:0 21:0 22:0 23:0 24:0.052632 25:0 26:0 27:0 28:0 29:0 30:0 31:0 32:0.052632 33:0 34:0 35:0 36:0 37:0 38:0 39:0 40:0 41:0 42:0 43:0 44:0 45:0 46:0 47:0 48:0 49:0 50:0 51:0 52:0 53:0 54:0 55:0 56:0 57:0 58:0 59:0 60:0.368421 61:0.263158 62:0 63:0.052632 64:0 65:0.052632 66:0 67:0 68:0.052632 69:0 70:0 71:0 72:0.105263 73:0 74:0 75:0 76:0 77:0.052632 78:0 79:0 80:0 81:0 82:0 83:0 84:0 85:0 86:0 87:0 88:0 89:0 90:0 91:0 92:0 93:0 94:0 95:0 96:0 97:0 98:0 99:0 100:0 101:0 102:0 103:0 104:0 105:0 106:0 107:0 108:0 109:0 110:0 111:0 112:0 113:0 114:0 115:0.052632 116:0 117:0 118:0 119:0.368421 120:0.263158 121:0 122:0.052632 123:0 124:0.105263 125:0 126:0 127:0.052632 128:0 129:0 130:0 131:0 132:0 133:0 134:0 135:0 136:0 137:0 138:0 139:0 140:0 141:0 142:0.052632 143:0 144:0 145:0 146:0 147:0 148:0 149:0.052632 150:0 151:0 152:0 153:0 154:0 155:0 156:0 157:0 158:0 159:0 160:0 161:0 162:0 163:0 164:0 165:0 166:0 167:0 168:0 169:0 170:0 171:0 172:0 173:0 174:0.052632 175:0 176:0 177:0 178:0.473684 179:0.157895 180:0 181:0 182:0 183:0 184:0 185:0 186:0.052632 187:0 188:0 189:0 190:0 191:0 192:0 193:0 194:0 195:0 196:0 197:0 198:0 199:0 200:0 201:0 202:0 203:0 204:0 205:0 206:0 207:0 208:0 209:0 210:0 211:0 212:0 213:0 214:0 215:0 216:0 217:0 218:0 219:0 220:0 221:0.263158 222:0 223:0 224:0 225:0 226:0 227:0 228:0 229:0 230:0.052632 231:0 232:0 233:0 234:0 235:0 236:0 237:0.421053 238:0.157895 239:0 240:0 241:0 242:0 243:0 244:0 245:0.052632 246:0 247:0 248:0 249:0 250:0 251:0 252:0 253:0 254:0 255:0 256:0 257:0 258:0 259:0 260:0 261:0 262:0 263:0 264:0 265:0 266:0 267:0 268:0 269:0 270:0 271:0 272:0 273:0 274:0 275:0 276:0.052632 277:0 278:0 279:0 280:0.263158 281:0 282:0 283:0 284:0 285:0 286:0 287:0 288:0 289:0.052632 290:0 291:0 292:0 293:0 294:0 295:0 296:0.421053 297:0.157895 298:0 299:0 300:0 301:0.052632 302:0.052632 303:0.105263 304:0.052632 305:0 306:0 307:0 308:0 309:0 310:0 311:0 312:0 313:0 314:0 315:0 316:0 317:0 318:0 319:0.052632 320:0 321:0 322:0 323:0 324:0 325:0 326:0 327:0 328:0 329:0 330:0 331:0 332:0 333:0 334:0 335:0.052632 336:0 337:0 338:0 339:0 340:0 341:0 342:0 343:0 344:0 345:0 346:0 347:0.052632 348:0 349:0 350:0 351:0 352:0 353:0 354:0 355:0.473684 356:0.210526 357:0.052632 358:0 359:0.052632 360:0 361:0 362:0.052632 363:0.052632 364:0 365:0 366:0 367:0.052632 368:0 369:0 370:0 371:0 372:0 373:0 374:0 375:0 376:0 377:0 378:0 379:0 380:0 381:0 382:0 383:0 384:0 385:0 386:0 387:0 388:0 389:0 390:0 391:0 392:0 393:0 394:0 395:0 396:0 397:0 398:0.052632 399:0 400:0 401:0 402:0 403:0 404:0 405:0 406:0 407:0 408:0 409:0 410:0 411:0 412:0 413:0 414:0.473684 415:0.210526 416:0.105263 417:0.052632 418:0 419:0 420:0.052632 421:0 422:0 423:0 424:0 425:0 426:0 427:0 428:0 429:0 430:0 431:0 432:0 433:0 434:0 435:0 436:0 437:0 438:0 439:0 440:0 441:0 442:0 443:0 444:0.052632 445:0 446:0 447:0 448:0 449:0 450:0 451:0 452:0 453:0 454:0 455:0 456:0 457:0.052632 458:0 459:0 460:0 461:0 462:0 463:0 464:0 465:0 466:0 467:0 468:0 469:0 470:0 471:0 472:0 473:0.315789 474:0.157895 475:0.052632 476:0.052632 477:0 478:0 479:0.052632 480:0 481:0 482:0 483:0 484:0 485:0 486:0 487:0 488:0 489:0 490:0 491:0 492:0 493:0 494:0 495:0 496:0.052632 497:0 498:0 499:0 500:0 501:0 502:0 503:0.105263 504:0 505:0 506:0 507:0 508:0 509:0 510:0.157895 511:0 512:0 513:0 514:0 515:0 516:0.052632 517:0 518:0 519:0 520:0 521:0 522:0 523:0 524:0 525:0 526:0 527:0 528:0 529:0 530:0 531:0 532:0.394737 533:0.210526 534:0 535:0.052632 536:0 537:0.078947 538:0 539:0 540:0.026316 541:0 542:0 543:0 544:0.052632 545:0 546:0 547:0 548:0 549:0.052632 550:0 551:0 552:0 553:0 554:0 555:0.052632 556:0 557:0 558:0 559:0 560:0 561:0 562:0.026316 563:0.026316 564:0 565:0 566:0 567:0 568:0 569:0 570:0 571:0 572:0 573:0 574:0 575:0 576:0 577:0 578:0 579:0 580:0 581:0 582:0 583:0 584:0 585:0 586:0 587:0.026316 588:0 589:0 590:0 
3.001488227889181 1:0.423077 2:0.038462 3:0 4:0 5:0 6:0 7:0 8:0 9:0 10:0 11:0 12:0 13:0 14:0 15:0 16:0 17:0 18:0 19:0 20:0 21:0 22:0 23:0 24:0.038462 25:0.076923 26:0 27:0 28:0 29:0 30:0 31:0.038462 32:0 33:0 34:0 35:0 36:0 37:0.038462 38:0 39:0 40:0 41:0 42:0 43:0 44:0 45:0.038462 46:0 47:0 48:0.038462 49:0.192308 50:0 51:0 52:0 53:0 54:0 55:0 56:0 57:0 58:0.038462 59:0.038462 60:0.653846 61:0 62:0.038462 63:0 64:0 65:0.038462 66:0 67:0 68:0 69:0 70:0 71:0 72:0 73:0 74:0 75:0 76:0 77:0 78:0 79:0 80:0 81:0.038462 82:0 83:0.038462 84:0.038462 85:0 86:0 87:0 88:0 89:0 90:0.038462 91:0 92:0 93:0 94:0 95:0 96:0 97:0 98:0 99:0 100:0 101:0 102:0 103:0 104:0 105:0 106:0 107:0 108:0.076923 109:0 110:0 111:0 112:0 113:0 114:0 115:0 116:0 117:0.038462 118:0 119:0.653846 120:0.115385 121:0.038462 122:0 123:0 124:0.038462 125:0 126:0 127:0 128:0 129:0 130:0 131:0 132:0 133:0 134:0 135:0 136:0 137:0 138:0 139:0 140:0.038462 141:0 142:0.038462 143:0 144:0 145:0 146:0 147:0 148:0 149:0.038462 150:0 151:0 152:0 153:0 154:0 155:0.038462 156:0 157:0 158:0 159:0 160:0 161:0 162:0 163:0 164:0 165:0 166:0 167:0 168:0 169:0 170:0 171:0 172:0 173:0 174:0 175:0 176:0 177:0 178:0.538462 179:0.153846 180:0 181:0.076923 182:0 183:0 184:0 185:0 186:0 187:0 188:0 189:0 190:0.038462 191:0 192:0 193:0 194:0 195:0 196:0 197:0 198:0 199:0 200:0.038462 201:0 202:0 203:0 204:0 205:0 206:0 207:0 208:0 209:0 210:0 211:0 212:0 213:0 214:0 215:0 216:0 217:0 218:0 219:0 220:0 221:0 222:0 223:0 224:0 225:0 226:0 227:0 228:0 229:0.038462 230:0 231:0 232:0 233:0.038462 234:0 235:0 236:0.076923 237:0.576923 238:0.076923 239:0 240:0.076923 241:0 242:0 243:0 244:0 245:0 246:0 247:0 248:0 249:0 250:0 251:0 252:0 253:0 254:0 255:0 256:0 257:0 258:0 259:0 260:0 261:0 262:0 263:0 264:0 265:0.038462 266:0 267:0 268:0 269:0 270:0 271:0 272:0 273:0 274:0.038462 275:0.038462 276:0 277:0 278:0 279:0 280:0.038462 281:0 282:0 283:0 284:0 285:0 286:0 287:0 288:0.038462 289:0 290:0 291:0 292:0.038462 293:0 294:0 295:0.038462 296:0.461538 297:0.269231 298:0.038462 299:0 300:0 301:0 302:0 303:0 304:0 305:0 306:0 307:0 308:0 309:0 310:0 311:0 312:0 313:0 314:0 315:0 316:0 317:0 318:0 319:0.038462 320:0 321:0 322:0 323:0 324:0.038462 325:0 326:0 327:0 328:0 329:0 330:0 331:0 332:0 333:0.038462 334:0.038462 335:0 336:0 337:0 338:0 339:0.038462 340:0 341:0 342:0 343:0 344:0 345:0 346:0 347:0 348:0 349:0.038462 350:0 351:0 352:0 353:0 354:0 355:0.692308 356:0.115385 357:0 358:0.038462 359:0 360:0 361:0 362:0 363:0 364:0 365:0 366:0 367:0 368:0 369:0 370:0 371:0 372:0 373:0 374:0 375:0 376:0 377:0 378:0.076923 379:0 380:0 381:0 382:0 383:0 384:0 385:0 386:0 387:0 388:0 389:0 390:0 391:0.038462 392:0 393:0 394:0 395:0 396:0 397:0 398:0 399:0 400:0 401:0 402:0 403:0 404:0 405:0 406:0 407:0 408:0 409:0 410:0 411:0 412:0 413:0.038462 414:0.538462 415:0.076923 416:0 417:0.038462 418:0 419:0 420:0 421:0 422:0 423:0 424:0 425:0 426:0 427:0 428:0 429:0 430:0 431:0 432:0 433:0 434:0 435:0 436:0 437:0.076923 438:0.038462 439:0 440:0 441:0 442:0 443:0 444:0.038462 445:0 446:0 447:0 448:0 449:0 450:0.038462 451:0 452:0 453:0 454:0 455:0 456:0 457:0.076923 458:0 459:0 460:0 461:0 462:0 463:0 464:0 465:0 466:0.038462 467:0 468:0 469:0 470:0 471:0 472:0.038462 473:0.461538 474:0.230769 475:0 476:0 477:0 478:0 479:0.038462 480:0 481:0.038462 482:0 483:0 484:0 485:0 486:0 487:0 488:0 489:0 490:0 491:0 492:0 493:0 494:0 495:0 496:0 497:0.038462 498:0 499:0 500:0 501:0 502:0 503:0.038462 504:0 505:0 506:0 507:0 508:0 509:0 510:0 511:0 512:0 513:0 514:0 515:0 516:0.076923 517:0 518:0 519:0 520:0 521:0 522:0 523:0 524:0 525:0.038462 526:0 527:0 528:0 529:0 530:0 531:0.038462 532:0.538462 533:0.076923 534:0.019231 535:0 536:0 537:0.019231 538:0 539:0 540:0 541:0 542:0 543:0 544:0 545:0 546:0 547:0 548:0 549:0 550:0 551:0 552:0 553:0.019231 554:0 555:0.038462 556:0.038462 557:0 558:0 559:0 560:0 561:0 562:0.038462 563:0 564:0 565:0 566:0 567:0 568:0.038462 569:0 570:0 571:0 572:0 573:0 574:0 575:0 576:0.019231 577:0 578:0 579:0.019231 580:0.096154 581:0 582:0 583:0 584:0 585:0 586:0 587:0 588:0 589:0.019231 590:0.019231 
1.55014820290617 1:0.578947 2:0 3:0 4:0.052632 5:0.157895 6:0 7:0.105263 8:0 9:0 10:0 11:0 12:0 13:0 14:0 15:0 16:0 17:0 18:0 19:0 20:0 21:0 22:0 23:0.052632 24:0.052632 25:0 26:0 27:0 28:0 29:0 30:0 31:0 32:0 33:0 34:0 35:0 36:0 37:0 38:0 39:0 40:0 41:0 42:0 43:0 44:0 45:0 46:0 47:0 48:0 49:0 50:0 51:0 52:0 53:0 54:0 55:0 56:0 57:0 58:0 59:0 60:0.421053 61:0.052632 62:0.052632 63:0.052632 64:0.052632 65:0 66:0.052632 67:0 68:0 69:0 70:0 71:0 72:0 73:0 74:0 75:0 76:0 77:0 78:0 79:0 80:0 81:0 82:0.052632 83:0.052632 84:0.052632 85:0 86:0 87:0 88:0 89:0 90:0 91:0 92:0 93:0 94:0 95:0 96:0 97:0.052632 98:0 99:0 100:0 101:0 102:0 103:0 104:0.052632 105:0 106:0 107:0 108:0 109:0 110:0 111:0 112:0 113:0 114:0 115:0 116:0.052632 117:0 118:0 119:0.473684 120:0.052632 121:0.052632 122:0 123:0 124:0 125:0 126:0 127:0 128:0 129:0 130:0 131:0 132:0 133:0 134:0 135:0 136:0 137:0 138:0 139:0 140:0 141:0 142:0 143:0.105263 144:0 145:0 146:0 147:0 148:0 149:0.052632 150:0.052632 151:0 152:0 153:0 154:0 155:0 156:0.052632 157:0 158:0 159:0 160:0 161:0 162:0 163:0.052632 164:0 165:0 166:0 167:0 168:0 169:0 170:0 171:0 172:0 173:0 174:0 175:0.105263 176:0 177:0 178:0.473684 179:0 180:0 181:0.052632 182:0 183:0 184:0 185:0.105263 186:0 187:0 188:0 189:0.052632 190:0 191:0 192:0 193:0 194:0 195:0 196:0 197:0 198:0 199:0 200:0 201:0 202:0 203:0 204:0 205:0 206:0 207:0 208:0.052632 209:0 210:0 211:0 212:0 213:0 214:0 215:0.052632 216:0 217:0 218:0 219:0 220:0 221:0 222:0 223:0 224:0 225:0 226:0 227:0 228:0 229:0.052632 230:0 231:0 232:0 233:0.052632 234:0.052632 235:0 236:0.052632 237:0.263158 238:0 239:0 240:0.052632 241:0 242:0 243:0 244:0 245:0 246:0 247:0 248:0 249:0 250:0 251:0 252:0 253:0 254:0 255:0 256:0 257:0 258:0 259:0 260:0 261:0 262:0 263:0 264:0 265:0 266:0 267:0 268:0 269:0 270:0 271:0 272:0 273:0 274:0.052632 275:0 276:0 277:0 278:0 279:0 280:0 281:0 282:0 283:0.157895 284:0.052632 285:0 286:0 287:0 288:0.263158 289:0 290:0 291:0 292:0 293:0.052632 294:0 295:0.105263 296:0.263158 297:0.105263 298:0 299:0 300:0 301:0 302:0 303:0 304:0 305:0 306:0 307:0 308:0.052632 309:0 310:0 311:0 312:0 313:0 314:0 315:0 316:0 317:0 318:0 319:0 320:0 321:0 322:0 323:0 324:0 325:0 326:0 327:0 328:0 329:0 330:0 331:0 332:0 333:0 334:0 335:0 336:0.052632 337:0 338:0 339:0 340:0 341:0 342:0.157895 343:0.052632 344:0 345:0 346:0 347:0.263158 348:0 349:0 350:0 351:0 352:0 353:0 354:0.052632 355:0.578947 356:0 357:0.052632 358:0 359:0 360:0 361:0 362:0 363:0 364:0 365:0 366:0 367:0 368:0 369:0 370:0 371:0 372:0 373:0 374:0 375:0 376:0 377:0 378:0 379:0 380:0 381:0 382:0 383:0 384:0 385:0 386:0 387:0 388:0 389:0 390:0 391:0 392:0.052632 393:0 394:0 395:0 396:0 397:0 398:0 399:0 400:0 401:0.052632 402:0.052632 403:0 404:0 405:0 406:0.105263 407:0 408:0 409:0 410:0 411:0 412:0 413:0.105263 414:0.473684 415:0.052632 416:0 417:0 418:0 419:0 420:0 421:0 422:0 423:0 424:0 425:0 426:0.052632 427:0 428:0 429:0 430:0 431:0 432:0 433:0 434:0 435:0 436:0 437:0 438:0 439:0 440:0 441:0 442:0 443:0 444:0 445:0 446:0 447:0 448:0 449:0 450:0 451:0.052632 452:0 453:0 454:0 455:0 456:0 457:0 458:0 459:0 460:0.052632 461:0.052632 462:0 463:0 464:0 465:0.157895 466:0 467:0 468:0 469:0 470:0 471:0 472:0.105263 473:0.368421 474:0.052632 475:0 476:0 477:0 478:0 479:0 480:0 481:0 482:0 483:0 484:0 485:0.052632 486:0 487:0 488:0 489:0 490:0 491:0 492:0 493:0 494:0 495:0 496:0.052632 497:0.052632 498:0 499:0 500:0 501:0 502:0 503:0 504:0 505:0 506:0 507:0 508:0 509:0.052632 510:0.052632 511:0 512:0 513:0 514:0 515:0 516:0 517:0 518:0 519:0 520:0.157895 521:0 522:0 523:0 524:0.157895 525:0 526:0 527:0 528:0 529:0 530:0 531:0 532:0.526316 533:0.026316 534:0.026316 535:0.026316 536:0.078947 537:0 538:0.052632 539:0 540:0 541:0 542:0 543:0 544:0 545:0 546:0 547:0 548:0 549:0 550:0 551:0 552:0 553:0 554:0.026316 555:0.026316 556:0.052632 557:0 558:0 559:0 560:0 561:0 562:0.026316 563:0.026316 564:0 565:0 566:0 567:0 568:0 569:0.026316 570:0 571:0 572:0 573:0 574:0 575:0 576:0.026316 577:0 578:0 579:0 580:0 581:0 582:0 583:0 584:0 585:0 586:0 587:0 588:0.052632 589:0 590:0 
0.6061045557626499 1:0.473684 2:0.210526 3:0.052632 4:0 5:0 6:0 7:0 8:0.157895 9:0 10:0.052632 11:0 12:0 13:0 14:0.052632 15:0 16:0 17:0 18:0 19:0 20:0 21:0 22:0 23:0 24:0 25:0 26:0 27:0 28:0 29:0 30:0 31:0 32:0 33:0 34:0 35:0 36:0 37:0 38:0 39:0 40:0 41:0 42:0 43:0 44:0 45:0 46:0 47:0 48:0 49:0 50:0 51:0 52:0 53:0 54:0 55:0 56:0 57:0 58:0 59:0 60:0.473684 61:0 62:0.105263 63:0.052632 64:0.052632 65:0 66:0 67:0.210526 68:0 69:0.052632 70:0 71:0 72:0 73:0 74:0 75:0 76:0.052632 77:0 78:0 79:0 80:0 81:0 82:0 83:0 84:0 85:0 86:0 87:0 88:0 89:0 90:0 91:0 92:0 93:0 94:0 95:0 96:0 97:0 98:0 99:0 100:0 101:0 102:0 103:0 104:0 105:0 106:0 107:0 108:0 109:0 110:0 111:0 112:0 113:0 114:0 115:0 116:0 117:0 118:0 119:0.526316 120:0 121:0.105263 122:0.052632 123:0.052632 124:0 125:0 126:0.052632 127:0 128:0 129:0 130:0 131:0 132:0 133:0 134:0 135:0.052632 136:0 137:0 138:0 139:0 140:0 141:0 142:0.052632 143:0.052632 144:0 145:0 146:0 147:0 148:0 149:0 150:0 151:0 152:0 153:0 154:0 155:0 156:0.052632 157:0 158:0 159:0 160:0 161:0 162:0 163:0 164:0 165:0 166:0 167:0 168:0 169:0 170:0 171:0 172:0 173:0 174:0 175:0 176:0 177:0 178:0.263158 179:0.315789 180:0.105263 181:0.052632 182:0 183:0.052632 184:0 185:0 186:0.052632 187:0 188:0 189:0 190:0.105263 191:0 192:0 193:0 194:0 195:0 196:0 197:0 198:0 199:0 200:0.052632 201:0 202:0 203:0 204:0 205:0 206:0 207:0 208:0 209:0 210:0 211:0 212:0 213:0 214:0 215:0 216:0 217:0 218:0 219:0 220:0 221:0 222:0 223:0 224:0 225:0 226:0 227:0 228:0 229:0 230:0 231:0 232:0 233:0 234:0 235:0 236:0 237:0.105263 238:0.263158 239:0 240:0 241:0 242:0.052632 243:0 244:0.157895 245:0.052632 246:0 247:0.052632 248:0.105263 249:0.052632 250:0 251:0 252:0 253:0 254:0 255:0 256:0 257:0 258:0 259:0 260:0 261:0 262:0 263:0 264:0 265:0 266:0 267:0 268:0 269:0 270:0 271:0 272:0 273:0 274:0 275:0 276:0 277:0.052632 278:0 279:0.052632 280:0 281:0 282:0 283:0 284:0 285:0 286:0 287:0 288:0 289:0 290:0 291:0.052632 292:0 293:0 294:0 295:0 296:0.315789 297:0.105263 298:0 299:0 300:0 301:0.052632 302:0 303:0.157895 304:0 305:0 306:0.052632 307:0.105263 308:0 309:0 310:0 311:0 312:0 313:0 314:0 315:0 316:0 317:0 318:0 319:0 320:0 321:0 322:0 323:0 324:0 325:0 326:0 327:0 328:0 329:0 330:0 331:0 332:0 333:0 334:0 335:0 336:0.052632 337:0 338:0.052632 339:0 340:0 341:0 342:0 343:0 344:0 345:0.052632 346:0 347:0 348:0 349:0 350:0.052632 351:0 352:0 353:0 354:0 355:0.421053 356:0.210526 357:0 358:0.052632 359:0.105263 360:0 361:0 362:0 363:0 364:0 365:0 366:0 367:0.052632 368:0 369:0 370:0 371:0 372:0.052632 373:0 374:0 375:0 376:0 377:0 378:0 379:0.052632 380:0 381:0 382:0 383:0 384:0 385:0.052632 386:0 387:0 388:0 389:0 390:0 391:0 392:0 393:0 394:0 395:0 396:0 397:0 398:0 399:0 400:0 401:0 402:0 403:0 404:0 405:0 406:0 407:0 408:0 409:0 410:0 411:0 412:0 413:0 414:0.210526 415:0.315789 416:0 417:0 418:0 419:0 420:0 421:0 422:0 423:0 424:0 425:0 426:0.052632 427:0 428:0 429:0 430:0 431:0.052632 432:0 433:0 434:0 435:0 436:0 437:0 438:0.052632 439:0 440:0 441:0 442:0 443:0 444:0.105263 445:0 446:0 447:0 448:0 449:0 450:0 451:0.105263 452:0 453:0 454:0 455:0 456:0 457:0 458:0 459:0 460:0 461:0 462:0.105263 463:0 464:0 465:0 466:0 467:0 468:0 469:0 470:0 471:0 472:0 473:0.105263 474:0.631579 475:0 476:0 477:0 478:0 479:0 480:0 481:0 482:0 483:0 484:0 485:0 486:0 487:0 488:0 489:0 490:0 491:0 492:0 493:0 494:0 495:0 496:0 497:0 498:0 499:0 500:0 501:0 502:0 503:0.052632 504:0 505:0 506:0 507:0 508:0 509:0 510:0.105263 511:0 512:0 513:0 514:0 515:0 516:0 517:0 518:0 519:0 520:0 521:0.105263 522:0 523:0 524:0 525:0 526:0 527:0 528:0 529:0 530:0 531:0 532:0.5 533:0.105263 534:0.078947 535:0.026316 536:0.026316 537:0 538:0 539:0.105263 540:0 541:0.026316 542:0 543:0 544:0 545:0.026316 546:0 547:0 548:0.026316 549:0 550:0 551:0 552:0 553:0 554:0 555:0.026316 556:0.026316 557:0 558:0 559:0 560:0 561:0 562:0 563:0 564:0 565:0 566:0 567:0 568:0 569:0.026316 570:0 571:0 572:0 573:0 574:0 575:0 576:0 577:0 578:0 579:0 580:0 581:0 582:0 583:0 584:0 585:0 586:0 587:0 588:0 589:0 590:0 
1.401851126901569 1:0.653846 2:0.038462 3:0 4:0.038462 5:0.076923 6:0 7:0.038462 8:0 9:0 10:0 11:0 12:0 13:0 14:0 15:0 16:0 17:0 18:0 19:0 20:0 21:0 22:0 23:0 24:0 25:0 26:0 27:0 28:0 29:0 30:0 31:0 32:0 33:0 34:0.038462 35:0 36:0 37:0 38:0.038462 39:0 40:0 41:0 42:0 43:0 44:0 45:0 46:0 47:0 48:0 49:0 50:0 51:0 52:0 53:0 54:0 55:0 56:0 57:0.038462 58:0 59:0.038462 60:0.538462 61:0.076923 62:0 63:0 64:0.115385 65:0.038462 66:0.038462 67:0.038462 68:0.038462 69:0 70:0 71:0.038462 72:0 73:0 74:0 75:0 76:0 77:0 78:0 79:0 80:0 81:0 82:0 83:0 84:0 85:0 86:0 87:0 88:0 89:0 90:0 91:0 92:0 93:0 94:0 95:0 96:0 97:0 98:0 99:0 100:0 101:0 102:0 103:0 104:0 105:0 106:0 107:0 108:0 109:0 110:0 111:0 112:0 113:0 114:0 115:0 116:0 117:0.038462 118:0.038462 119:0.230769 120:0.230769 121:0.038462 122:0 123:0.038462 124:0.038462 125:0.076923 126:0.038462 127:0.153846 128:0 129:0 130:0.038462 131:0.038462 132:0 133:0 134:0 135:0 136:0.038462 137:0 138:0 139:0 140:0 141:0 142:0 143:0 144:0 145:0 146:0 147:0 148:0 149:0 150:0 151:0 152:0 153:0 154:0 155:0 156:0 157:0 158:0 159:0 160:0 161:0 162:0 163:0 164:0 165:0 166:0 167:0 168:0 169:0 170:0 171:0 172:0 173:0 174:0 175:0 176:0.038462 177:0 178:0.576923 179:0.038462 180:0 181:0.038462 182:0.038462 183:0 184:0 185:0.038462 186:0 187:0 188:0 189:0 190:0 191:0 192:0 193:0 194:0 195:0 196:0 197:0 198:0 199:0 200:0 201:0.038462 202:0 203:0 204:0 205:0.038462 206:0 207:0 208:0.038462 209:0 210:0 211:0 212:0 213:0 214:0.076923 215:0 216:0 217:0 218:0 219:0 220:0 221:0 222:0 223:0 224:0.038462 225:0 226:0 227:0 228:0 229:0 230:0 231:0 232:0 233:0 234:0 235:0 236:0.038462 237:0.423077 238:0.038462 239:0 240:0 241:0.038462 242:0 243:0 244:0.115385 245:0 246:0 247:0 248:0.076923 249:0 250:0 251:0 252:0 253:0 254:0 255:0 256:0 257:0 258:0 259:0 260:0 261:0 262:0 263:0 264:0.038462 265:0 266:0 267:0 268:0 269:0 270:0 271:0 272:0 273:0.038462 274:0 275:0 276:0 277:0 278:0 279:0 280:0 281:0 282:0 283:0.076923 284:0.115385 285:0 286:0 287:0 288:0 289:0 290:0 291:0 292:0 293:0 294:0 295:0.038462 296:0.423077 297:0.153846 298:0 299:0.038462 300:0 301:0 302:0 303:0.076923 304:0 305:0 306:0 307:0.076923 308:0 309:0 310:0 311:0 312:0 313:0 314:0 315:0 316:0 317:0 318:0 319:0 320:0 321:0 322:0 323:0 324:0 325:0.038462 326:0 327:0 328:0 329:0 330:0 331:0 332:0 333:0 334:0 335:0 336:0 337:0 338:0 339:0 340:0 341:0 342:0.076923 343:0.115385 344:0 345:0 346:0 347:0 348:0 349:0 350:0 351:0 352:0 353:0 354:0 355:0.461538 356:0.230769 357:0 358:0 359:0 360:0 361:0 362:0 363:0 364:0 365:0 366:0 367:0 368:0 369:0 370:0 371:0 372:0 373:0 374:0 375:0 376:0 377:0 378:0.076923 379:0 380:0 381:0 382:0 383:0 384:0 385:0.038462 386:0 387:0 388:0 389:0 390:0 391:0.038462 392:0.038462 393:0 394:0 395:0 396:0 397:0 398:0 399:0 400:0 401:0 402:0 403:0 404:0 405:0 406:0 407:0 408:0 409:0 410:0 411:0.076923 412:0 413:0.038462 414:0.538462 415:0.076923 416:0 417:0 418:0 419:0 420:0 421:0 422:0 423:0 424:0 425:0 426:0 427:0 428:0 429:0 430:0 431:0 432:0 433:0 434:0 435:0 436:0 437:0.038462 438:0 439:0 440:0 441:0 442:0 443:0 444:0.076923 445:0 446:0 447:0 448:0 449:0 450:0.076923 451:0.076923 452:0 453:0 454:0 455:0 456:0 457:0 458:0 459:0 460:0 461:0 462:0 463:0 464:0 465:0 466:0 467:0 468:0 469:0 470:0.076923 471:0 472:0.038462 473:0.692308 474:0 475:0 476:0 477:0 478:0.038462 479:0 480:0 481:0 482:0 483:0 484:0 485:0 486:0 487:0 488:0 489:0 490:0 491:0 492:0 493:0 494:0 495:0 496:0 497:0 498:0 499:0 500:0 501:0 502:0 503:0.076923 504:0 505:0 506:0 507:0 508:0 509:0.038462 510:0.115385 511:0 512:0 513:0 514:0 515:0 516:0 517:0 518:0 519:0 520:0 521:0 522:0 523:0 524:0 525:0 526:0 527:0 528:0 529:0 530:0.038462 531:0 532:0.442308 533:0.134615 534:0.019231 535:0.019231 536:0.057692 537:0.019231 538:0.057692 539:0.019231 540:0.076923 541:0 542:0 543:0.019231 544:0.019231 545:0 546:0 547:0 548:0 549:0.019231 550:0 551:0 552:0 553:0 554:0 555:0 556:0 557:0 558:0 559:0 560:0 561:0 562:0 563:0 564:0 565:0.019231 566:0 567:0 568:0 569:0.019231 570:0 571:0 572:0 573:0 574:0 575:0 576:0 577:0 578:0 579:0 580:0 581:0 582:0 583:0 584:0 585:0 586:0 587:0 588:0.019231 589:0.019231 590:0.019231 
