svm_type c_svc
kernel_type rbf
gamma 2
nr_class 2
total_sv 131
rho 0.571881
label 1 -1
probA -4.52753
probB 0.277228
nr_sv 58 73
SV
0.6065477314627612 1:0 2:0 3:0.034803 4:0 5:0 6:0.133072 7:0.050158 8:0 9:0 10:0 11:0.271262 12:0 13:0 14:0.151498 15:0.050158 16:0 17:0 18:0 19:0.279452 20:0.038898 21:0.030709 22:0.049134 23:0 24:0 25:0.089056 26:0.31016 27:0 28:0.007165 29:0.034803 30:0 31:0.021496 32:0 33:0 34:0.368508 35:0 36:0 37:0 38:0 39:0.082914 40:0.020473 41:0 42:0.085985 43:0 44:0 45:0 46:0.006142 47:0.039922 48:0.139214 49:0.036851 50:0 51:0.037874 52:0.144332 53:0 54:0 55:0 56:0 57:0 58:0 59:0.044016 60:0.048111 61:0.017402 62:0.024567 63:0 64:0 65:0 66:0 67:0.006142 68:0 69:0.105434 70:0.030709 71:0 72:0.057323 73:0 74:0 75:0.528209 76:0.077796 77:0.061418 78:0.419689 79:0.100316 80:0 
0.7468049641864203 1:0 2:0 3:0 4:0.08036 5:0.037669 6:0 7:0 8:0 9:0 10:0 11:0.035158 12:0.042691 13:0 14:0 15:0 16:0 17:0 18:0 19:0.035158 20:0.047714 21:0.052736 22:0 23:0 24:0 25:0.509306 26:0.035158 27:0 28:0 29:0 30:0 31:0.02009 32:0 33:0.057759 34:0.055248 35:0 36:0 37:0 38:0 39:0.017579 40:0.130585 41:0 42:0.02009 43:0 44:0 45:0.354087 46:0 47:0.017579 48:0.261171 49:0 50:0 51:0.02009 52:0.35911 53:0.035158 54:0 55:0.017579 56:0 57:0 58:0 59:0 60:0 61:0.190856 62:0 63:0 64:0 65:0 66:0 67:0 68:0 69:0.467094 70:0 71:0 72:0.032646 73:0 74:0 75:0.113745 76:0.263682 77:0.186129 78:0 79:0 80:0 
0.9064689002873193 1:0.027137 2:0.127335 3:0 4:0.083498 5:0 6:0 7:0 8:0 9:0.027137 10:0.127335 11:0 12:0.050099 13:0 14:0 15:0.085586 16:0.125248 17:0 18:0.022962 19:0 20:0 21:0.012525 22:0.012525 23:0.085586 24:0.125248 25:0.256758 26:0.306857 27:0 28:0 29:0 30:0 31:0.079323 32:0 33:0 34:0.315206 35:0 36:0 37:0 38:0 39:0.227533 40:0 41:0 42:0.029224 43:0 44:0 45:0 46:0 47:0.204571 48:0.242145 49:0 50:0 51:0.066799 52:0.348606 53:0 54:0 55:0 56:0 57:0 58:0 59:0 60:0.13986 61:0.048012 62:0 63:0 64:0 65:0 66:0 67:0 68:0 69:0.329819 70:0 71:0 72:0.064711 73:0.056212 74:0.31133 75:0 76:0.172961 77:0.025944 78:0.025944 79:0.177285 80:0.259441 
2.171176497007202 1:0 2:0 3:0.081798 4:0.005707 5:0 6:0.194032 7:0.021876 8:0.005707 9:0 10:0 11:0.232078 12:0 13:0 14:0.271074 15:0.133159 16:0 17:0.014267 18:0 19:0.214006 20:0 21:0.014267 22:0.084651 23:0.111283 24:0 25:0.054215 26:0.13411 27:0.035192 28:0.091309 29:0 30:0 31:0.01712 32:0 33:0 34:0.145524 35:0.049459 36:0 37:0 38:0 39:0.055166 40:0.029485 41:0 42:0.011414 43:0.014267 44:0 45:0.015218 46:0.011414 47:0.05041 48:0.132208 49:0.00856 50:0 51:0.011414 52:0.087505 53:0 54:0.006658 55:0.006658 56:0 57:0 58:0 59:0.011414 60:0.064677 61:0.007609 62:0.03329 63:0.012365 64:0 65:0 66:0 67:0 68:0 69:0.019023 70:0.026632 71:0.005707 72:0.113185 73:0.029083 74:0 75:0.530143 76:0.011633 77:0.029083 78:0.530143 79:0.27144 80:0.011633 
1.632029579808522 1:0 2:0 3:0.091231 4:0 5:0 6:0.196049 7:0 8:0 9:0 10:0 11:0.25234 12:0 13:0 14:0.320277 15:0 16:0 17:0 18:0 19:0.231959 20:0 21:0.011646 22:0.093172 23:0 24:0.005823 25:0.057262 26:0.056291 27:0.012617 28:0.101906 29:0 30:0 31:0.025234 32:0 33:0 34:0.056291 35:0.020381 36:0 37:0 38:0 39:0.044645 40:0.066967 41:0 42:0 43:0 44:0 45:0 46:0 47:0.019411 48:0.158198 49:0.016499 50:0 51:0 52:0.112582 53:0.01747 54:0 55:0 56:0 57:0 58:0 59:0 60:0.05338 61:0 62:0 63:0 64:0.023293 65:0 66:0 67:0 68:0 69:0 70:0 71:0 72:0.14461 73:0 74:0 75:0.562572 76:0 77:0.023799 78:0.562572 79:0 80:0.0119 
0.17173224123754 1:0.068532 2:0 3:0.014991 4:0.01285 5:0.057824 6:0 7:0 8:0.014991 9:0.068532 10:0 11:0.055682 12:0.01285 13:0.021416 14:0.029983 15:0 16:0 17:0 18:0 19:0.096373 20:0.034266 21:0 22:0.044974 23:0 24:0 25:0.436892 26:0.233437 27:0 28:0.014991 29:0 30:0 31:0.115648 32:0 33:0.070674 34:0.233437 35:0.068532 36:0 37:0 38:0 39:0.346944 40:0 41:0 42:0 43:0.068532 44:0 45:0.055682 46:0 47:0.27627 48:0.336236 49:0.269845 50:0 51:0.01285 52:0.068532 53:0 54:0 55:0 56:0 57:0 58:0 59:0.01285 60:0.068532 61:0.115648 62:0 63:0 64:0 65:0 66:0 67:0 68:0 69:0.351227 70:0.021416 71:0 72:0.062107 73:0.140872 74:0 75:0.228916 76:0.096849 77:0.11886 78:0.092447 79:0 80:0.030816 
4.312333313638181 1:0 2:0 3:0 4:0 5:0 6:0 7:0 8:0 9:0 10:0 11:0 12:0 13:0 14:0 15:0 16:0 17:0 18:0 19:0 20:0 21:0 22:0 23:0 24:0 25:0.065617 26:0.447388 27:0 28:0 29:0 30:0 31:0 32:0 33:0.065617 34:0.411597 35:0 36:0 37:0 38:0 39:0.351946 40:0 41:0 42:0 43:0 44:0 45:0 46:0 47:0.351946 48:0.041756 49:0.208781 50:0 51:0 52:0.226677 53:0.041756 54:0 55:0 56:0 57:0.125269 58:0 59:0 60:0.226677 61:0.167025 62:0 63:0 64:0 65:0 66:0 67:0.035791 68:0 69:0.423528 70:0 71:0 72:0 73:0 74:0 75:0 76:0 77:0 78:0 79:0 80:0 
1.782158849933962 1:0.026044 2:0 3:0 4:0.12421 5:0.072122 6:0 7:0 8:0 9:0.026044 10:0 11:0 12:0.078132 13:0.074125 14:0.014024 15:0.030051 16:0.016027 17:0 18:0 19:0 20:0 21:0.040068 22:0.014024 23:0.030051 24:0.040068 25:0.156264 26:0.438742 27:0.194329 28:0.030051 29:0 30:0 31:0.064108 32:0 33:0 34:0.518114 35:0.232393 36:0 37:0 38:0 39:0.102173 40:0.042071 41:0 42:0.234396 43:0.056095 44:0 45:0 46:0 47:0.064108 48:0.264447 49:0 50:0 51:0.01202 52:0.224379 53:0 54:0 55:0 56:0 57:0 58:0 59:0 60:0.132224 61:0.038064 62:0 63:0 64:0 65:0 66:0 67:0 68:0 69:0.152257 70:0 71:0 72:0.108183 73:0.052986 74:0 75:0 76:0.252703 77:0.228248 78:0.028531 79:0.061138 80:0.081517 
1.183253546444691 1:0.185874 2:0 3:0 4:0 5:0 6:0 7:0.020653 8:0 9:0.059377 10:0 11:0 12:0 13:0 14:0 15:0.116171 16:0.072284 17:0 18:0 19:0 20:0 21:0 22:0 23:0.175548 24:0.041305 25:0.214272 26:0.291719 27:0 28:0 29:0 30:0 31:0 32:0 33:0 34:0.281393 35:0.04905 36:0 37:0 38:0 39:0.095519 40:0 41:0 42:0 43:0.04905 44:0 45:0 46:0 47:0.095519 48:0.283975 49:0 50:0 51:0.025816 52:0.330443 53:0 54:0.025816 55:0.023234 56:0 57:0 58:0 59:0.025816 60:0.043887 61:0.033561 62:0.105845 63:0.023234 64:0 65:0 66:0 67:0 68:0 69:0.327862 70:0.054213 71:0 72:0 73:0.398302 74:0 75:0 76:0 77:0 78:0 79:0.42043 80:0.154895 
0.6576189949930242 1:0.119575 2:0.036974 3:0 4:0 5:0.019667 6:0 7:0 8:0.113281 9:0.159695 10:0 11:0 12:0 13:0.01416 14:0 15:0.00708 16:0.132161 17:0.095188 18:0.022027 19:0 20:0 21:0.006293 22:0 23:0.017307 24:0.01888 25:0.052707 26:0.343777 27:0 28:0 29:0 30:0 31:0.215549 32:0 33:0 34:0.528407 35:0 36:0 37:0 38:0 39:0.249376 40:0 41:0 42:0.285563 43:0.02124 44:0.010227 45:0.017307 46:0.008653 47:0.033827 48:0.116428 49:0.090468 50:0 51:0 52:0.01888 53:0.01416 54:0 55:0 56:0 57:0.019667 58:0 59:0 60:0.01888 61:0.01416 62:0 63:0 64:0.033827 65:0 66:0 67:0 68:0 69:0.103841 70:0 71:0 72:0.050347 73:0.441455 74:0.121279 75:0 76:0 77:0.053363 78:0 79:0.035575 80:0.271665 
0.7340982009306801 1:0.010688 2:0 3:0.111738 4:0.031092 5:0.024291 6:0 7:0 8:0 9:0.010688 10:0 11:0.058298 12:0.031092 13:0.037894 14:0 15:0 16:0.19044 17:0.027206 18:0 19:0 20:0.022348 21:0.013603 22:0 23:0 24:0.19044 25:0 26:0.5141 27:0 28:0 29:0 30:0 31:0 32:0 33:0 34:0.5141 35:0 36:0 37:0 38:0 39:0.021376 40:0 41:0 42:0.191412 43:0 44:0 45:0 46:0 47:0.028177 48:0.197241 49:0 50:0.00583 51:0 52:0.209873 53:0 54:0.00583 55:0.013603 56:0 57:0 58:0 59:0.008745 60:0.074816 61:0.012631 62:0.022348 63:0.03595 64:0 65:0 66:0 67:0.051497 68:0 69:0.125341 70:0.031092 71:0.028177 72:0.102993 73:0.075787 74:0 75:0.223476 76:0.10688 77:0.075787 78:0 79:0 80:0.38088 
0.9979854364366492 1:0 2:0 3:0 4:0.013693 5:0.038796 6:0 7:0 8:0 9:0 10:0 11:0 12:0 13:0 14:0.013693 15:0 16:0 17:0 18:0 19:0 20:0.03195 21:0 22:0.013693 23:0 24:0 25:0.314936 26:0.235061 27:0.054772 28:0 29:0.104979 30:0 31:0.1278 32:0 33:0 34:0.303526 35:0.054772 36:0 37:0 38:0 39:0.463276 40:0 41:0 42:0 43:0 44:0 45:0.029668 46:0 47:0.383401 48:0.406222 49:0.1917 50:0 51:0.075311 52:0.043361 53:0.079875 54:0.050207 55:0.018257 56:0 57:0 58:0 59:0.107261 60:0 61:0 62:0.164315 63:0.034232 64:0 65:0 66:0 67:0.03195 68:0 69:0.182572 70:0.084439 71:0.015975 72:0.198547 73:0 74:0 75:0 76:0.091286 77:0.077593 78:0.027386 79:0 80:0 
0.7693580392509624 1:0.005918 2:0.154864 3:0 4:0 5:0.006905 6:0 7:0.160783 8:0 9:0 10:0.239695 11:0 12:0 13:0.009864 14:0.015782 15:0.20813 16:0.008878 17:0 18:0.08483 19:0.051293 20:0 21:0.016769 22:0.015782 23:0.055238 24:0.016769 25:0.161769 26:0.130204 27:0 28:0 29:0 30:0 31:0.105545 32:0.030578 33:0.161769 34:0.374831 35:0 36:0 37:0 38:0 39:0.068061 40:0 41:0 42:0.264355 43:0.006905 44:0 45:0 46:0 47:0.141055 48:0.099626 49:0 50:0 51:0 52:0.19728 53:0 54:0 55:0 56:0 57:0 58:0 59:0.018742 60:0.072993 61:0.006905 62:0.011837 63:0 64:0 65:0 66:0 67:0.04932 68:0 69:0.040442 70:0.021701 71:0 72:0.167688 73:0.011837 74:0.479389 75:0.102585 76:0 77:0.047347 78:0.031565 79:0.432042 80:0.033538 
0.1800797437324063 1:0 2:0 3:0 4:0.046374 5:0 6:0 7:0.042807 8:0.021404 9:0 10:0 11:0 12:0.071345 13:0 14:0.021404 15:0 16:0 17:0 18:0 19:0 20:0.096316 21:0 22:0.021404 23:0 24:0 25:0.292516 26:0 27:0.128422 28:0.153393 29:0.15696 30:0 31:0 32:0 33:0.292516 34:0 35:0.178363 36:0 37:0 38:0 39:0 40:0.021404 41:0 42:0 43:0.049942 44:0 45:0 46:0 47:0 48:0.552159 49:0.089182 50:0 51:0 52:0.199767 53:0.15696 54:0 55:0 56:0 57:0.089182 58:0 59:0 60:0.035673 61:0.114153 62:0 63:0 64:0 65:0 66:0 67:0 68:0 69:0.395967 70:0 71:0 72:0.239007 73:0 74:0 75:0 76:0.291089 77:0 78:0.043663 79:0.087327 80:0.043663 
0.1363097738028599 1:0 2:0 3:0.032524 4:0.057543 5:0 6:0.062547 7:0 8:0 9:0 10:0 11:0.090067 12:0.057543 13:0 14:0.090067 15:0 16:0 17:0 18:0 19:0.155116 20:0.020015 21:0.020015 22:0 23:0 24:0 25:0.412808 26:0.037528 27:0.157618 28:0 29:0 30:0 31:0.042532 32:0 33:0.035026 34:0.157618 35:0.157618 36:0 37:0 38:0 39:0.192644 40:0 41:0 42:0.075056 43:0 44:0 45:0 46:0 47:0.150112 48:0.457842 49:0.175131 50:0 51:0.052539 52:0.112584 53:0 54:0.110082 55:0 56:0 57:0 58:0 59:0.082562 60:0.035026 61:0 62:0.265198 63:0 64:0 65:0 66:0 67:0.030022 68:0 69:0.22767 70:0.142606 71:0 72:0.12009 73:0 74:0 75:0.37528 76:0.155116 77:0.04003 78:0.180134 79:0 80:0 
1.114166015768228 1:0 2:0 3:0.038963 4:0.068934 5:0 6:0.026974 7:0 8:0.044957 9:0 10:0 11:0.06294 12:0.068934 13:0 14:0.026974 15:0 16:0 17:0 18:0 19:0.086917 20:0.053948 21:0 22:0 23:0 24:0 25:0.191816 26:0.19781 27:0.053948 28:0.176831 29:0.047954 30:0 31:0.113891 32:0 33:0.161845 34:0.296716 35:0.110894 36:0 37:0 38:0 39:0.287724 40:0 41:0 42:0.098905 43:0.056945 44:0 45:0 46:0 47:0.173833 48:0.504373 49:0.221788 50:0 51:0.023977 52:0.074928 53:0 54:0.074928 55:0.04196 56:0 57:0.071931 58:0 59:0.023977 60:0.092911 61:0.032968 62:0.152854 63:0.04196 64:0 65:0 66:0 67:0 68:0.017983 69:0.209799 70:0.1049 71:0 72:0.212796 73:0 74:0 75:0.251759 76:0.245765 77:0 78:0.053948 79:0 80:0.089914 
0.2210091452472222 1:0.029204 2:0 3:0 4:0 5:0.025959 6:0 7:0 8:0.051919 9:0.029204 10:0 11:0 12:0 13:0.025959 14:0 15:0 16:0 17:0.019469 18:0 19:0 20:0.025959 21:0.029204 22:0 23:0 24:0 25:0.524708 26:0.110327 27:0.038939 28:0 29:0 30:0 31:0.077878 32:0 33:0.220654 34:0.110327 35:0.162246 36:0 37:0 38:0 39:0.17847 40:0.029204 41:0 42:0 43:0.123307 44:0 45:0 46:0 47:0.100592 48:0.524708 49:0.217409 50:0 51:0.094103 52:0.081123 53:0 54:0.084368 55:0.029204 56:0 57:0.071388 58:0 59:0.094103 60:0.077878 61:0 62:0.20443 63:0.029204 64:0 65:0 66:0 67:0 68:0.025959 69:0.220654 70:0.139531 71:0 72:0.194695 73:0.099464 74:0 75:0 76:0.053047 77:0.112726 78:0 79:0 80:0.106095 
0.1622637679419001 1:0.139747 2:0.051664 3:0 4:0 5:0 6:0 7:0.025409 8:0.165156 9:0.149911 10:0.05844 11:0.00847 12:0 13:0 14:0 15:0.005929 16:0.18633 17:0.024562 18:0.073685 19:0.015245 20:0 21:0 22:0 23:0 24:0.021174 25:0.033031 26:0.228678 27:0.059287 28:0 29:0 30:0 31:0.270178 32:0 33:0 34:0.50096 35:0.059287 36:0 37:0 38:0 39:0.287964 40:0 41:0 42:0.276107 43:0.00847 44:0 45:0 46:0.005082 47:0.023715 48:0.104175 49:0 50:0 51:0 52:0.009316 53:0.06945 54:0 55:0 56:0 57:0 58:0 59:0 60:0 61:0.026256 62:0 63:0 64:0.017786 65:0 66:0 67:0 68:0 69:0.075379 70:0 71:0 72:0.050817 73:0.328618 74:0.250699 75:0.03049 76:0 77:0 78:0 79:0.050817 80:0.37266 
2.438069632854451 1:0.037972 2:0 3:0.056957 4:0.064341 5:0 6:0.007383 7:0.017931 8:0 9:0.037972 10:0.006329 11:0.034807 12:0.064341 13:0.089655 14:0 15:0.017931 16:0.111805 17:0.007383 18:0 19:0.016876 20:0.072779 21:0.089655 22:0 23:0 24:0.138175 25:0.006329 26:0.534093 27:0 28:0 29:0 30:0 31:0.009493 32:0 33:0 34:0.531603 35:0 36:0 37:0 38:0 39:0.013712 40:0.012657 41:0 42:0.113915 43:0.011602 44:0 45:0.006329 46:0 47:0.013712 48:0.177201 49:0 50:0 51:0.020041 52:0.167708 53:0.021095 54:0.009493 55:0 56:0 57:0 58:0 59:0.02215 60:0.045355 61:0.033753 62:0.006329 63:0 64:0 65:0 66:0 67:0.02215 68:0 69:0.22572 70:0.015822 71:0.041136 72:0 73:0.09395 74:0.013109 75:0.152941 76:0.284034 77:0.185714 78:0.015294 79:0.037143 80:0.286219 
1.345803767419108 1:0 2:0 3:0 4:0.147112 5:0.025585 6:0 7:0.019189 8:0 9:0 10:0 11:0 12:0.1663 13:0.047971 14:0 15:0 16:0 17:0.022387 18:0 19:0 20:0.047971 21:0.041575 22:0 23:0 24:0 25:0.278234 26:0 27:0.019189 28:0.246253 29:0 30:0 31:0.08315 32:0 33:0.13432 34:0.044773 35:0.019189 36:0.121527 37:0 38:0 39:0.102339 40:0.051169 41:0 42:0.044773 43:0 44:0 45:0.089546 46:0 47:0.019189 48:0.514598 49:0.201479 50:0 51:0 52:0.111933 53:0 54:0 55:0 56:0 57:0.063962 58:0 59:0 60:0.073556 61:0.054367 62:0 63:0 64:0 65:0 66:0 67:0 68:0 69:0.476515 70:0 71:0 72:0 73:0.045747 74:0 75:0 76:0.398648 77:0.13724 78:0 79:0.039211 80:0 
2.057290682669844 1:0 2:0.116008 3:0 4:0.027928 5:0.007519 6:0 7:0.184753 8:0 9:0 10:0.219126 11:0.033299 12:0.009667 13:0.029002 14:0.024705 15:0.199791 16:0.029002 17:0 18:0.061226 19:0.109563 20:0.007519 21:0.050485 22:0.032224 23:0.015038 24:0.029002 25:0.213755 26:0.135342 27:0 28:0 29:0 30:0 31:0.181531 32:0.038669 33:0.213755 34:0.29539 35:0.024705 36:0 37:0 38:0 39:0.118156 40:0 41:0 42:0.218052 43:0.024705 44:0 45:0 46:0 47:0.177234 48:0.113859 49:0 50:0 51:0 52:0.16327 53:0.013964 54:0.016112 55:0 56:0 57:0 58:0 59:0.006445 60:0.054781 61:0.011816 62:0.030076 63:0.007519 64:0 65:0 66:0 67:0.006445 68:0 69:0.205162 70:0.035447 71:0.027928 72:0 73:0 74:0.438251 75:0.219126 76:0.070894 77:0.116008 78:0.064449 79:0.399582 80:0.058004 
2.600122347007982 1:0.171559 2:0.081881 3:0 4:0 5:0 6:0 7:0.014622 8:0.183256 9:0.228096 10:0 11:0.005849 12:0 13:0 14:0 15:0.014622 16:0.214449 17:0.06336 18:0.029243 19:0.005849 20:0 21:0 22:0 23:0 24:0.038016 25:0.043865 26:0.269036 27:0.038016 28:0 29:0.007798 30:0 31:0.125745 32:0 33:0 34:0.343118 35:0.038016 36:0 37:0 38:0 39:0.240768 40:0.014622 41:0 42:0.08578 43:0.025344 44:0 45:0 46:0.012672 47:0.115023 48:0.133543 49:0 50:0 51:0 52:0.092603 53:0 54:0 55:0 56:0 57:0 58:0 59:0 60:0.030218 61:0.009748 62:0 63:0 64:0.021445 65:0 66:0 67:0 68:0 69:0.114048 70:0 71:0 72:0.030218 73:0.482889 74:0.228421 75:0.012022 76:0 77:0 78:0 79:0.030055 80:0.454838 
0.6104327576490554 1:0 2:0 3:0.024579 4:0.089098 5:0.021506 6:0 7:0 8:0.021506 9:0 10:0 11:0.101387 12:0.089098 13:0 14:0.05223 15:0.021506 16:0 17:0 18:0 19:0.202774 20:0.021506 21:0.021506 22:0.05223 23:0.021506 24:0 25:0.255004 26:0.147472 27:0.055302 28:0.122894 29:0.116749 30:0 31:0 32:0 33:0.135183 34:0.129038 35:0.129038 36:0 37:0 38:0 39:0.018434 40:0.027651 41:0 42:0 43:0.073736 44:0 45:0.064519 46:0 47:0.018434 48:0.505176 49:0.227353 50:0 51:0.046085 52:0.036868 53:0.082953 54:0.043013 55:0 56:0 57:0 58:0 59:0.046085 60:0.036868 61:0.082953 62:0.086025 63:0 64:0 65:0 66:0 67:0 68:0 69:0.2888 70:0.043013 71:0 72:0.175123 73:0 74:0 75:0.464591 76:0.226017 77:0.087896 78:0.10673 79:0.043948 80:0.043948 
0.664642006988416 1:0.161758 2:0 3:0 4:0 5:0 6:0 7:0.024416 8:0 9:0.073249 10:0 11:0 12:0 13:0 14:0 15:0.177018 16:0 17:0 18:0 19:0 20:0 21:0 22:0 23:0.170914 24:0 25:0.283839 26:0.219746 27:0 28:0 29:0 30:0 31:0 32:0 33:0 34:0.219746 35:0.051885 36:0 37:0 38:0 39:0.097665 40:0.048832 41:0 42:0 43:0 44:0 45:0 46:0 47:0.097665 48:0.347931 49:0.048832 50:0 51:0.057989 52:0.320463 53:0 54:0 55:0 56:0 57:0 58:0 59:0.076301 60:0.042728 61:0.051885 62:0.018312 63:0 64:0 65:0 66:0 67:0 68:0 69:0.329619 70:0.018312 71:0 72:0.091561 73:0.343735 74:0 75:0 76:0 77:0 78:0 79:0.479932 80:0 
0.4492079752274144 1:0.017249 2:0.046819 3:0 4:0.068996 5:0 6:0 7:0 8:0 9:0.017249 10:0.046819 11:0 12:0 13:0 14:0 15:0.049283 16:0.088709 17:0 18:0 19:0 20:0 21:0 22:0.014785 23:0.049283 24:0.088709 25:0.056675 26:0.497759 27:0 28:0 29:0 30:0 31:0 32:0 33:0 34:0.404121 35:0 36:0 37:0 38:0 39:0.199596 40:0.027106 41:0 42:0.024642 43:0 44:0 45:0 46:0 47:0.344981 48:0.167562 49:0 50:0 51:0 52:0.443547 53:0 54:0 55:0 56:0 57:0 58:0 59:0 60:0.118279 61:0.044355 62:0 63:0 64:0 65:0 66:0 67:0 68:0 69:0.174955 70:0 71:0 72:0.229166 73:0.034498 74:0.093638 75:0 76:0.137993 77:0 78:0.02957 79:0.098566 80:0.177419 
0.7675988616926116 1:0 2:0.026937 3:0 4:0 5:0 6:0 7:0 8:0 9:0 10:0.065419 11:0.04233 12:0 13:0 14:0 15:0.057723 16:0 17:0 18:0 19:0.065419 20:0 21:0 22:0 23:0.103901 24:0 25:0.076963 26:0.388665 27:0 28:0 29:0 30:0 31:0 32:0 33:0 34:0.384817 35:0 36:0 37:0 38:0 39:0.277068 40:0 41:0 42:0 43:0 44:0 45:0 46:0 47:0.300157 48:0.277068 49:0.142382 50:0 51:0 52:0.234738 53:0.119293 54:0 55:0 56:0 57:0 58:0 59:0 60:0.115445 61:0.08466 62:0 63:0 64:0 65:0 66:0 67:0 68:0 69:0.481021 70:0 71:0 72:0 73:0 74:0.136785 75:0.136785 76:0 77:0 78:0 79:0.217247 80:0 
0.3988420326021197 1:0 2:0 3:0 4:0 5:0 6:0 7:0 8:0 9:0 10:0 11:0 12:0 13:0 14:0 15:0 16:0 17:0 18:0 19:0 20:0 21:0 22:0 23:0 24:0 25:0.473224 26:0.161208 27:0 28:0 29:0 30:0 31:0 32:0 33:0.083204 34:0.161208 35:0 36:0 37:0 38:0 39:0.223611 40:0.062403 41:0 42:0 43:0 44:0 45:0.124806 46:0 47:0.140407 48:0.301615 49:0 50:0 51:0.036402 52:0.379619 53:0.187209 54:0 55:0 56:0 57:0 58:0 59:0.067603 60:0.213211 61:0.161208 62:0 63:0 64:0 65:0 66:0 67:0 68:0 69:0.529623 70:0 71:0 72:0 73:0 74:0 75:0 76:0 77:0 78:0 79:0 80:0 
0.2269455504456006 1:0.140712 2:0.021413 3:0 4:0 5:0 6:0 7:0.024472 8:0 9:0.070356 10:0.021413 11:0 12:0 13:0 14:0 15:0.079533 16:0.082592 17:0 18:0 19:0 20:0 21:0 22:0 23:0.091769 24:0.082592 25:0.238599 26:0.232481 27:0 28:0 29:0 30:0 31:0 32:0 33:0 34:0.290601 35:0 36:0 37:0 38:0 39:0.26307 40:0 41:0 42:0 43:0 44:0 45:0 46:0 47:0.26307 48:0.287542 49:0 50:0 51:0.027531 52:0.376252 53:0 54:0 55:0.027531 56:0 57:0 58:0 59:0.027531 60:0.125417 61:0.033649 62:0.137653 63:0.027531 64:0 65:0 66:0 67:0 68:0 69:0.354839 70:0.104005 71:0 72:0 73:0.299013 74:0.045502 75:0 76:0 77:0 78:0 79:0.299013 80:0.175508 
0.3232703495046512 1:0 2:0 3:0 4:0 5:0 6:0 7:0 8:0 9:0 10:0 11:0 12:0 13:0 14:0 15:0 16:0.028148 17:0 18:0 19:0 20:0 21:0 22:0 23:0 24:0.028148 25:0.38469 26:0.075062 27:0 28:0 29:0 30:0 31:0 32:0 33:0.38469 34:0.075062 35:0.060988 36:0 37:0 38:0 39:0 40:0.389382 41:0 42:0 43:0 44:0 45:0 46:0.028148 47:0 48:0.41753 49:0.028148 50:0 51:0 52:0.431604 53:0.065679 54:0 55:0 56:0 57:0 58:0 59:0 60:0.164197 61:0.037531 62:0 63:0 64:0.093827 65:0 66:0 67:0 68:0 69:0.239259 70:0 71:0 72:0.267407 73:0 74:0 75:0 76:0 77:0 78:0 79:0 80:0.058307 
0.2387847834973927 1:0 2:0 3:0 4:0 5:0 6:0 7:0 8:0 9:0 10:0 11:0 12:0 13:0 14:0 15:0 16:0 17:0 18:0 19:0 20:0 21:0 22:0 23:0 24:0 25:0.344725 26:0.108861 27:0 28:0.036287 29:0 30:0 31:0 32:0 33:0.344725 34:0.108861 35:0 36:0.036287 37:0 38:0 39:0.211674 40:0.199578 41:0 42:0 43:0 44:0 45:0 46:0 47:0.254008 48:0.260056 49:0.169339 50:0 51:0 52:0.405204 53:0 54:0 55:0 56:0 57:0.169339 58:0 59:0 60:0.163291 61:0 62:0 63:0 64:0.042335 65:0 66:0 67:0 68:0 69:0.042335 70:0 71:0 72:0.517124 73:0 74:0 75:0 76:0 77:0 78:0 79:0 80:0 
0.3342190214736198 1:0 2:0 3:0 4:0 5:0 6:0 7:0 8:0 9:0 10:0 11:0 12:0 13:0 14:0 15:0 16:0 17:0 18:0 19:0 20:0 21:0 22:0 23:0 24:0 25:0.322262 26:0.202097 27:0 28:0 29:0 30:0 31:0 32:0 33:0.28949 34:0.169324 35:0 36:0 37:0 38:0 39:0.311338 40:0.240331 41:0 42:0 43:0 44:0 45:0 46:0 47:0.256717 48:0.240331 49:0.327724 50:0 51:0 52:0.081931 53:0.136552 54:0 55:0 56:0 57:0.180248 58:0 59:0 60:0 61:0.202097 62:0 63:0 64:0 65:0 66:0 67:0 68:0 69:0.507253 70:0 71:0 72:0.032772 73:0 74:0 75:0 76:0 77:0 78:0 79:0 80:0 
0.1433773111935382 1:0 2:0 3:0 4:0 5:0 6:0 7:0 8:0 9:0 10:0 11:0 12:0 13:0 14:0 15:0 16:0 17:0 18:0.028993 19:0 20:0 21:0 22:0 23:0 24:0 25:0.401071 26:0.082147 27:0.053154 28:0 29:0 30:0 31:0 32:0 33:0.401071 34:0.082147 35:0.053154 36:0 37:0 38:0 39:0.251274 40:0.202952 41:0 42:0 43:0 44:0 45:0 46:0 47:0.285099 48:0.260938 49:0.241609 50:0 51:0 52:0.318924 53:0 54:0 55:0 56:0 57:0 58:0 59:0 60:0.318924 61:0.048322 62:0 63:0 64:0 65:0 66:0 67:0 68:0 69:0.149798 70:0 71:0 72:0.338253 73:0 74:0.060057 75:0 76:0 77:0 78:0 79:0 80:0 
1.911227305409671 1:0 2:0 3:0 4:0 5:0 6:0 7:0 8:0 9:0.03146 10:0 11:0 12:0 13:0 14:0 15:0 16:0 17:0.03146 18:0 19:0 20:0 21:0 22:0 23:0 24:0 25:0.399987 26:0.053931 27:0 28:0 29:0.035954 30:0.026965 31:0 32:0 33:0.399987 34:0.053931 35:0 36:0 37:0 38:0 39:0.125839 40:0.292125 41:0 42:0 43:0 44:0 45:0 46:0 47:0.125839 48:0.332573 49:0.444929 50:0.03146 51:0 52:0 53:0.035954 54:0 55:0 56:0 57:0.188758 58:0 59:0 60:0 61:0.067414 62:0 63:0 64:0 65:0 66:0 67:0 68:0 69:0.444929 70:0 71:0 72:0 73:0.064886 74:0 75:0 76:0 77:0 78:0 79:0 80:0 
0.9036653801655118 1:0 2:0 3:0 4:0 5:0 6:0 7:0 8:0 9:0 10:0 11:0 12:0 13:0 14:0 15:0 16:0 17:0 18:0 19:0 20:0 21:0 22:0 23:0 24:0 25:0.045497 26:0.31848 27:0 28:0 29:0 30:0 31:0 32:0 33:0.045497 34:0.454971 35:0 36:0 37:0 38:0 39:0.375351 40:0.108056 41:0 42:0 43:0 44:0 45:0 46:0 47:0.409474 48:0.108056 49:0.085307 50:0 51:0 52:0.409474 53:0 54:0 55:0 56:0 57:0 58:0 59:0 60:0.187676 61:0.051184 62:0 63:0 64:0.108056 65:0 66:0 67:0 68:0 69:0.261609 70:0 71:0 72:0.250234 73:0 74:0 75:0 76:0 77:0 78:0 79:0 80:0 
3.194784467597624 1:0 2:0 3:0 4:0 5:0 6:0 7:0 8:0 9:0 10:0 11:0 12:0 13:0 14:0 15:0 16:0 17:0 18:0 19:0 20:0 21:0 22:0 23:0 24:0 25:0 26:0.439539 27:0 28:0 29:0 30:0 31:0 32:0 33:0 34:0.439539 35:0 36:0 37:0.041861 38:0 39:0.188374 40:0.132559 41:0 42:0 43:0 44:0 45:0.041861 46:0 47:0.188374 48:0.132559 49:0.069768 50:0 51:0 52:0.125583 53:0.355818 54:0 55:0 56:0 57:0 58:0 59:0 60:0.125583 61:0.244189 62:0 63:0 64:0.167444 65:0 66:0 67:0 68:0 69:0 70:0 71:0 72:0.503299 73:0 74:0 75:0 76:0 77:0 78:0 79:0 80:0 
1.173313452264226 1:0 2:0 3:0 4:0 5:0 6:0.257096 7:0 8:0 9:0 10:0 11:0.010668 12:0.045872 13:0 14:0.310435 15:0 16:0 17:0 18:0 19:0.010668 20:0.105612 21:0 22:0.053339 23:0.006401 24:0 25:0 26:0.263497 27:0 28:0 29:0.043738 30:0.006401 31:0.14295 32:0.022403 33:0 34:0.527212 35:0 36:0 37:0 38:0 39:0.178154 40:0.022403 41:0 42:0.267764 43:0 44:0 45:0 46:0 47:0.078942 48:0.018135 49:0 50:0 51:0.041605 52:0.037338 53:0 54:0 55:0 56:0 57:0 58:0 59:0.030937 60:0.037338 61:0.028803 62:0 63:0 64:0 65:0 66:0 67:0.017069 68:0 69:0.102412 70:0 71:0.010668 72:0 73:0 74:0 75:0.021336 76:0.211224 77:0 78:0.527212 79:0.012801 80:0 
1.548964013397847 1:0 2:0 3:0.024607 4:0.016405 5:0.024607 6:0.281618 7:0 8:0 9:0 10:0 11:0.095696 12:0 13:0 14:0.359542 15:0 16:0 17:0 18:0 19:0.161315 20:0 21:0 22:0.073822 23:0 24:0 25:0.047848 26:0.034177 27:0.047848 28:0.008202 29:0.008202 30:0 31:0.181822 32:0 33:0 34:0.226935 35:0.047848 36:0 37:0 38:0 39:0.328099 40:0 41:0 42:0.125771 43:0 44:0 45:0 46:0 47:0.146278 48:0.069721 49:0 50:0 51:0.019139 52:0.132607 53:0 54:0 55:0 56:0 57:0 58:0 59:0.019139 60:0.046481 61:0.038278 62:0 63:0 64:0 65:0 66:0 67:0 68:0 69:0.080658 70:0 71:0 72:0.095696 73:0 74:0 75:0.371846 76:0.03281 77:0.049215 78:0.572259 79:0 80:0 
0.2401581293941151 1:0.045137 2:0 3:0 4:0 5:0.020832 6:0 7:0 8:0 9:0 10:0 11:0 12:0 13:0.020832 14:0 15:0 16:0 17:0 18:0 19:0 20:0.093745 21:0 22:0 23:0 24:0 25:0.514633 26:0.086801 27:0 28:0 29:0 30:0 31:0.045137 32:0 33:0.15277 34:0.041665 35:0 36:0 37:0 38:0 39:0.131938 40:0.13541 41:0 42:0 43:0 44:0 45:0.204851 46:0 47:0.041665 48:0.440951 49:0 50:0 51:0.020832 52:0.416646 53:0 54:0 55:0.020832 56:0 57:0 58:0 59:0.020832 60:0.128466 61:0.142354 62:0 63:0.020832 64:0 65:0 66:0 67:0 68:0 69:0.142354 70:0 71:0.020832 72:0.364566 73:0.094377 74:0 75:0 76:0.196013 77:0.043558 78:0 79:0 80:0 
3.976639758887168 1:0 2:0.056965 3:0.027427 4:0 5:0 6:0 7:0.130808 8:0.012659 9:0 10:0.200431 11:0.027427 12:0 13:0 14:0 15:0.113929 16:0 17:0 18:0.143466 19:0 20:0 21:0 22:0 23:0.073843 24:0 25:0.3228 26:0.10549 27:0.052745 28:0 29:0 30:0 31:0.113929 32:0 33:0.088612 34:0.191992 35:0.052745 36:0 37:0 38:0 39:0.183553 40:0 41:0 42:0.086502 43:0 44:0 45:0 46:0 47:0.069623 48:0.327019 49:0.016878 50:0 51:0.040086 52:0.259506 53:0 54:0.063294 55:0 56:0 57:0 58:0 59:0.054855 60:0.120259 61:0.025318 62:0.116039 63:0 64:0 65:0 66:0 67:0.027427 68:0 69:0.278494 70:0.052745 71:0 72:0.018988 73:0 74:0.429495 75:0.058773 76:0 77:0 78:0 79:0.438537 80:0.027126 
0.3481278295475391 1:0 2:0 3:0.014808 4:0 5:0 6:0.381294 7:0 8:0 9:0 10:0 11:0.0981 12:0.024062 13:0 14:0.384996 15:0 16:0 17:0.046274 18:0 19:0.0981 20:0.061081 21:0 22:0.040721 23:0 24:0 25:0.153628 26:0.105504 27:0.033317 28:0.027764 29:0 30:0.025913 31:0 32:0 33:0.044423 34:0.105504 35:0.033317 36:0 37:0 38:0 39:0.155479 40:0.042572 41:0 42:0 43:0 44:0 45:0 46:0 47:0.124013 48:0.214709 49:0.016658 50:0 51:0.011106 52:0.17584 53:0 54:0 55:0 56:0 57:0 58:0 59:0.024062 60:0.092547 61:0.057379 62:0.012957 63:0.024062 64:0 65:0 66:0 67:0.012957 68:0 69:0.070336 70:0.012957 71:0.012957 72:0.135119 73:0.096754 74:0 75:0.236079 76:0.127715 77:0 78:0.624686 79:0 80:0 
2.382219889267404 1:0 2:0.014678 3:0 4:0 5:0.256862 6:0 7:0.03119 8:0.023851 9:0.027521 10:0.077059 11:0 12:0 13:0.183473 14:0 15:0.014678 16:0.023851 17:0.155952 18:0.062381 19:0 20:0 21:0 22:0 23:0 24:0 25:0.027521 26:0.258697 27:0 28:0.036695 29:0.020182 30:0 31:0.152283 32:0 33:0 34:0.396302 35:0 36:0 37:0 38:0 39:0.277044 40:0 41:0 42:0.137605 43:0 44:0 45:0.011008 46:0 47:0.177969 48:0.113753 49:0.011008 50:0 51:0.036695 52:0.20182 53:0 54:0.012843 55:0 56:0 57:0 58:0 59:0.047703 60:0.133935 61:0.011008 62:0.012843 63:0.012843 64:0 65:0 66:0 67:0.011008 68:0 69:0.16696 70:0 71:0.012843 72:0.040364 73:0.311904 74:0.154117 75:0 76:0 77:0.502775 78:0 79:0.062381 80:0.047703 
1.245022474999059 1:0.182849 2:0 3:0 4:0 5:0 6:0 7:0.05528 8:0 9:0.108434 10:0 11:0 12:0 13:0.012757 14:0 15:0.05528 16:0.093551 17:0 18:0.012757 19:0 20:0 21:0.012757 22:0 23:0 24:0.093551 25:0.153083 26:0.374202 27:0 28:0 29:0 30:0 31:0 32:0 33:0 34:0.323174 35:0 36:0 37:0 38:0 39:0.340184 40:0 41:0 42:0 43:0 44:0 45:0 46:0 47:0.340184 48:0.16584 49:0 50:0 51:0 52:0.386959 53:0 54:0 55:0 56:0 57:0 58:0 59:0 60:0.102055 61:0.059532 62:0 63:0 64:0 65:0 66:0 67:0 68:0 69:0.216867 70:0 71:0 72:0.104181 73:0.365697 74:0.025514 75:0 76:0 77:0.025514 78:0 79:0.11056 80:0.187101 
1.056296262516885 1:0.091709 2:0.067104 3:0.038025 4:0 5:0 6:0 7:0.069341 8:0 9:0.091709 10:0.067104 11:0.038025 12:0 13:0 14:0 15:0.185654 16:0 17:0 18:0 19:0.029078 20:0 21:0.017894 22:0 23:0.116313 24:0.013421 25:0.098419 26:0.346703 27:0 28:0 29:0 30:0 31:0.040262 32:0 33:0 34:0.34894 35:0.116313 36:0 37:0 38:0 39:0.199075 40:0 41:0 42:0.05592 43:0.116313 44:0 45:0 46:0 47:0.158812 48:0.212495 49:0 50:0 51:0 52:0.391439 53:0 54:0 55:0 56:0 57:0 58:0 59:0 60:0.18118 61:0 62:0 63:0 64:0 65:0 66:0 67:0 68:0 69:0 70:0 71:0 72:0.357887 73:0.183417 74:0.134208 75:0.134208 76:0 77:0.035789 78:0 79:0.371308 80:0.026842 
1.423791171271079 1:0.048568 2:0 3:0 4:0 5:0 6:0 7:0.104608 8:0 9:0 10:0.052304 11:0.044832 12:0 13:0 14:0 15:0.104608 16:0 17:0 18:0.052304 19:0.022416 20:0 21:0 22:0 23:0 24:0 25:0.291408 26:0.254048 27:0 28:0 29:0 30:0 31:0 32:0 33:0 34:0.254048 35:0 36:0 37:0 38:0 39:0.358657 40:0 41:0 42:0 43:0 44:0 45:0 46:0 47:0.24284 48:0.145704 49:0.403489 50:0 51:0 52:0.119552 53:0 54:0 55:0 56:0 57:0.14944 58:0 59:0 60:0 61:0 62:0 63:0 64:0.141968 65:0 66:0 67:0 68:0 69:0 70:0 71:0 72:0.503152 73:0.097136 74:0.104608 75:0.089664 76:0 77:0 78:0 79:0.209216 80:0 
2.259064388617206 1:0.066253 2:0.074895 3:0 4:0 5:0 6:0 7:0.017284 8:0.025925 9:0.069134 10:0.072015 11:0 12:0 13:0 14:0 15:0.09794 16:0.025925 17:0.040328 18:0.046089 19:0 20:0 21:0 22:0 23:0.092179 24:0.020164 25:0.34279 26:0 27:0 28:0 29:0 30:0 31:0 32:0 33:0.19588 34:0.063373 35:0 36:0 37:0 38:0 39:0.308223 40:0 41:0 42:0.063373 43:0 44:0 45:0 46:0 47:0.385999 48:0.100821 49:0.028806 50:0 51:0 52:0.452252 53:0 54:0 55:0 56:0 57:0 58:0 59:0 60:0.120985 61:0.020164 62:0 63:0 64:0 65:0 66:0 67:0 68:0 69:0.262133 70:0 71:0 72:0.204522 73:0.219433 74:0.249086 75:0 76:0 77:0 78:0 79:0.296531 80:0.09489 
0.258168433265781 1:0 2:0 3:0 4:0 5:0 6:0.019876 7:0 8:0 9:0 10:0 11:0 12:0 13:0.019876 14:0.039753 15:0 16:0 17:0 18:0 19:0 20:0 21:0.039753 22:0 23:0 24:0 25:0.212016 26:0.3379 27:0 28:0 29:0.019876 30:0 31:0.076193 32:0 33:0 34:0.420718 35:0.16895 36:0 37:0 38:0 39:0.215328 40:0.076193 41:0 42:0.082819 43:0.086131 44:0 45:0 46:0 47:0.139135 48:0.377653 49:0 50:0 51:0 52:0.460471 53:0 54:0 55:0 56:0 57:0 58:0 59:0 60:0.16895 61:0.069568 62:0 63:0 64:0 65:0 66:0 67:0 68:0 69:0.357776 70:0 71:0 72:0.099382 73:0 74:0 75:0 76:0 77:0.08199 78:0.08199 79:0 80:0 
1.791613563376779 1:0.014751 2:0.137676 3:0 4:0 5:0 6:0 7:0.08113 8:0 9:0.014751 10:0.177012 11:0 12:0 13:0 14:0 15:0.108174 16:0.017209 17:0 18:0 19:0 20:0 21:0 22:0 23:0.027043 24:0.017209 25:0.115549 26:0.19668 27:0 28:0 29:0.014751 30:0 31:0.051628 32:0 33:0.041794 34:0.194221 35:0.039336 36:0 37:0 38:0 39:0.449905 40:0 41:0 42:0.039336 43:0.039336 44:0 45:0 46:0 47:0.410569 48:0.103257 49:0.036877 50:0.09834 51:0 52:0.32698 53:0.019668 54:0 55:0 56:0 57:0 58:0 59:0 60:0.09834 61:0.019668 62:0 63:0 64:0.024585 65:0 66:0 67:0 68:0 69:0 70:0 71:0 72:0.368775 73:0.030321 74:0.363858 75:0 76:0 77:0 78:0 79:0.222358 80:0.035375 
0.7352281851670246 1:0 2:0 3:0 4:0.024532 5:0.045998 6:0 7:0 8:0 9:0 10:0 11:0 12:0 13:0.024532 14:0 15:0 16:0 17:0 18:0 19:0 20:0 21:0.021466 22:0 23:0 24:0.042931 25:0.119594 26:0.52306 27:0 28:0.024532 29:0 30:0 31:0 32:0 33:0 34:0.52306 35:0 36:0 37:0 38:0 39:0.091995 40:0.128793 41:0 42:0.116527 43:0 44:0 45:0 46:0 47:0.091995 48:0.355715 49:0.199323 50:0 51:0 52:0.095062 53:0.091995 54:0 55:0 56:0 57:0.104261 58:0 59:0 60:0 61:0 62:0 63:0 64:0.088929 65:0 66:0 67:0 68:0 69:0.024532 70:0 71:0 72:0.392513 73:0 74:0 75:0 76:0.049064 77:0.134926 78:0 79:0 80:0.085862 
2.153459145612118 1:0 2:0 3:0 4:0 5:0.035569 6:0 7:0 8:0 9:0 10:0 11:0.041497 12:0 13:0.071138 14:0 15:0 16:0 17:0 18:0 19:0.041497 20:0 21:0 22:0 23:0 24:0 25:0.331977 26:0.088923 27:0 28:0 29:0 30:0 31:0 32:0 33:0.296408 34:0.088923 35:0 36:0 37:0 38:0 39:0.201558 40:0.243055 41:0 42:0 43:0 44:0 45:0.035569 46:0 47:0.106707 48:0.331977 49:0.213414 50:0 51:0 52:0 53:0.361618 54:0 55:0 56:0 57:0 58:0 59:0 60:0 61:0.367546 62:0 63:0 64:0 65:0 66:0 67:0 68:0 69:0.456469 70:0 71:0 72:0.082994 73:0 74:0 75:0.082994 76:0 77:0.142276 78:0 79:0 80:0 
1.842644569245125 1:0 2:0.027215 3:0 4:0 5:0 6:0 7:0 8:0 9:0 10:0.05443 11:0 12:0 13:0 14:0 15:0 16:0 17:0 18:0.027215 19:0 20:0 21:0 22:0 23:0 24:0 25:0.353793 26:0 27:0.063501 28:0.031751 29:0.063501 30:0.027215 31:0 32:0 33:0.353793 34:0 35:0 36:0 37:0.063501 38:0 39:0 40:0.199576 41:0 42:0 43:0 44:0 45:0 46:0.027215 47:0 48:0.199576 49:0.551861 50:0.040822 51:0 52:0 53:0 54:0 55:0 56:0 57:0.149682 58:0 59:0 60:0 61:0 62:0 63:0 64:0.077109 65:0 66:0 67:0 68:0 69:0 70:0 71:0 72:0.551861 73:0 74:0.108859 75:0 76:0 77:0 78:0 79:0 80:0 
0.3195674816100383 1:0 2:0 3:0 4:0 5:0 6:0 7:0 8:0 9:0 10:0 11:0 12:0 13:0 14:0 15:0 16:0 17:0 18:0 19:0 20:0 21:0 22:0 23:0 24:0 25:0.252614 26:0.132519 27:0 28:0 29:0 30:0 31:0 32:0 33:0.252614 34:0.049695 35:0 36:0 37:0 38:0 39:0.422403 40:0.057977 41:0 42:0 43:0 44:0 45:0 46:0 47:0.484522 48:0.057977 49:0 50:0 51:0 52:0.508784 53:0.041412 54:0 55:0 56:0 57:0 58:0 59:0 60:0.082824 61:0.157366 62:0 63:0 64:0 65:0 66:0 67:0 68:0 69:0.327156 70:0 71:0 72:0.182213 73:0 74:0 75:0 76:0 77:0 78:0 79:0 80:0 
0.7658658089342871 1:0 2:0 3:0 4:0 5:0 6:0 7:0.029366 8:0 9:0 10:0 11:0 12:0 13:0 14:0 15:0 16:0 17:0 18:0 19:0 20:0 21:0 22:0 23:0 24:0 25:0.371975 26:0.029366 27:0 28:0 29:0.029366 30:0 31:0 32:0 33:0.274087 34:0 35:0 36:0 37:0.029366 38:0 39:0 40:0.327925 41:0 42:0 43:0 44:0 45:0 46:0 47:0 48:0.327925 49:0 50:0 51:0 52:0.547126 53:0 54:0 55:0 56:0 57:0 58:0 59:0 60:0.146832 61:0 62:0.029366 63:0 64:0 65:0 66:0 67:0 68:0 69:0.185988 70:0.029366 71:0 72:0.45518 73:0 74:0 75:0 76:0 77:0 78:0 79:0.059821 80:0 
0.8168565095111201 1:0 2:0 3:0 4:0 5:0.179324 6:0 7:0 8:0 9:0 10:0.172599 11:0 12:0 13:0.08742 14:0 15:0 16:0 17:0.069488 18:0.172599 19:0 20:0 21:0 22:0 23:0 24:0 25:0.186048 26:0.313817 27:0 28:0 29:0 30:0 31:0 32:0 33:0 34:0.504999 35:0 36:0 37:0 38:0 39:0.080696 40:0 41:0 42:0.127768 43:0 44:0 45:0 46:0 47:0.094145 48:0.174841 49:0 50:0 51:0.049314 52:0.244329 53:0.013449 54:0 55:0 56:0 57:0 58:0 59:0.091903 60:0.089662 61:0.035865 62:0.035865 63:0 64:0 65:0 66:0 67:0.020174 68:0 69:0.235362 70:0.035865 71:0 72:0.017932 73:0.148903 74:0.369855 75:0 76:0 77:0.384265 78:0 79:0 80:0 
2.2912505488843 1:0 2:0 3:0 4:0 5:0 6:0 7:0 8:0 9:0 10:0 11:0 12:0 13:0 14:0 15:0 16:0 17:0 18:0 19:0 20:0 21:0 22:0 23:0 24:0 25:0.017277 26:0.380102 27:0.025916 28:0 29:0.023037 30:0 31:0.123821 32:0 33:0 34:0.357066 35:0 36:0 37:0 38:0 39:0.517367 40:0 41:0.037434 42:0 43:0 44:0 45:0 46:0 47:0.45785 48:0.115183 49:0.279318 50:0 51:0 52:0 53:0 54:0 55:0 56:0 57:0.190051 58:0 59:0 60:0 61:0 62:0 63:0 64:0.100785 65:0 66:0 67:0 68:0 69:0 70:0 71:0 72:0.308113 73:0 74:0 75:0 76:0 77:0 78:0 79:0 80:0 
2.469310106079669 1:0.02257 2:0 3:0 4:0 5:0.06771 6:0 7:0.019346 8:0.054813 9:0.096728 10:0.019346 11:0 12:0 13:0.06771 14:0 15:0 16:0.025794 17:0.093504 18:0.019346 19:0.019346 20:0 21:0.041915 22:0 23:0 24:0 25:0.167662 26:0.312754 27:0.048364 28:0 29:0.029018 30:0 31:0.087055 32:0 33:0 34:0.473967 35:0.048364 36:0 37:0 38:0 39:0.322427 40:0 41:0 42:0.109625 43:0 44:0 45:0.051588 46:0 47:0.235372 48:0.238596 49:0.296633 50:0 51:0.04514 52:0.074158 53:0 54:0 55:0 56:0 57:0.051588 58:0 59:0.04514 60:0.074158 61:0 62:0 63:0 64:0 65:0 66:0 67:0 68:0 69:0.109625 70:0.02257 71:0 72:0.338548 73:0.23679 74:0.039465 75:0.039465 76:0 77:0.223635 78:0 79:0.039465 80:0.164438 
0.425581391303008 1:0 2:0 3:0.027361 4:0 5:0.046171 6:0.217176 7:0 8:0 9:0 10:0 11:0.100893 12:0.018811 13:0 14:0.162455 15:0 16:0 17:0 18:0 19:0.073532 20:0.092343 21:0.080372 22:0 23:0 24:0 25:0.099183 26:0.331749 27:0.205206 28:0 29:0 30:0 31:0 32:0 33:0 34:0.483944 35:0.205206 36:0 37:0 38:0 39:0.076952 40:0 41:0 42:0.203496 43:0 44:0 45:0.041041 46:0 47:0.076952 48:0.129964 49:0.117993 50:0 51:0.027361 52:0.100893 53:0 54:0 55:0.025651 56:0 57:0 58:0 59:0.027361 60:0.020521 61:0.039331 62:0 63:0.025651 64:0 65:0 66:0 67:0 68:0 69:0.141934 70:0 71:0 72:0.076952 73:0 74:0 75:0.201786 76:0.184685 77:0.253087 78:0.434352 79:0 80:0 
1.595382958980008 1:0 2:0 3:0.015679 4:0.013439 5:0 6:0 7:0 8:0 9:0 10:0 11:0.047038 12:0.033598 13:0.024639 14:0 15:0.015679 16:0 17:0 18:0 19:0.033598 20:0.020159 21:0.067197 22:0 23:0.015679 24:0 25:0.331504 26:0.19487 27:0.103035 28:0 29:0 30:0 31:0.105275 32:0 33:0 34:0.179191 35:0.311345 36:0 37:0 38:0 39:0.421099 40:0 41:0 42:0 43:0.103035 44:0 45:0.015679 46:0 47:0.40542 48:0.183671 49:0 50:0 51:0 52:0.318064 53:0 54:0 55:0 56:0 57:0 58:0 59:0 60:0.035838 61:0.125434 62:0 63:0 64:0 65:0 66:0 67:0 68:0 69:0.383021 70:0 71:0 72:0 73:0 74:0 75:0.125434 76:0.067197 77:0.134393 78:0 79:0.031358 80:0 
1.515462323364908 1:0 2:0 3:0.045077 4:0.026295 5:0 6:0.022538 7:0 8:0.048833 9:0 10:0 11:0.045077 12:0.026295 13:0 14:0.022538 15:0 16:0 17:0 18:0 19:0 20:0 21:0 22:0 23:0 24:0 25:0.210359 26:0.383154 27:0.026295 28:0 29:0.048833 30:0.063859 31:0.097667 32:0 33:0 34:0.45077 35:0.067615 36:0 37:0 38:0 39:0.409449 40:0 41:0 42:0.067615 43:0.169039 44:0 45:0.232898 46:0.056346 47:0.259193 48:0.056346 49:0.191577 50:0.026295 51:0.022538 52:0.022538 53:0.142744 54:0 55:0 56:0 57:0.086398 58:0 59:0.022538 60:0.022538 61:0.022538 62:0 63:0 64:0 65:0 66:0 67:0 68:0 69:0.221629 70:0 71:0 72:0.326808 73:0 74:0 75:0.091957 76:0.053642 77:0 78:0.045979 79:0 80:0.09962 
-0.2106268257896173 1:0 2:0.079944 3:0 4:0 5:0.038069 6:0 7:0 8:0 9:0.041875 10:0.076137 11:0 12:0 13:0.038069 14:0 15:0.030455 16:0.034262 17:0.07233 18:0.106592 19:0 20:0 21:0 22:0 23:0.064717 24:0.098978 25:0.087558 26:0.091364 27:0.114206 28:0.038069 29:0.041875 30:0 31:0 32:0 33:0.053296 34:0.39972 35:0 36:0 37:0 38:0 39:0.201763 40:0 41:0 42:0.224604 43:0 44:0 45:0.026648 46:0 47:0.201763 48:0.13324 49:0.262673 50:0.030455 51:0.030455 52:0.045682 53:0 54:0 55:0 56:0 57:0.022841 58:0 59:0.030455 60:0.186536 61:0.156081 62:0 63:0 64:0 65:0 66:0 67:0 68:0.091364 69:0.414947 70:0 71:0 72:0 73:0.154993 74:0.39972 75:0 76:0 77:0.081575 78:0 79:0.138678 80:0.285514 
-1.142833715333319 1:0.055634 2:0 3:0 4:0.012716 5:0.068351 6:0 7:0 8:0.050866 9:0 10:0 11:0 12:0 13:0.047687 14:0 15:0 16:0.049276 17:0.100142 18:0 19:0 20:0 21:0.033381 22:0 23:0 24:0.098552 25:0.149418 26:0.28612 27:0.044508 28:0.019075 29:0.015896 30:0 31:0.028612 32:0.058814 33:0.03497 34:0.267045 35:0.044508 36:0 37:0 38:0 39:0.456203 40:0 41:0.041328 42:0 43:0 44:0.047687 45:0 46:0 47:0.39262 48:0.163724 49:0.023843 50:0 51:0 52:0.238433 53:0.054045 54:0 55:0 56:0.093784 57:0.012716 58:0 59:0 60:0.100142 61:0.058814 62:0 63:0 64:0.076299 65:0.042918 66:0 67:0 68:0.025433 69:0.190747 70:0 71:0 72:0.133523 73:0.319342 74:0 75:0 76:0.026069 77:0.20855 78:0 79:0 80:0.306307 
-0.309703298961499 1:0 2:0 3:0 4:0 5:0.031803 6:0.278276 7:0 8:0 9:0 10:0 11:0.174917 12:0 13:0 14:0.300141 15:0.039754 16:0 17:0 18:0 19:0.145101 20:0.083483 21:0 22:0.057643 23:0.039754 24:0 25:0.061618 26:0.019877 27:0.023852 28:0 29:0.182867 30:0.168953 31:0 32:0.013914 33:0 34:0 35:0.212683 36:0 37:0.071557 38:0.176904 39:0.023852 40:0 41:0 42:0 43:0.178892 44:0.089446 45:0 46:0.023852 47:0.133175 48:0 49:0 50:0 51:0 52:0.087458 53:0.037766 54:0.021865 55:0 56:0.135163 57:0.065594 58:0 59:0 60:0.017889 61:0.043729 62:0 63:0 64:0.021865 65:0.141126 66:0 67:0.031803 68:0.047705 69:0.1292 70:0 71:0 72:0 73:0 74:0 75:0.384676 76:0.171877 77:0.065477 78:0.543748 79:0.081846 80:0 
-1.048527180980156 1:0.124531 2:0.036154 3:0.060257 4:0 5:0 6:0 7:0.120513 8:0.084359 9:0.100428 10:0 11:0.060257 12:0 13:0 14:0 15:0.120513 16:0.084359 17:0.132565 18:0 19:0 20:0.092394 21:0.024103 22:0 23:0 24:0 25:0.128548 26:0.273164 27:0 28:0 29:0 30:0 31:0.048205 32:0 33:0 34:0.273164 35:0.036154 36:0 37:0 38:0 39:0.148633 40:0.044188 41:0.068291 42:0 43:0.036154 44:0 45:0 46:0 47:0.100428 48:0.044188 49:0 50:0 51:0 52:0.325386 53:0 54:0 55:0 56:0 57:0 58:0.024103 59:0.024103 60:0.261112 61:0 62:0 63:0 64:0.124531 65:0 66:0.024103 67:0.024103 68:0 69:0.02812 70:0.100428 71:0 72:0.293249 73:0.50287 74:0.072308 75:0.120513 76:0.184787 77:0.048205 78:0 79:0.241027 80:0.168719 
-0.7633457172080191 1:0.073586 2:0 3:0 4:0 5:0 6:0 7:0.029434 8:0.132455 9:0 10:0.044152 11:0.053963 12:0 13:0 14:0 15:0.122643 16:0.132455 17:0 18:0.044152 19:0.053963 20:0 21:0 22:0 23:0.049057 24:0.029434 25:0 26:0.166795 27:0 28:0 29:0 30:0 31:0 32:0.029434 33:0 34:0.367929 35:0.107926 36:0 37:0 38:0 39:0.10302 40:0.107926 41:0 42:0.107926 43:0.107926 44:0 45:0 46:0 47:0.348306 48:0.181512 49:0 50:0 51:0.063774 52:0.156983 53:0.029434 54:0.044152 55:0 56:0 57:0 58:0 59:0.20604 60:0.117737 61:0.112832 62:0.093209 63:0 64:0 65:0 66:0 67:0.063774 68:0.088303 69:0.441515 70:0.049057 71:0 72:0 73:0.157684 74:0.09461 75:0.115635 76:0 77:0 78:0 79:0.262807 80:0.346905 
-0.5269475251626412 1:0 2:0.035294 3:0 4:0 5:0 6:0 7:0.027451 8:0 9:0 10:0.050981 11:0 12:0 13:0.213726 14:0 15:0.041177 16:0.019608 17:0.07451 18:0 19:0 20:0.121569 21:0.278432 22:0 23:0.013726 24:0.019608 25:0.039216 26:0.094118 27:0 28:0 29:0 30:0 31:0.054902 32:0 33:0.039216 34:0.172549 35:0.04902 36:0 37:0 38:0 39:0.282354 40:0.109804 41:0.021569 42:0.054902 43:0.04902 44:0.037255 45:0.041177 46:0 47:0.227452 48:0.292158 49:0.027451 50:0.011765 51:0 52:0.107843 53:0.021569 54:0.011765 55:0 56:0 57:0.011765 58:0 59:0 60:0.037255 61:0.043137 62:0.011765 63:0 64:0 65:0 66:0 67:0 68:0 69:0.04902 70:0 71:0.013726 72:0.413727 73:0.154342 74:0.105603 75:0 76:0.251821 77:0.516264 78:0 79:0.085294 80:0.040616 
-0.9842817327881032 1:0 2:0 3:0.135362 4:0 5:0 6:0.161561 7:0.056765 8:0 9:0 10:0 11:0.048032 12:0 13:0 14:0.331855 15:0 16:0 17:0 18:0 19:0.048032 20:0 21:0 22:0.183394 23:0.043665 24:0 25:0.034932 26:0 27:0 28:0.056765 29:0.030566 30:0 31:0.043665 32:0 33:0.065498 34:0.030566 35:0 36:0 37:0 38:0 39:0.082964 40:0 41:0.030566 42:0.030566 43:0 44:0 45:0 46:0 47:0 48:0.096063 49:0.231425 50:0 51:0 52:0.048032 53:0.026199 54:0 55:0 56:0 57:0.18776 58:0 59:0 60:0.048032 61:0.20086 62:0.026199 63:0 64:0 65:0 66:0 67:0 68:0 69:0.327488 70:0 71:0 72:0 73:0 74:0 75:0.383459 76:0 77:0 78:0.581425 79:0.20999 80:0 
-3.067466054449962 1:0 2:0.073936 3:0.038243 4:0 5:0 6:0 7:0.10198 8:0 9:0.038243 10:0.086683 11:0.038243 12:0 13:0 14:0 15:0.234555 16:0 17:0.096881 18:0.10453 19:0 20:0 21:0 22:0 23:0.068837 24:0 25:0.303391 26:0.221807 27:0 28:0 29:0 30:0 31:0.017847 32:0 33:0.091782 34:0.181015 35:0.063738 36:0 37:0 38:0 39:0.211609 40:0 41:0 42:0 43:0 44:0 45:0 46:0 47:0.275347 48:0.084134 49:0.025495 50:0 51:0.017847 52:0.201411 53:0 54:0.015297 55:0 56:0 57:0 58:0 59:0.017847 60:0.033144 61:0.043342 62:0.071386 63:0.030594 64:0 65:0 66:0 67:0 68:0 69:0.285545 70:0.05354 71:0.030594 72:0 73:0.205873 74:0.379239 75:0.081266 76:0 77:0 78:0 79:0.498429 80:0 
-0.01646032544822137 1:0 2:0 3:0 4:0 5:0.294276 6:0 7:0 8:0 9:0 10:0 11:0 12:0 13:0.081492 14:0 15:0 16:0 17:0 18:0.027164 19:0 20:0 21:0 22:0 23:0 24:0 25:0.194675 26:0.063382 27:0 28:0.036219 29:0 30:0 31:0.049801 32:0.036219 33:0.104128 34:0.063382 35:0 36:0 37:0 38:0 39:0.149402 40:0.144874 41:0.054328 42:0 43:0 44:0.140347 45:0 46:0 47:0.099601 48:0.06791 49:0.095074 50:0.108656 51:0 52:0.235421 53:0 54:0 55:0 56:0 57:0.054328 58:0 59:0.027164 60:0.32144 61:0 62:0 63:0 64:0.208257 65:0 66:0 67:0.027164 68:0 69:0 70:0 71:0 72:0.493478 73:0 74:0.054328 75:0 76:0 77:0.538323 78:0 79:0 80:0 
-1.456156972980983 1:0 2:0.110807 3:0.028595 4:0 5:0 6:0 7:0.132254 8:0 9:0 10:0 11:0 12:0 13:0 14:0 15:0.246635 16:0 17:0 18:0 19:0 20:0 21:0 22:0 23:0.107233 24:0.078637 25:0.135828 26:0.150126 27:0.067914 28:0 29:0 30:0 31:0.06434 32:0 33:0 34:0.150126 35:0.067914 36:0 37:0 38:0 39:0.253784 40:0.060765 41:0 42:0.117956 43:0 44:0 45:0 46:0 47:0.164423 48:0.214465 49:0 50:0 51:0.035744 52:0.411058 53:0 54:0.021447 55:0 56:0.039319 57:0 58:0 59:0.035744 60:0.225188 61:0.028595 62:0.021447 63:0 64:0.157274 65:0 66:0 67:0 68:0.06434 69:0 70:0 71:0 72:0.264507 73:0 74:0.221614 75:0.057191 76:0 77:0 78:0 79:0.507439 80:0.157274 
-0.7385018322910962 1:0 2:0.282395 3:0.033992 4:0 5:0 6:0 7:0 8:0 9:0 10:0.206567 11:0.023533 12:0 13:0 14:0 15:0.041836 16:0.018303 17:0.070599 18:0.018303 19:0.023533 20:0 21:0 22:0 23:0.020918 24:0.018303 25:0.287625 26:0.052295 27:0 28:0 29:0 30:0 31:0.193493 32:0 33:0 34:0.052295 35:0 36:0 37:0 38:0 39:0.499421 40:0 41:0 42:0.036607 43:0 44:0 45:0 46:0 47:0.253633 48:0.015689 49:0 50:0.091517 51:0.028762 52:0.159501 53:0 54:0 55:0.039222 56:0 57:0 58:0 59:0.028762 60:0.159501 61:0.026148 62:0.041836 63:0 64:0 65:0 66:0 67:0 68:0 69:0.217026 70:0.018303 71:0 72:0 73:0.141198 74:0.521858 75:0.11505 76:0 77:0 78:0 79:0.083673 80:0.036607 
-1.482614805210181 1:0.089866 2:0.051352 3:0.022466 4:0.044933 5:0 6:0 7:0.028885 8:0 9:0.089866 10:0 11:0.022466 12:0.044933 13:0 14:0 15:0 16:0 17:0 18:0.057771 19:0 20:0 21:0 22:0 23:0.054561 24:0 25:0.048142 26:0.365883 27:0 28:0 29:0 30:0 31:0.086656 32:0 33:0 34:0.510139 35:0 36:0 37:0 38:0 39:0.121961 40:0 41:0 42:0.102704 43:0 44:0 45:0.150846 46:0 47:0.141218 48:0 49:0.234293 50:0 51:0.048142 52:0.211827 53:0 54:0 55:0 56:0 57:0.105913 58:0 59:0 60:0 61:0.19257 62:0 63:0 64:0 65:0 66:0 67:0 68:0 69:0.478215 70:0 71:0 72:0 73:0.179732 74:0.218246 75:0.044933 76:0.089866 77:0 78:0 79:0.166894 80:0 
-0.3056533885033437 1:0.034863 2:0.030505 3:0 4:0 5:0 6:0 7:0.078443 8:0.034863 9:0 10:0 11:0 12:0 13:0 14:0 15:0.039221 16:0.061011 17:0 18:0 19:0 20:0 21:0 22:0 23:0 24:0.061011 25:0.139454 26:0.043579 27:0 28:0.130738 29:0.087158 30:0 31:0.213538 32:0 33:0 34:0.043579 35:0 36:0 37:0 38:0 39:0.483729 40:0.047937 41:0 42:0 43:0.026148 44:0 45:0 46:0 47:0.152527 48:0.12638 49:0 50:0 51:0 52:0.503773 53:0 54:0 55:0 56:0 57:0 58:0 59:0 60:0.226612 61:0 62:0 63:0 64:0.135096 65:0 66:0 67:0 68:0 69:0 70:0 71:0 72:0.457582 73:0.074085 74:0.064824 75:0 76:0 77:0 78:0 79:0.166691 80:0.203733 
-0.02391614051519889 1:0.037211 2:0.111633 3:0 4:0 5:0 6:0 7:0.16745 8:0 9:0.037211 10:0.152566 11:0 12:0 13:0 14:0 15:0.074422 16:0 17:0.107912 18:0.037211 19:0.044653 20:0.070701 21:0 22:0 23:0.074422 24:0 25:0.055817 26:0.104191 27:0 28:0 29:0 30:0 31:0 32:0 33:0.055817 34:0.178613 35:0 36:0 37:0 38:0 39:0.06698 40:0.10047 41:0 42:0 43:0 44:0 45:0 46:0 47:0.06698 48:0.156287 49:0 50:0 51:0 52:0.20094 53:0 54:0 55:0 56:0 57:0 58:0 59:0.022327 60:0.163729 61:0.186056 62:0 63:0 64:0 65:0 66:0 67:0 68:0 69:0.409322 70:0.048374 71:0 72:0 73:0.306372 74:0.40064 75:0.094268 76:0.149258 77:0 78:0 79:0.502142 80:0 
-0.6659744407926678 1:0.19344 2:0.075694 3:0 4:0 5:0 6:0 7:0.046257 8:0.19344 9:0.113541 10:0.033642 11:0 12:0 13:0 14:0 15:0 16:0.079899 17:0.201851 18:0 19:0 20:0 21:0.025231 22:0 23:0 24:0.037847 25:0 26:0.176619 27:0.071489 28:0.092515 29:0.033642 30:0 31:0 32:0.067284 33:0 34:0.126157 35:0.029437 36:0 37:0.025231 38:0 39:0 40:0.067284 41:0 42:0 43:0 44:0 45:0.025231 46:0 47:0 48:0.033642 49:0.126157 50:0.067284 51:0 52:0.134567 53:0.08831 54:0 55:0 56:0 57:0.126157 58:0.067284 59:0 60:0 61:0.08831 62:0 63:0.071489 64:0.168209 65:0 66:0 67:0 68:0 69:0.105131 70:0 71:0.033642 72:0.294366 73:0.570091 74:0.151388 75:0 76:0 77:0.050463 78:0 79:0.092515 80:0.462575 
-1.937905768244375 1:0 2:0.141699 3:0 4:0 5:0 6:0 7:0.115281 8:0 9:0 10:0.302612 11:0 12:0 13:0 14:0 15:0.148904 16:0 17:0.031222 18:0.268988 19:0 20:0 21:0 22:0 23:0 24:0 25:0.305014 26:0.088862 27:0 28:0 29:0 30:0 31:0.040829 32:0 33:0.160913 34:0.141699 35:0 36:0 37:0 38:0 39:0.151306 40:0.048034 41:0.019213 42:0 43:0 44:0.033624 45:0 46:0 47:0.151306 48:0.175323 49:0.036025 50:0 51:0.016812 52:0.112879 53:0.052837 54:0.01441 55:0 56:0 57:0 58:0 59:0.016812 60:0.064845 61:0.067247 62:0.081657 63:0 64:0 65:0 66:0 67:0 68:0 69:0.182528 70:0.048034 71:0 72:0.036025 73:0.066346 74:0.593569 75:0 76:0 77:0 78:0 79:0.352147 80:0 
-0.6813741267076663 1:0 2:0 3:0 4:0 5:0.018752 6:0 7:0.071881 8:0.018752 9:0 10:0.200017 11:0 12:0 13:0 14:0 15:0.121885 16:0.018752 17:0.050004 18:0.250021 19:0 20:0 21:0 22:0 23:0 24:0 25:0.359405 26:0.103134 27:0.021877 28:0 29:0 30:0 31:0.040628 32:0.031253 33:0.200017 34:0.165639 35:0 36:0 37:0 38:0 39:0.284399 40:0 41:0 42:0 43:0 44:0 45:0 46:0 47:0.284399 48:0.193766 49:0.109384 50:0 51:0.028127 52:0.134386 53:0.018752 54:0 55:0.021877 56:0 57:0 58:0 59:0.028127 60:0.078131 61:0 62:0.17814 63:0.021877 64:0 65:0 66:0 67:0 68:0 69:0.181265 70:0.156263 71:0 72:0 73:0.105564 74:0.505687 75:0 76:0 77:0.039587 78:0 79:0.257313 80:0.039587 
-0.05411058368317408 1:0 2:0.177134 3:0.026955 4:0 5:0 6:0 7:0.034657 8:0 9:0 10:0.177134 11:0.026955 12:0 13:0 14:0 15:0.034657 16:0.127074 17:0.026955 18:0 19:0 20:0.096269 21:0.05006 22:0 23:0 24:0.150179 25:0.061612 26:0.023104 27:0.150179 28:0.023104 29:0.038507 30:0 31:0 32:0 33:0.023104 34:0.057761 35:0 36:0 37:0 38:0 39:0.284955 40:0 41:0 42:0.115522 43:0 44:0 45:0 46:0 47:0.450537 48:0.142477 49:0.146328 50:0 51:0 52:0.335014 53:0.077015 54:0 55:0.046209 56:0.065463 57:0.111671 58:0 59:0 60:0.161731 61:0.030806 62:0 63:0.023104 64:0.180985 65:0 66:0 67:0 68:0 69:0.080866 70:0 71:0 72:0.180985 73:0.05391 74:0.354268 75:0.05391 76:0.192537 77:0.100119 78:0 79:0.069313 80:0.300358 
-1.530570448646105 1:0 2:0.046812 3:0 4:0 5:0 6:0 7:0 8:0.021605 9:0.140435 10:0.082821 11:0 12:0 13:0 14:0 15:0.028807 16:0.021605 17:0.162041 18:0.082821 19:0 20:0.061215 21:0 22:0 23:0 24:0 25:0.392499 26:0.162041 27:0 28:0 29:0 30:0 31:0.03961 32:0.050413 33:0.223256 34:0.338485 35:0 36:0 37:0 38:0 39:0.270068 40:0 41:0 42:0.090023 43:0 44:0 45:0 46:0 47:0.270068 48:0.183646 49:0 50:0 51:0.090023 52:0.252063 53:0 54:0 55:0 56:0 57:0 58:0 59:0.090023 60:0.064816 61:0.021605 62:0.180045 63:0 64:0 65:0 66:0 67:0 68:0 69:0.180045 70:0.180045 71:0 72:0 73:0.342086 74:0.273669 75:0 76:0.129232 77:0 78:0 79:0.060815 80:0.045611 
-0.5481019913999526 1:0.032534 2:0 3:0 4:0 5:0.037956 6:0 7:0 8:0.09218 9:0.032534 10:0 11:0 12:0 13:0 14:0 15:0 16:0.09218 17:0 18:0 19:0 20:0.081335 21:0 22:0 23:0 24:0 25:0.265695 26:0.09218 27:0.09218 28:0 29:0 30:0 31:0.113869 32:0.178937 33:0.265695 34:0.09218 35:0.09218 36:0 37:0 38:0 39:0.113869 40:0.276539 41:0.043379 42:0.07049 43:0 44:0 45:0.054223 46:0 47:0 48:0.276539 49:0.244005 50:0 51:0.059646 52:0.216894 53:0.260272 54:0 55:0 56:0 57:0.244005 58:0 59:0.059646 60:0.140981 61:0.032534 62:0 63:0 64:0.260272 65:0 66:0 67:0 68:0 69:0.032534 70:0 71:0 72:0.406676 73:0.069716 74:0 75:0 76:0.17429 77:0.081335 78:0 79:0 80:0.197528 
-0.6357613632532264 1:0 2:0 3:0 4:0 5:0 6:0 7:0.133708 8:0 9:0.047753 10:0.133708 11:0 12:0 13:0 14:0 15:0.133708 16:0 17:0.181461 18:0.133708 19:0 20:0 21:0 22:0 23:0 24:0 25:0.413858 26:0.085955 27:0.025468 28:0 29:0 30:0 31:0.050936 32:0.035019 33:0.356555 34:0.143259 35:0 36:0 37:0 38:0 39:0.200562 40:0 41:0.073221 42:0.057303 43:0 44:0 45:0 46:0 47:0.200562 48:0.191011 49:0.038202 50:0 51:0.025468 52:0.200562 53:0 54:0 55:0 56:0.022285 57:0 58:0 59:0.025468 60:0.136891 61:0.019101 62:0.105056 63:0 64:0 65:0 66:0 67:0.025468 68:0 69:0.213296 70:0.105056 71:0 72:0 73:0.383084 74:0.282272 75:0 76:0 77:0 78:0 79:0.282272 80:0 
-0.769203693641401 1:0 2:0 3:0.078937 4:0.207932 5:0.013477 6:0.125144 7:0 8:0 9:0 10:0 11:0.078937 12:0 13:0.059684 14:0.244512 15:0 16:0 17:0 18:0 19:0 20:0.090489 21:0.117443 22:0.086638 23:0 24:0 25:0.198305 26:0.088563 27:0 28:0 29:0 30:0 31:0 32:0 33:0 34:0.13477 35:0.017328 36:0 37:0 38:0 39:0.011552 40:0.055833 41:0 42:0.023104 43:0.017328 44:0.119368 45:0.011552 46:0 47:0.011552 48:0.107816 49:0.236811 50:0.071236 51:0 52:0.019253 53:0 54:0 55:0 56:0 57:0.046207 58:0.088563 59:0.034655 60:0 61:0 62:0 63:0.015402 64:0.067385 65:0.036581 66:0 67:0.034655 68:0.071236 69:0 70:0 71:0.015402 72:0.157874 73:0 74:0 75:0.162808 76:0.525134 77:0.270022 78:0.504306 79:0 80:0 
-0.8729842880203033 1:0 2:0 3:0 4:0.104623 5:0.027124 6:0 7:0 8:0 9:0 10:0 11:0 12:0.030999 13:0 14:0 15:0 16:0 17:0 18:0 19:0 20:0 21:0 22:0 23:0 24:0 25:0.151121 26:0.445615 27:0 28:0 29:0 30:0 31:0 32:0 33:0.061999 34:0.543274 35:0 36:0 37:0 38:0 39:0.073623 40:0 41:0 42:0.244119 43:0 44:0 45:0.112372 46:0 47:0.127872 48:0.158871 49:0.201495 50:0 51:0.085248 52:0 53:0.104623 54:0 55:0 56:0.034874 57:0.096873 58:0 59:0.085248 60:0 61:0.050374 62:0.271244 63:0 64:0 65:0 66:0 67:0 68:0 69:0.22862 70:0.298368 71:0 72:0 73:0 74:0 75:0 76:0.224191 77:0.058124 78:0 79:0 80:0 
-1.035588559415792 1:0 2:0 3:0.035188 4:0.033118 5:0 6:0.074516 7:0 8:0 9:0 10:0 11:0.012419 12:0 13:0 14:0.012419 15:0 16:0 17:0 18:0 19:0.012419 20:0 21:0.043468 22:0 23:0 24:0.086935 25:0.161451 26:0.35602 27:0.078656 28:0 29:0.060027 30:0 31:0.074516 32:0.014489 33:0.043468 34:0.339461 35:0.146962 36:0 37:0 38:0 39:0.436745 40:0 41:0 42:0 43:0.024839 44:0 45:0 46:0 47:0.382928 48:0.190429 49:0.072446 50:0 51:0 52:0.231827 53:0.295993 54:0 55:0 56:0.031048 57:0 58:0 59:0 60:0.086935 61:0.17801 62:0 63:0 64:0.012419 65:0 66:0 67:0 68:0 69:0.188359 70:0 71:0 72:0.070376 73:0 74:0 75:0.095215 76:0.066236 77:0.086935 78:0.149032 79:0 80:0.17387 
-1.990204714986873 1:0 2:0 3:0.096214 4:0 5:0.016494 6:0.041235 7:0 8:0 9:0 10:0 11:0 12:0 13:0.016494 14:0.019243 15:0 16:0 17:0 18:0 19:0 20:0 21:0.126453 22:0 23:0 24:0 25:0.233664 26:0.192429 27:0.043984 28:0.038486 29:0 30:0 31:0.148445 32:0.019243 33:0.123704 34:0.214421 35:0.043984 36:0 37:0 38:0 39:0.420595 40:0 41:0 42:0.038486 43:0 44:0 45:0 46:0 47:0.343623 48:0.211672 49:0.255656 50:0 51:0 52:0.197927 53:0.285894 54:0 55:0 56:0.043984 57:0.038486 58:0 59:0 60:0.090717 61:0.175935 62:0 63:0 64:0 65:0 66:0 67:0 68:0 69:0.294141 70:0 71:0 72:0.046733 73:0 74:0 75:0.197774 76:0 77:0.293836 78:0.08476 79:0 80:0 
-1.613302651706893 1:0 2:0.012028 3:0.078182 4:0.052121 5:0.06014 6:0.070163 7:0 8:0 9:0 10:0.012028 11:0.014033 12:0 13:0.042098 14:0 15:0.012028 16:0 17:0 18:0 19:0 20:0 21:0 22:0 23:0.012028 24:0.120279 25:0.1724 26:0.410954 27:0.032074 28:0 29:0.012028 30:0 31:0.018042 32:0.05613 33:0.040093 34:0.447038 35:0.188438 36:0 37:0 38:0 39:0.170396 40:0 41:0 42:0.036084 43:0.102237 44:0 45:0.170396 46:0 47:0.170396 48:0.032074 49:0 50:0 51:0 52:0.420978 53:0.174405 54:0 55:0 56:0.038088 57:0.012028 58:0 59:0 60:0.084196 61:0.096223 62:0 63:0 64:0.094219 65:0.012028 66:0 67:0 68:0 69:0.238554 70:0 71:0 72:0.074172 73:0 74:0.024056 75:0.156363 76:0.104242 77:0.120279 78:0.140326 79:0.024056 80:0.240559 
-0.2702238344187564 1:0 2:0 3:0 4:0 5:0 6:0 7:0 8:0 9:0 10:0 11:0 12:0 13:0 14:0 15:0 16:0 17:0 18:0 19:0 20:0 21:0 22:0 23:0 24:0 25:0 26:0.070081 27:0.345733 28:0.121474 29:0 30:0 31:0 32:0 33:0 34:0.327045 35:0.051393 36:0 37:0 38:0 39:0.196227 40:0 41:0 42:0.256964 43:0.065409 44:0 45:0 46:0 47:0.15885 48:0.079425 49:0 50:0 51:0.140162 52:0.629451 53:0 54:0 55:0 56:0 57:0 58:0 59:0.256964 60:0.191555 61:0.149506 62:0 63:0 64:0 65:0 66:0 67:0.070081 68:0 69:0.247619 70:0 71:0 72:0.060737 73:0 74:0 75:0 76:0 77:0 78:0 79:0 80:0 
-3.349441136115007 1:0 2:0 3:0 4:0.018359 5:0.018359 6:0 7:0 8:0 9:0 10:0 11:0 12:0.018359 13:0.018359 14:0 15:0 16:0 17:0 18:0 19:0 20:0 21:0.018359 22:0 23:0.018359 24:0.018359 25:0.018359 26:0.526301 27:0 28:0 29:0.018359 30:0 31:0.168294 32:0.018359 33:0 34:0.536066 35:0 36:0 37:0.033659 38:0 39:0.327408 40:0.104036 41:0 42:0.159114 43:0.030599 44:0 45:0.082617 46:0.094857 47:0.183593 48:0.104036 49:0 50:0 51:0.036719 52:0.257031 53:0.116276 54:0 55:0 56:0.021419 57:0 58:0 59:0.055078 60:0.122396 61:0.186653 62:0.018359 63:0 64:0 65:0 66:0 67:0.018359 68:0 69:0.229492 70:0.018359 71:0 72:0.021419 73:0 74:0 75:0 76:0.037425 77:0.07485 78:0 79:0.037425 80:0.037425 
-1.047276813998928 1:0.072188 2:0.014438 3:0.093844 4:0.026469 5:0 6:0 7:0 8:0 9:0 10:0 11:0.093844 12:0.026469 13:0.026469 14:0.081813 15:0.033688 16:0.077 17:0 18:0 19:0 20:0.069782 21:0.086626 22:0.175657 23:0.033688 24:0.077 25:0.079407 26:0.274314 27:0 28:0 29:0.052938 30:0 31:0.19972 32:0 33:0 34:0.274314 35:0.031281 36:0 37:0 38:0 39:0.397034 40:0.031281 41:0.016844 42:0.036094 43:0.031281 44:0 45:0 46:0 47:0.247845 48:0.154001 49:0.016844 50:0 51:0 52:0.300783 53:0 54:0 55:0 56:0.067375 57:0.016844 58:0 59:0 60:0.105876 61:0 62:0 63:0 64:0.052938 65:0.024063 66:0.016844 67:0 68:0 69:0 70:0 71:0 72:0.279127 73:0.144376 74:0.028875 75:0.187689 76:0.192501 77:0.173251 78:0.351315 79:0.067375 80:0.154001 
-0.1424045140861364 1:0 2:0 3:0.209925 4:0.107295 5:0.097965 6:0.11196 7:0 8:0 9:0 10:0 11:0 12:0 13:0.097965 14:0.05598 15:0 16:0 17:0 18:0 19:0 20:0 21:0 22:0 23:0 24:0 25:0.17727 26:0.041985 27:0 28:0.03732 29:0 30:0 31:0.079305 32:0.15861 33:0.097965 34:0.1866 35:0.06531 36:0 37:0 38:0 39:0.135285 40:0 41:0.04665 42:0.144615 43:0.06531 44:0 45:0 46:0 47:0.032655 48:0 49:0.060645 50:0 51:0 52:0.480495 53:0.340545 54:0 55:0 56:0 57:0.060645 58:0 59:0 60:0 61:0.02799 62:0 63:0 64:0.0933 65:0 66:0 67:0 68:0 69:0.04665 70:0 71:0 72:0.24258 73:0 74:0 75:0.428247 76:0.218882 77:0.199849 78:0.228399 79:0 80:0 
-0.2085347930828385 1:0 2:0 3:0 4:0.189907 5:0.021101 6:0 7:0 8:0.057274 9:0 10:0 11:0 12:0 13:0.021101 14:0 15:0.039187 16:0.057274 17:0.04823 18:0 19:0 20:0 21:0 22:0 23:0.018086 24:0 25:0.419002 26:0.057274 27:0 28:0.096461 29:0 30:0 31:0.132634 32:0 33:0 34:0.057274 35:0 36:0 37:0 38:0 39:0.304455 40:0.033158 41:0 42:0 43:0 44:0 45:0.042202 46:0 47:0.099475 48:0.07536 49:0 50:0 51:0 52:0.545725 53:0 54:0 55:0 56:0 57:0 58:0 59:0 60:0.15072 61:0 62:0 63:0 64:0.211008 65:0 66:0.024115 67:0 68:0.02713 69:0 70:0 71:0.036173 72:0.271296 73:0.100845 74:0 75:0 76:0.397079 77:0.04412 78:0 79:0.081937 80:0.119754 
-3.523907472858026 1:0 2:0 3:0 4:0 5:0.016222 6:0 7:0 8:0 9:0 10:0.089223 11:0 12:0 13:0.016222 14:0 15:0 16:0 17:0 18:0.089223 19:0 20:0 21:0 22:0 23:0.048667 24:0.051371 25:0.25415 26:0.140594 27:0 28:0 29:0 30:0 31:0 32:0 33:0.34067 34:0.167631 35:0 36:0 37:0 38:0 39:0.029741 40:0.075704 41:0.064889 42:0.027037 43:0 44:0 45:0.029741 46:0 47:0.029741 48:0.438004 49:0.516072 50:0 51:0 52:0 53:0 54:0 55:0 56:0 57:0.113557 58:0 59:0 60:0 61:0 62:0 63:0 64:0.081112 65:0 66:0 67:0 68:0 69:0.429893 70:0 71:0 72:0.146001 73:0 74:0.178446 75:0 76:0 77:0.032445 78:0 79:0.097334 80:0.102742 
-1.420662336842648 1:0 2:0.171028 3:0.079406 4:0 5:0 6:0 7:0.042757 8:0 9:0 10:0.100785 11:0.079406 12:0 13:0 14:0 15:0.171028 16:0 17:0 18:0 19:0 20:0 21:0 22:0 23:0.311516 24:0 25:0.238218 26:0.039703 27:0 28:0 29:0 30:0 31:0.21684 32:0 33:0.039703 34:0.113001 35:0.027487 36:0 37:0 38:0 39:0.256543 40:0 41:0 42:0.073298 43:0.027487 44:0 45:0 46:0 47:0.100785 48:0.122163 49:0 50:0 51:0.045811 52:0.280975 53:0.045811 54:0.024433 55:0 56:0 57:0 58:0 59:0.024433 60:0.23211 61:0.076352 62:0.024433 63:0 64:0.024433 65:0 66:0 67:0.048865 68:0 69:0.076352 70:0 71:0 72:0.079406 73:0 74:0.342057 75:0.158812 76:0 77:0 78:0 79:0.548094 80:0 
-0.4454161378872304 1:0 2:0.129412 3:0 4:0 5:0 6:0 7:0.018824 8:0 9:0 10:0.101177 11:0 12:0 13:0 14:0 15:0.014118 16:0 17:0 18:0.049412 19:0 20:0 21:0 22:0 23:0.030588 24:0.014118 25:0 26:0.350588 27:0 28:0 29:0 30:0 31:0 32:0 33:0 34:0.232941 35:0 36:0 37:0 38:0 39:0.101177 40:0.065882 41:0 42:0 43:0 44:0 45:0.181177 46:0 47:0.101177 48:0.138824 49:0 50:0 51:0.518849 52:0 53:0 54:0 55:0 56:0 57:0 58:0 59:0.425883 60:0 61:0.068235 62:0 63:0 64:0 65:0 66:0 67:0.030588 68:0 69:0.068235 70:0 71:0 72:0.308235 73:0 74:0.383193 75:0 76:0 77:0 78:0 79:0.105882 80:0.030252 
-3.50927144994279 1:0.040879 2:0 3:0 4:0 5:0 6:0 7:0 8:0 9:0.040879 10:0 11:0 12:0 13:0 14:0 15:0 16:0 17:0 18:0 19:0 20:0 21:0 22:0 23:0 24:0 25:0 26:0.256954 27:0 28:0 29:0 30:0 31:0.122637 32:0 33:0 34:0.256954 35:0 36:0 37:0 38:0 39:0.373752 40:0 41:0 42:0 43:0 44:0 45:0.040879 46:0.040879 47:0.414631 48:0.035039 49:0.397111 50:0.075918 51:0 52:0.151837 53:0 54:0 55:0 56:0 57:0 58:0 59:0 60:0.151837 61:0 62:0 63:0 64:0.262794 65:0 66:0 67:0 68:0 69:0.040879 70:0 71:0 72:0.496389 73:0.081758 74:0 75:0 76:0 77:0 78:0 79:0 80:0 
-1.198116193524053 1:0 2:0 3:0 4:0 5:0 6:0.230364 7:0.034352 8:0 9:0 10:0 11:0.200053 12:0.018187 13:0 14:0.297048 15:0.069715 16:0 17:0 18:0 19:0.200053 20:0.018187 21:0 22:0.066684 23:0 24:0 25:0.120234 26:0.006062 27:0.006062 28:0 29:0.131348 30:0.167721 31:0.02728 32:0 33:0 34:0.006062 35:0.188939 36:0.070726 37:0.013135 38:0.156607 39:0.033342 40:0 41:0 42:0 43:0.176814 44:0.202073 45:0 46:0 47:0.006062 48:0.125286 49:0.007073 50:0 51:0 52:0.124275 53:0.062643 54:0.031321 55:0.008083 56:0.116192 57:0.048498 58:0 59:0.006062 60:0.030311 61:0.025259 62:0 63:0.008083 64:0.066684 65:0.156607 66:0 67:0.018187 68:0.074767 69:0.130337 70:0 71:0 72:0.011114 73:0 74:0 75:0.408803 76:0.037164 77:0 78:0.523156 79:0.142462 80:0 
-1.072143359240802 1:0 2:0 3:0 4:0.038756 5:0.162773 6:0 7:0 8:0.136936 9:0 10:0 11:0 12:0 13:0.077511 14:0 15:0 16:0.080095 17:0.015502 18:0 19:0 20:0 21:0 22:0 23:0 24:0.085262 25:0.062009 26:0.255786 27:0 28:0 29:0.02067 30:0 31:0.157606 32:0.103348 33:0.033588 34:0.364302 35:0.038756 36:0 37:0 38:0 39:0.206696 40:0.051674 41:0 42:0.108515 43:0.038756 44:0 45:0.015502 46:0 47:0.09043 48:0.372053 49:0.025837 50:0 51:0.046507 52:0.124018 53:0.095597 54:0 55:0.018086 56:0.036172 57:0 58:0 59:0.046507 60:0.124018 61:0.02067 62:0 63:0.018086 64:0 65:0 66:0 67:0 68:0 69:0.178275 70:0 71:0 72:0.312628 73:0.031004 74:0 75:0 76:0.077511 77:0.325546 78:0 79:0 80:0.444397 
-0.1773483081298033 1:0.083286 2:0 3:0 4:0.043835 5:0.210408 6:0.030684 7:0 8:0 9:0 10:0 11:0 12:0 13:0.072328 14:0.030684 15:0 16:0 17:0.052602 18:0 19:0 20:0.03726 21:0 22:0 23:0 24:0.120546 25:0.092053 26:0.267393 27:0 28:0 29:0.116163 30:0 31:0.151231 32:0.019726 33:0.03726 34:0.352872 35:0 36:0 37:0 38:0 39:0.173148 40:0.214791 41:0.01315 42:0.052602 43:0 44:0 45:0 46:0 47:0.076711 48:0.293694 49:0.015342 50:0 51:0 52:0.142464 53:0.05041 54:0.028493 55:0 56:0.054794 57:0 58:0 59:0.026301 60:0.109587 61:0.120546 62:0.056985 63:0 64:0 65:0 66:0 67:0.078903 68:0 69:0.317804 70:0.059177 71:0 72:0 73:0.271777 74:0 75:0 76:0.162189 77:0.420816 78:0.061369 79:0 80:0.241092 
-0.9425252162378933 1:0.02469 2:0.053495 3:0 4:0 5:0 6:0 7:0.02469 8:0 9:0 10:0.053495 11:0 12:0 13:0 14:0 15:0.02469 16:0 17:0.144024 18:0 19:0.02469 20:0 21:0 22:0 23:0 24:0 25:0.185174 26:0.139909 27:0.069955 28:0.061725 29:0 30:0 31:0.07407 32:0 33:0 34:0.139909 35:0.069955 36:0 37:0 38:0 39:0.509809 40:0 41:0 42:0 43:0 44:0 45:0.037035 46:0.07407 47:0.382693 48:0.04938 49:0.251014 50:0.119334 51:0 52:0 53:0.045265 54:0 55:0.02469 56:0 57:0.181059 58:0 59:0 60:0 61:0.045265 62:0 63:0.185174 64:0.028805 65:0 66:0 67:0.0823 68:0 69:0 70:0 71:0.279819 72:0.312738 73:0.337428 74:0.106989 75:0.04938 76:0 77:0 78:0 79:0.04938 80:0 
-0.5502248464211821 1:0 2:0 3:0 4:0.201398 5:0.214475 6:0 7:0 8:0 9:0 10:0 11:0 12:0.031387 13:0.136009 14:0 15:0 16:0 17:0 18:0 19:0 20:0.102007 21:0.015693 22:0.015693 23:0 24:0 25:0.1177 26:0.078467 27:0.054927 28:0 29:0.02354 30:0 31:0.052311 32:0.138624 33:0.078467 34:0.078467 35:0.054927 36:0 37:0.036618 38:0 39:0.052311 40:0.209244 41:0.096776 42:0.034002 43:0 44:0 45:0.073236 46:0.020924 47:0.026156 48:0.209244 49:0 50:0 51:0 52:0.149087 53:0.133393 54:0.015693 55:0 56:0 57:0 58:0 59:0 60:0.122931 61:0.107238 62:0 63:0 64:0 65:0 66:0 67:0.04708 68:0.149087 69:0.350484 70:0.015693 71:0 72:0 73:0 74:0 75:0 76:0.526194 77:0.470345 78:0.032069 79:0 80:0 
-0.0945922023445061 1:0 2:0.039663 3:0 4:0 5:0.232314 6:0.084993 7:0 8:0 9:0 10:0.039663 11:0 12:0 13:0 14:0 15:0 16:0 17:0 18:0 19:0 20:0 21:0 22:0 23:0 24:0 25:0.243646 26:0.062328 27:0 28:0 29:0 30:0 31:0 32:0 33:0.186984 34:0.062328 35:0 36:0 37:0 38:0 39:0.266311 40:0 41:0 42:0 43:0 44:0 45:0.101991 46:0 47:0.23798 48:0 49:0.390967 50:0 51:0 52:0.050996 53:0.056662 54:0 55:0 56:0 57:0.141655 58:0 59:0 60:0.050996 61:0.4023 62:0.067994 63:0 64:0 65:0 66:0 67:0 68:0 69:0.220982 70:0.124656 71:0 72:0 73:0 74:0.084285 75:0 76:0 77:0.493667 78:0.18061 79:0 80:0 
-0.2299526626208466 1:0 2:0.03281 3:0 4:0.201545 5:0.042184 6:0 7:0 8:0 9:0 10:0 11:0 12:0.187484 13:0.042184 14:0 15:0 16:0 17:0 18:0 19:0 20:0 21:0.089055 22:0 23:0 24:0 25:0 26:0.473396 27:0 28:0 29:0 30:0 31:0.098429 32:0 33:0.046871 34:0.234355 35:0 36:0 37:0 38:0 39:0 40:0.107803 41:0 42:0.051558 43:0 44:0 45:0 46:0 47:0.093742 48:0.140613 49:0.159361 50:0 51:0 52:0.178109 53:0.065619 54:0 55:0 56:0 57:0.056245 58:0 59:0 60:0.089055 61:0 62:0 63:0 64:0.262477 65:0 66:0 67:0 68:0 69:0 70:0.03281 71:0 72:0.365593 73:0 74:0.065619 75:0 76:0.478083 77:0.262477 78:0 79:0 80:0 
-0.7299262227153828 1:0.067852 2:0.029685 3:0 4:0 5:0 6:0 7:0.033926 8:0 9:0 10:0 11:0 12:0.072093 13:0 14:0 15:0 16:0 17:0 18:0 19:0.178112 20:0.072093 21:0 22:0 23:0 24:0 25:0.072093 26:0.076334 27:0.050889 28:0.207797 29:0 30:0 31:0 32:0 33:0.072093 34:0.318057 35:0 36:0.059371 37:0 38:0 39:0.250205 40:0 41:0 42:0.131463 43:0 44:0 45:0 46:0 47:0.250205 48:0.301094 49:0.347742 50:0.106019 51:0 52:0 53:0 54:0 55:0 56:0 57:0.11026 58:0.05513 59:0 60:0.050889 61:0.216279 62:0.038167 63:0 64:0 65:0 66:0 67:0 68:0 69:0.373187 70:0.131463 71:0 72:0 73:0.144186 74:0.063081 75:0.378488 76:0.153197 77:0 78:0 79:0.072093 80:0 
-0.7474112390961448 1:0 2:0 3:0 4:0.030152 5:0.030152 6:0 7:0 8:0 9:0 10:0 11:0 12:0.030152 13:0.030152 14:0 15:0 16:0 17:0 18:0 19:0 20:0 21:0 22:0.060303 23:0 24:0 25:0.030152 26:0.34172 27:0 28:0 29:0.040202 30:0 31:0 32:0 33:0 34:0.402023 35:0 36:0 37:0 38:0 39:0.432175 40:0 41:0 42:0 43:0 44:0 45:0 46:0 47:0.477403 48:0.035177 49:0 50:0 51:0.125632 52:0.090455 53:0.105531 54:0 55:0 56:0 57:0 58:0 59:0.125632 60:0.030152 61:0.060303 62:0.306543 63:0.075379 64:0 65:0 66:0 67:0 68:0 69:0.211062 70:0.221113 71:0.150759 72:0 73:0 74:0 75:0 76:0.064072 77:0.064072 78:0.128145 79:0 80:0 
-0.4870849250048316 1:0.024268 2:0.022751 3:0 4:0 5:0 6:0 7:0.031852 8:0 9:0.024268 10:0.022751 11:0 12:0 13:0.153193 14:0.009101 15:0.031852 16:0.024268 17:0 18:0 19:0 20:0.200212 21:0.174427 22:0.009101 23:0 24:0.024268 25:0 26:0.291218 27:0.039436 28:0 29:0 30:0 31:0.072804 32:0 33:0 34:0.347338 35:0.039436 36:0 37:0 38:0 39:0.169877 40:0.251782 41:0.019718 42:0.156226 43:0 44:0.221447 45:0 46:0 47:0.125891 48:0.251782 49:0 50:0 51:0 52:0.106173 53:0.021235 54:0 55:0 56:0 57:0 58:0.009101 59:0 60:0.081905 61:0.010617 62:0 63:0 64:0.028818 65:0 66:0.009101 67:0 68:0 69:0 70:0 71:0.028818 72:0.326103 73:0.05027 74:0.047128 75:0 76:0.414725 77:0.361314 78:0.018851 79:0.065979 80:0.05027 
-1.291643498242268 1:0 2:0.029911 3:0.044867 4:0 5:0 6:0 7:0.054837 8:0 9:0 10:0.029911 11:0.044867 12:0 13:0 14:0 15:0.104689 16:0.029911 17:0 18:0.034896 19:0 20:0 21:0 22:0 23:0 24:0.029911 25:0.189436 26:0.189436 27:0 28:0 29:0 30:0 31:0 32:0 33:0 34:0.189436 35:0 36:0 37:0 38:0 39:0.15454 40:0.174481 41:0 42:0 43:0 44:0 45:0 46:0 47:0.084748 48:0.259229 49:0 50:0 51:0 52:0.169496 53:0.428724 54:0 55:0 56:0 57:0 58:0 59:0 60:0.114659 61:0.403799 62:0 63:0.029911 64:0 65:0 66:0 67:0 68:0 69:0.517725 70:0 71:0 72:0.039881 73:0 74:0.137715 75:0.095341 76:0 77:0 78:0 79:0.222463 80:0.063561 
-0.04064140141905226 1:0 2:0.052744 3:0 4:0 5:0.046151 6:0 7:0 8:0 9:0 10:0 11:0 12:0 13:0.15164 14:0 15:0 16:0 17:0 18:0.079116 19:0 20:0 21:0.046151 22:0 23:0 24:0 25:0.046151 26:0.105489 27:0 28:0 29:0 30:0.125268 31:0 32:0 33:0 34:0.105489 35:0.052744 36:0 37:0.15164 38:0.059337 39:0 40:0 41:0 42:0 43:0 44:0 45:0.243942 46:0.059337 47:0 48:0 49:0 50:0 51:0 52:0.494478 53:0 54:0 55:0 56:0.052744 57:0 58:0 59:0.046151 60:0.408768 61:0 62:0 63:0 64:0.270314 65:0 66:0 67:0 68:0 69:0 70:0 71:0 72:0.402175 73:0 74:0.278373 75:0 76:0 77:0.320128 78:0 79:0 80:0 
-0.09243905628884935 1:0 2:0.081902 3:0 4:0.054601 5:0 6:0 7:0 8:0 9:0 10:0.040951 11:0 12:0.054601 13:0.047776 14:0 15:0 16:0.040951 17:0 18:0 19:0 20:0 21:0.19793 22:0.068252 23:0 24:0.156979 25:0.354909 26:0 27:0 28:0 29:0 30:0 31:0 32:0.088727 33:0 34:0 35:0 36:0 37:0.116028 38:0 39:0 40:0.211581 41:0 42:0 43:0 44:0 45:0.252532 46:0 47:0 48:0.122853 49:0.068252 50:0.061427 51:0 52:0 53:0.204755 54:0 55:0 56:0 57:0 58:0 59:0 60:0 61:0.334434 62:0 63:0 64:0.273007 65:0 66:0 67:0 68:0 69:0.102378 70:0.088727 71:0 72:0.273007 73:0 74:0.163804 75:0 76:0.109203 77:0.39586 78:0.136504 79:0 80:0.313958 
-0.6296042309759867 1:0.113451 2:0.042139 3:0 4:0.142624 5:0 6:0 7:0 8:0.019449 9:0 10:0.042139 11:0 12:0 13:0 14:0 15:0 16:0.058346 17:0.042139 18:0 19:0 20:0 21:0.090761 22:0.051863 23:0 24:0.058346 25:0.084278 26:0.272282 27:0 28:0.330629 29:0.038897 30:0 31:0 32:0 33:0.084278 34:0.272282 35:0.051863 36:0 37:0 38:0 39:0.129658 40:0.068071 41:0 42:0 43:0.051863 44:0 45:0 46:0.019449 47:0.158831 48:0.162073 49:0.068071 50:0.019449 51:0 52:0.44408 53:0 54:0.11021 55:0.048622 56:0 57:0.068071 58:0 59:0.068071 60:0.061588 61:0.055105 62:0.11021 63:0 64:0 65:0 66:0 67:0.068071 68:0.04538 69:0.239868 70:0 71:0 72:0 73:0.328468 74:0.08896 75:0 76:0.301095 77:0.191606 78:0.109489 79:0 80:0.164234 
-1.479791903294784 1:0 2:0 3:0 4:0 5:0 6:0 7:0 8:0 9:0.049558 10:0 11:0 12:0 13:0.057818 14:0 15:0 16:0 17:0 18:0 19:0 20:0 21:0.057818 22:0 23:0 24:0 25:0.363427 26:0.421245 27:0.223012 28:0 29:0 30:0 31:0 32:0 33:0 34:0.421245 35:0.223012 36:0 37:0.074337 38:0 39:0.165194 40:0.247791 41:0 42:0 43:0 44:0 45:0.074337 46:0 47:0 48:0.247791 49:0 50:0 51:0.313869 52:0.115636 53:0 54:0.082597 55:0 56:0 57:0.049558 58:0 59:0.247791 60:0 61:0.074337 62:0.082597 63:0 64:0 65:0.049558 66:0 67:0 68:0 69:0 70:0 71:0 72:0.140415 73:0.105311 74:0 75:0 76:0 77:0.122863 78:0 79:0 80:0 
-0.157539703555312 1:0.09309 2:0.046545 3:0 4:0.050776 5:0 6:0 7:0.050776 8:0.160792 9:0.09309 10:0 11:0.050776 12:0.101553 13:0.059239 14:0.055008 15:0 16:0 17:0 18:0 19:0.050776 20:0 21:0.118478 22:0.055008 23:0 24:0.038082 25:0.190411 26:0.338509 27:0 28:0 29:0 30:0 31:0.080396 32:0 33:0 34:0.228494 35:0 36:0 37:0 38:0 39:0.385054 40:0 41:0 42:0.088859 43:0 44:0 45:0 46:0 47:0.291964 48:0 49:0.033851 50:0 51:0.042314 52:0.190411 53:0.059239 54:0.046545 55:0 56:0 57:0 58:0 59:0.071933 60:0.097321 61:0.06347 62:0.071933 63:0 64:0 65:0 66:0 67:0.02962 68:0 69:0.236956 70:0.025388 71:0 72:0 73:0.18618 74:0.09309 75:0.101553 76:0.203105 77:0.236956 78:0.110015 79:0.101553 80:0.397748 
-3.459792202060211 1:0 2:0 3:0 4:0.103054 5:0.07955 6:0 7:0 8:0.014464 9:0 10:0 11:0 12:0 13:0.028927 14:0 15:0 16:0.014464 17:0.043391 18:0 19:0 20:0 21:0.010848 22:0 23:0 24:0.075934 25:0.121133 26:0.410407 27:0 28:0 29:0.021696 30:0 31:0 32:0.057855 33:0 34:0.507608 35:0 36:0 37:0 38:0 39:0.278426 40:0.023503 41:0 42:0.103054 43:0.012656 44:0.014464 45:0 46:0 47:0.278426 48:0.202492 49:0.216955 50:0 51:0 52:0.045199 53:0.162716 54:0 55:0.012656 56:0.117517 57:0.072318 58:0 59:0 60:0.108478 61:0.050623 62:0 63:0 64:0.08859 65:0 66:0 67:0 68:0.039775 69:0 70:0 71:0 72:0.296506 73:0.086782 74:0 75:0 76:0.206107 77:0.180796 78:0 79:0 80:0.180796 
-1.232756985135533 1:0 2:0 3:0 4:0 5:0 6:0 7:0 8:0 9:0.111703 10:0 11:0 12:0 13:0 14:0 15:0 16:0.068741 17:0.111703 18:0.060148 19:0 20:0 21:0 22:0 23:0 24:0.068741 25:0.197629 26:0.429629 27:0 28:0 29:0 30:0 31:0.120296 32:0 33:0 34:0.429629 35:0 36:0 37:0 38:0 39:0.120296 40:0.309333 41:0 42:0 43:0 44:0 45:0 46:0 47:0 48:0.214814 49:0.274962 50:0 51:0 52:0 53:0 54:0 55:0 56:0 57:0.180444 58:0 59:0 60:0 61:0 62:0 63:0 64:0 65:0 66:0 67:0 68:0 69:0.33511 70:0 71:0 72:0 73:0.355978 74:0.124592 75:0 76:0 77:0 78:0 79:0 80:0.142391 
-1.498855311960051 1:0 2:0 3:0 4:0 5:0 6:0 7:0 8:0 9:0 10:0 11:0 12:0 13:0 14:0 15:0 16:0 17:0.081846 18:0 19:0 20:0 21:0 22:0 23:0 24:0 25:0.116923 26:0 27:0.245539 28:0.070154 29:0 30:0 31:0 32:0 33:0.116923 34:0.292308 35:0.052615 36:0.070154 37:0 38:0 39:0.163693 40:0.163693 41:0 42:0.157846 43:0 44:0 45:0 46:0 47:0.163693 48:0.391693 49:0 50:0 51:0 52:0.368308 53:0 54:0 55:0 56:0 57:0 58:0 59:0 60:0.233846 61:0.27477 62:0 63:0.058462 64:0 65:0 66:0 67:0 68:0 69:0.496924 70:0 71:0.058462 72:0 73:0.171133 74:0 75:0 76:0 77:0 78:0 79:0 80:0 
-1.056809782641752 1:0 2:0 3:0.033175 4:0 5:0 6:0.099524 7:0 8:0 9:0 10:0 11:0 12:0.143757 13:0 14:0 15:0 16:0 17:0 18:0 19:0 20:0.176931 21:0 22:0 23:0 24:0 25:0.138228 26:0 27:0 28:0 29:0 30:0 31:0 32:0 33:0.138228 34:0.259868 35:0 36:0 37:0 38:0 39:0.30963 40:0 41:0 42:0.149286 43:0 44:0 45:0 46:0 47:0.30963 48:0.254339 49:0.116111 50:0.127169 51:0 52:0.18799 53:0.082937 54:0 55:0 56:0 57:0.082937 58:0.127169 59:0.055291 60:0.088466 61:0.149286 62:0.071878 63:0 64:0 65:0 66:0 67:0.055291 68:0 69:0.475503 70:0.071878 71:0 72:0 73:0 74:0 75:0.069365 76:0.369947 77:0 78:0.208095 79:0 80:0 
-2.098372663450864 1:0.125357 2:0 3:0 4:0 5:0.053724 6:0 7:0 8:0.056709 9:0.125357 10:0.017908 11:0 12:0 13:0 14:0 15:0 16:0.131326 17:0 18:0 19:0.038801 20:0.029847 21:0 22:0 23:0 24:0.131326 25:0 26:0.459641 27:0 28:0 29:0 30:0 31:0.122372 32:0 33:0 34:0.393978 35:0 36:0 37:0 38:0 39:0.205943 40:0.137295 41:0 42:0 43:0.023877 44:0 45:0 46:0 47:0.250713 48:0.226836 49:0 50:0 51:0.04477 52:0.101479 53:0.04477 54:0.080586 55:0.017908 56:0 57:0 58:0 59:0.107449 60:0.05074 61:0.05074 62:0.089541 63:0.041786 64:0 65:0 66:0 67:0.035816 68:0 69:0.220867 70:0.089541 71:0.041786 72:0 73:0.268622 74:0.038375 75:0.083145 76:0.063958 77:0.115124 78:0 79:0 80:0.402932 
-1.045405343797623 1:0.019863 2:0.023173 3:0 4:0 5:0 6:0 7:0.023173 8:0.049656 9:0 10:0.029794 11:0 12:0 13:0 14:0 15:0.105933 16:0.049656 17:0 18:0.029794 19:0 20:0 21:0 22:0 23:0.225109 24:0.023173 25:0.192004 26:0.178763 27:0 28:0 29:0 30:0 31:0.039725 32:0 33:0.142348 34:0.231729 35:0 36:0 37:0 38:0 39:0.109244 40:0.049656 41:0 42:0.07614 43:0 44:0 45:0 46:0 47:0.109244 48:0.360836 49:0 50:0 51:0.056277 52:0.195315 53:0.052967 54:0.033104 55:0.15559 56:0.099313 57:0 58:0 59:0.056277 60:0.248281 61:0.052967 62:0.033104 63:0 64:0.135727 65:0 66:0 67:0 68:0.052967 69:0 70:0 71:0 72:0.39725 73:0.042563 74:0.1135 75:0 76:0 77:0 78:0 79:0.506568 80:0.156063 
-0.656438079779153 1:0.018936 2:0 3:0.037871 4:0 5:0 6:0 7:0.100088 8:0 9:0 10:0 11:0.067627 12:0 13:0 14:0 15:0.200176 16:0 17:0 18:0 19:0.029756 20:0 21:0 22:0 23:0.097383 24:0 25:0.1596 26:0.148779 27:0 28:0 29:0 30:0 31:0 32:0 33:0.037871 34:0.129844 35:0.048691 36:0 37:0 38:0 39:0.045986 40:0.162305 41:0 42:0 43:0 44:0 45:0.021641 46:0 47:0.045986 48:0.313789 49:0 50:0 51:0 52:0.319199 53:0 54:0 55:0.051396 56:0.162305 57:0 58:0 59:0 60:0.319199 61:0 62:0 63:0.027051 64:0.070332 65:0 66:0 67:0 68:0 69:0 70:0 71:0.027051 72:0.470683 73:0.040576 74:0 75:0.144915 76:0 77:0 78:0 79:0.502036 80:0 
-0.003730610156845515 1:0 2:0 3:0 4:0 5:0.207404 6:0.100559 7:0 8:0 9:0 10:0 11:0.03771 12:0 13:0.05028 14:0.081704 15:0 16:0 17:0 18:0 19:0.03771 20:0 21:0 22:0.081704 23:0 24:0 25:0.056565 26:0.06285 27:0 28:0.043995 29:0.056565 30:0 31:0 32:0 33:0.056565 34:0.06285 35:0.106844 36:0 37:0.056565 38:0 39:0.238828 40:0.075419 41:0.113129 42:0 43:0 44:0.056565 45:0 46:0 47:0.238828 48:0.075419 49:0 50:0 51:0 52:0.295393 53:0 54:0 55:0 56:0 57:0 58:0 59:0 60:0.282823 61:0 62:0 63:0 64:0.238828 65:0 66:0 67:0 68:0.03771 69:0 70:0 71:0 72:0.465087 73:0 74:0 75:0.075419 76:0 77:0.414807 78:0.364527 79:0 80:0 
-0.2318831239482541 1:0.036098 2:0 3:0 4:0.052506 5:0 6:0 7:0 8:0 9:0.036098 10:0 11:0.022971 12:0.098449 13:0 14:0 15:0 16:0 17:0 18:0.095168 19:0.045943 20:0 21:0 22:0 23:0 24:0 25:0 26:0.40036 27:0 28:0 29:0 30:0 31:0 32:0 33:0 34:0.523178 35:0.065633 36:0 37:0 38:0 39:0 40:0 41:0 42:0.23956 43:0.065633 44:0 45:0 46:0.114857 47:0 48:0 49:0.426614 50:0 51:0 52:0.055788 53:0 54:0 55:0 56:0 57:0.075478 58:0 59:0 60:0 61:0.137829 62:0 63:0 64:0 65:0 66:0 67:0 68:0 69:0.40036 70:0.036098 71:0 72:0 73:0.072196 74:0.190335 75:0.091886 76:0.196899 77:0 78:0 79:0 80:0 
-0.3723895145839079 1:0.041408 2:0.041408 3:0 4:0 5:0 6:0 7:0 8:0 9:0.041408 10:0.041408 11:0 12:0.05521 13:0.069013 14:0 15:0 16:0 17:0 18:0 19:0 20:0.05521 21:0 22:0 23:0 24:0 25:0.124224 26:0.269151 27:0 28:0 29:0 30:0 31:0.062112 32:0 33:0.082816 34:0.241546 35:0.124224 36:0 37:0 38:0 39:0.124224 40:0 41:0 42:0.179434 43:0.124224 44:0 45:0 46:0 47:0.10352 48:0.062112 49:0.269151 50:0 51:0 52:0.269151 53:0 54:0 55:0 56:0 57:0.414079 58:0 59:0 60:0.069013 61:0.324362 62:0 63:0 64:0 65:0 66:0 67:0 68:0.05521 69:0.507891 70:0 71:0 72:0 73:0.082816 74:0.082816 75:0 76:0.110421 77:0.138026 78:0 79:0 80:0 
-0.287792513864881 1:0 2:0 3:0.166143 4:0 5:0 6:0.036921 7:0.043074 8:0 9:0 10:0 11:0.049227 12:0 13:0.086148 14:0.036921 15:0.043074 16:0 17:0 18:0 19:0 20:0 21:0.043074 22:0 23:0 24:0 25:0.184603 26:0 27:0 28:0 29:0.129222 30:0 31:0 32:0 33:0 34:0 35:0 36:0 37:0.166143 38:0 39:0 40:0 41:0 42:0 43:0 44:0 45:0.086148 46:0 47:0 48:0 49:0.190756 50:0 51:0 52:0 53:0.166143 54:0 55:0.17845 56:0.116915 57:0.135376 58:0 59:0 60:0 61:0 62:0 63:0.55921 64:0 65:0 66:0.036921 67:0 68:0 69:0 70:0 71:0.523042 72:0 73:0 74:0 75:0.332285 76:0 77:0.172296 78:0.073841 79:0.086148 80:0 
-0.990340419385367 1:0 2:0.056171 3:0 4:0 5:0 6:0 7:0.060492 8:0 9:0 10:0.108022 11:0.077776 12:0 13:0 14:0 15:0.09938 16:0 17:0 18:0.077776 19:0.077776 20:0.077776 21:0.043209 22:0 23:0.038888 24:0 25:0.129626 26:0.14691 27:0.082097 28:0.069134 29:0.069134 30:0 31:0.393199 32:0 33:0.060492 34:0.216044 35:0.116664 36:0 37:0 38:0 39:0.432087 40:0.073455 41:0.060492 42:0.069134 43:0.034567 44:0.043209 45:0.043209 46:0 47:0.038888 48:0.142589 49:0.410483 50:0 51:0 52:0 53:0.043209 54:0 55:0 56:0 57:0.120984 58:0 59:0 60:0 61:0.069134 62:0 63:0 64:0.025925 65:0 66:0 67:0 68:0 69:0.025925 70:0.030246 71:0 72:0.250611 73:0 74:0.284638 75:0.165273 76:0.165273 77:0.091819 78:0 79:0.211183 80:0 
-3.095149182633565 1:0 2:0 3:0.04578 4:0 5:0 6:0.106372 7:0.017504 8:0 9:0 10:0 11:0.235634 12:0 13:0 14:0.106372 15:0.017504 16:0 17:0 18:0 19:0.354124 20:0 21:0 22:0.157538 23:0.04578 24:0 25:0.008079 26:0.02289 27:0.013465 28:0 29:0 30:0.008079 31:0.083482 32:0 33:0 34:0.130608 35:0.048473 36:0 37:0 38:0 39:0.126569 40:0 41:0 42:0.107718 43:0.035008 44:0 45:0.048473 46:0 47:0.02693 48:0.035008 49:0 50:0 51:0.036355 52:0.113104 53:0 54:0.055206 55:0 56:0 57:0 58:0 59:0.113104 60:0.044434 61:0.060591 62:0.064631 63:0 64:0 65:0 66:0.009425 67:0.061938 68:0 69:0.144073 70:0.009425 71:0.010772 72:0.048473 73:0 74:0 75:0.587223 76:0 77:0 78:0.527819 79:0.126569 80:0 
-0.1108361998535464 1:0 2:0 3:0 4:0.158417 5:0.26274 6:0.009016 7:0 8:0 9:0 10:0 11:0 12:0.158417 13:0.193191 14:0.009016 15:0 16:0.054094 17:0.011591 18:0 19:0 20:0 21:0.177736 22:0 23:0 24:0.054094 25:0.075989 26:0.021895 27:0.011591 28:0 29:0.2563 30:0.007728 31:0 32:0 33:0.075989 34:0.083716 35:0.021895 36:0.010304 37:0.065685 38:0.019319 39:0 40:0 41:0 42:0.061821 43:0.010304 44:0.059245 45:0.025759 46:0 47:0.028335 48:0.21251 49:0.177736 50:0 51:0 52:0.021895 53:0.2563 54:0 55:0 56:0 57:0.103035 58:0 59:0 60:0 61:0.014167 62:0 63:0 64:0 65:0.029623 66:0 67:0 68:0.045078 69:0.042502 70:0 71:0 72:0.229254 73:0.023183 74:0 75:0 76:0.316834 77:0.61859 78:0.018031 79:0 80:0.108187 
-0.2481732268777917 1:0 2:0 3:0 4:0 5:0 6:0 7:0 8:0 9:0 10:0 11:0 12:0 13:0 14:0 15:0 16:0 17:0 18:0 19:0 20:0 21:0 22:0 23:0 24:0 25:0.038023 26:0.133079 27:0 28:0 29:0 30:0 31:0 32:0 33:0.038023 34:0.19645 35:0 36:0 37:0 38:0 39:0.291507 40:0 41:0 42:0.063371 43:0 44:0 45:0 46:0 47:0.380227 48:0 49:0.063371 50:0.5268 51:0 52:0 53:0.04436 54:0.133079 55:0.038023 56:0 57:0.063371 58:0.5268 59:0 60:0 61:0 62:0 63:0.158428 64:0.164765 65:0 66:0 67:0 68:0 69:0.04436 70:0 71:0.158428 72:0.209125 73:0 74:0 75:0 76:0 77:0 78:0 79:0 80:0 
-0.1867925644066802 1:0 2:0 3:0 4:0 5:0 6:0 7:0 8:0 9:0 10:0 11:0 12:0 13:0 14:0 15:0 16:0 17:0 18:0 19:0 20:0 21:0 22:0 23:0 24:0 25:0.091772 26:0.126187 27:0 28:0 29:0 30:0 31:0.33841 32:0 33:0.091772 34:0.126187 35:0.034415 36:0 37:0 38:0 39:0.361353 40:0 41:0 42:0.034415 43:0.080301 44:0 45:0 46:0 47:0.349882 48:0 49:0.33841 50:0.063093 51:0.091772 52:0 53:0 54:0.361353 55:0.195016 56:0 57:0.33841 58:0.183545 59:0 60:0 61:0.086037 62:0 63:0.166337 64:0.137658 65:0 66:0.120451 67:0 68:0 69:0.183545 70:0.086037 71:0.051622 72:0.137658 73:0 74:0 75:0 76:0 77:0 78:0 79:0 80:0 
-0.1221485553583293 1:0 2:0 3:0 4:0 5:0 6:0 7:0 8:0 9:0.092388 10:0 11:0 12:0 13:0 14:0 15:0 16:0 17:0.092388 18:0 19:0 20:0 21:0 22:0 23:0 24:0 25:0.121259 26:0.063516 27:0.127033 28:0 29:0 30:0 31:0.230969 32:0 33:0.086613 34:0.248292 35:0.092388 36:0 37:0 38:0 39:0.473487 40:0 41:0 42:0.219421 43:0 44:0 45:0 46:0 47:0.363776 48:0 49:0.306034 50:0.04042 51:0.230969 52:0.04042 53:0 54:0.138581 55:0 56:0 57:0.306034 58:0.04042 59:0.069291 60:0.04042 61:0.144356 62:0 63:0 64:0 65:0 66:0 67:0.144356 68:0 69:0.248292 70:0.034645 71:0 72:0 73:0.191374 74:0 75:0 76:0 77:0 78:0 79:0 80:0 
-0.9915704897800258 1:0 2:0 3:0 4:0 5:0 6:0 7:0 8:0 9:0.03638 10:0 11:0 12:0 13:0 14:0 15:0 16:0 17:0 18:0 19:0 20:0 21:0 22:0 23:0 24:0 25:0.066696 26:0.163708 27:0 28:0 29:0 30:0 31:0 32:0 33:0.066696 34:0.242531 35:0 36:0 37:0 38:0 39:0.363797 40:0 41:0 42:0 43:0 44:0 45:0 46:0.103076 47:0.418366 48:0 49:0.357733 50:0.224341 51:0 52:0 53:0 54:0 55:0 56:0 57:0.230404 58:0.090949 59:0 60:0.127329 61:0.35167 62:0 63:0 64:0 65:0 66:0 67:0 68:0 69:0.448682 70:0 71:0 72:0 73:0.072759 74:0 75:0 76:0 77:0 78:0 79:0 80:0 
-2.144344963891902 1:0 2:0.028042 3:0 4:0 5:0.056085 6:0 7:0 8:0 9:0.032716 10:0.028042 11:0 12:0 13:0.028042 14:0 15:0 16:0 17:0.032716 18:0 19:0 20:0 21:0 22:0 23:0 24:0 25:0.107495 26:0.345855 27:0.088801 28:0.046737 29:0 30:0 31:0.088801 32:0 33:0.046737 34:0.345855 35:0.088801 36:0 37:0 38:0 39:0.271075 40:0.107495 41:0 42:0 43:0 44:0 45:0.032716 46:0 47:0.182275 48:0.238359 49:0.028042 50:0 51:0 52:0.420634 53:0 54:0 55:0 56:0.224338 57:0.028042 58:0 59:0 60:0.359876 61:0.205643 62:0 63:0 64:0 65:0 66:0 67:0 68:0 69:0.261728 70:0 71:0 72:0.219664 73:0.065432 74:0.056085 75:0 76:0 77:0.112169 78:0 79:0 80:0 
-1.088280923493273 1:0 2:0 3:0 4:0 5:0 6:0 7:0 8:0 9:0 10:0 11:0 12:0 13:0 14:0 15:0 16:0 17:0 18:0 19:0 20:0 21:0 22:0 23:0 24:0 25:0.419411 26:0.090335 27:0 28:0 29:0 30:0 31:0.10324 32:0 33:0.135502 34:0.090335 35:0 36:0 37:0.038715 38:0 39:0.283909 40:0.141955 41:0.122597 42:0.07743 43:0.038715 44:0.096787 45:0.038715 46:0 47:0.083882 48:0.141955 49:0 50:0 51:0.083882 52:0.393601 53:0 54:0 55:0 56:0 57:0.116145 58:0 59:0.083882 60:0.277457 61:0 62:0 63:0 64:0.283909 65:0.038715 66:0 67:0 68:0.135502 69:0 70:0 71:0 72:0.505954 73:0 74:0 75:0 76:0 77:0 78:0 79:0 80:0 
-0.1641747067510448 1:0 2:0 3:0 4:0.01831 5:0 6:0 7:0 8:0 9:0.042723 10:0 11:0.045774 12:0.045774 13:0 14:0 15:0 16:0 17:0.146477 18:0.033568 19:0.024413 20:0.027465 21:0 22:0 23:0.027465 24:0 25:0 26:0.439432 27:0 28:0 29:0 30:0 31:0.048826 32:0 33:0 34:0.482155 35:0 36:0 37:0 38:0 39:0.051877 40:0.051877 41:0 42:0.070187 43:0 44:0 45:0.146477 46:0.057981 47:0.051877 48:0.140374 49:0.347884 50:0 51:0 52:0.17089 53:0 54:0 55:0 56:0 57:0.079342 58:0 59:0 60:0 61:0.134271 62:0 63:0 64:0 65:0 66:0 67:0 68:0 69:0.427226 70:0.061032 71:0 72:0 73:0.30923 74:0.070865 75:0.096634 76:0.096634 77:0 78:0 79:0.057981 80:0 
-0.3913884027304038 1:0.149628 2:0.010059 3:0 4:0.054067 5:0.056582 6:0 7:0 8:0.096818 9:0.123223 10:0 11:0.094303 12:0.084244 13:0.025148 14:0.070413 15:0.02892 16:0.080472 17:0 18:0 19:0.20621 20:0.017603 21:0 22:0.118194 23:0.02892 24:0 25:0.020118 26:0.106877 27:0.030177 28:0.137054 29:0.044008 30:0.026405 31:0.02892 32:0.037721 33:0 34:0.21124 35:0.030177 36:0.0767 37:0.044008 38:0.026405 39:0.184835 40:0 41:0 42:0.103105 43:0.321889 44:0 45:0 46:0.007544 47:0.299256 48:0.020118 49:0 50:0 51:0.015089 52:0.272851 53:0.015089 54:0.118194 55:0.022633 56:0 57:0 58:0 59:0.007544 60:0.008802 61:0 62:0.086759 63:0.022633 64:0 65:0.071671 66:0 67:0 68:0 69:0.045266 70:0 71:0 72:0 73:0.306738 74:0.020621 75:0.422731 76:0.1959 77:0.115993 78:0.242297 79:0.059285 80:0.198477 
